{"learner":{"attributes":{"scikit_learn":"{\"_estimator_type\": \"classifier\"}"},"feature_names":[],"feature_types":[],"gradient_booster":{"model":{"cats":{"enc":[],"feature_segments":[],"sorted_idx":[]},"gbtree_model_param":{"num_parallel_tree":"1","num_trees":"100"},"iteration_indptr":[0,1,2,3,4,5,6,7,8,9,10,11,12,13,14,15,16,17,18,19,20,21,22,23,24,25,26,27,28,29,30,31,32,33,34,35,36,37,38,39,40,41,42,43,44,45,46,47,48,49,50,51,52,53,54,55,56,57,58,59,60,61,62,63,64,65,66,67,68,69,70,71,72,73,74,75,76,77,78,79,80,81,82,83,84,85,86,87,88,89,90,91,92,93,94,95,96,97,98,99,100],"tree_info":[0,0,0,0,0,0,0,0,0,0,0,0,0,0,0,0,0,0,0,0,0,0,0,0,0,0,0,0,0,0,0,0,0,0,0,0,0,0,0,0,0,0,0,0,0,0,0,0,0,0,0,0,0,0,0,0,0,0,0,0,0,0,0,0,0,0,0,0,0,0,0,0,0,0,0,0,0,0,0,0,0,0,0,0,0,0,0,0,0,0,0,0,0,0,0,0,0,0,0,0],"trees":[{"base_weights":[2.5289766E-9,-6.823004E-1,8.7587935E-1,-1.1898793E0,-1.1048627E-1,2.916146E-1,1.3402351E0,-1.3733588E0,-1.0250988E0,1.9571154E0,-4.7952232E-1,9.885239E-1,-3.0750874E-1,1.6414719E0,1.1693874E-2,-1.3820703E0,-7.4757063E-1,-9.0680027E-1,-1.3707802E0,1.0964148E0,2.990057E0,-3.2659802E-1,-1.0272422E0,1.20821E0,-2.3134954E-1,1.8822491E-1,-1.0215032E0,6.5283394E-1,2.0783725E0,3.9268103E-1,-8.520356E-1,-1.041874E0,-1.3962157E0,1.7802912E-1,-8.84621E-1,-7.084359E-1,-1.1988571E0,-1.4284983E0,-1.0166556E0,2.0579693E0,8.1280184E-1,-4.0893236E-1,3.053139E0,-8.823616E-1,-1.9507392E-1,1.1851171E-1,-1.2162112E0,2.2302037E-1,1.443755E0,5.916327E-1,-8.351905E-1,7.756407E-1,-3.8467875E-1,-1.3440251E0,-4.5908275E-1,1.4776616E0,-3.5868278E-1,2.306603E0,-6.908528E-1,2.3306804E0,1.6613255E-1,-6.437335E-1,-1.2137405E0,-1.2858418E-1,3.6981568E-2,-1.3991468E-1,-6.6543005E-2,-6.506949E-2,-1.3390957E-1,-9.269857E-2,1.6560305E-2,1.3252227E-1,-1.2103003E-1,-2.819906E-2,-1.4300032E-1,6.9368603E-3,-1.2469783E-1,2.1772216E-1,-1.1019712E-1,2.5364047E-2,1.8038487E-1,-1.0532428E-1,1.6378777E-1,3.1359997E-1,2.0573759E-1,5.512181E-3,-9.1601074E-2,3.0238673E-1,-3.6950648E-2,-1.316471E-1,1.00426495E-1,-1.4077067E-1,-1.0930922E-1,1.14158094E-1,-8.318979E-2,-2.7136592E-2,1.5753348E-1,1.0507977E-2,1.16550766E-1,-1.1173916E-1,8.030087E-3,-1.00343805E-2,1.1947485E-1,4.1426335E-2,-7.7229984E-2,-1.3590269E-1,5.556212E-2,2.09812E-3,-1.09590106E-1,9.183988E-2,2.3781565E-1,-6.251445E-2,1.1714255E-1,1.1205764E-2,2.5292936E-1,6.2723085E-3,-1.1130103E-1,-3.99109E-2,3.043766E-1,3.290771E-2,-1.1479799E-1,-8.92969E-2,-2.0475222E-2,-2.819906E-2,-1.2216289E-1],"categories":[],"categories_nodes":[],"categories_segments":[],"categories_sizes":[],"default_left":[0,0,0,0,0,0,0,0,0,0,0,0,0,0,0,0,0,0,0,0,0,0,0,0,0,0,0,0,0,0,0,0,0,0,0,0,0,0,0,0,0,0,0,0,0,0,0,0,0,0,0,0,0,0,0,0,0,0,0,0,0,0,0,0,0,0,0,0,0,0,0,0,0,0,0,0,0,0,0,0,0,0,0,0,0,0,0,0,0,0,0,0,0,0,0,0,0,0,0,0,0,0,0,0,0,0,0,0,0,0,0,0,0,0,0,0,0,0,0,0,0,0,0,0,0],"id":0,"left_children":[1,3,5,7,9,11,13,15,17,19,21,23,25,27,29,31,33,35,37,39,41,43,45,47,49,51,53,55,57,59,61,63,65,-1,67,69,71,73,75,77,79,81,83,85,87,89,91,93,95,97,99,101,103,105,107,109,111,113,115,117,119,121,123,-1,-1,-1,-1,-1,-1,-1,-1,-1,-1,-1,-1,-1,-1,-1,-1,-1,-1,-1,-1,-1,-1,-1,-1,-1,-1,-1,-1,-1,-1,-1,-1,-1,-1,-1,-1,-1,-1,-1,-1,-1,-1,-1,-1,-1,-1,-1,-1,-1,-1,-1,-1,-1,-1,-1,-1,-1,-1,-1,-1,-1,-1],"loss_changes":[1.1162918E4,3.0473628E3,2.2187075E3,1.6676172E2,3.7692002E3,1.513148E3,1.8237241E3,1.3297852E1,1.1875513E2,6.618806E2,3.507392E2,4.4921167E2,6.900749E2,1.603168E3,2.7783734E2,1.101709E1,1.4833857E1,1.2597839E2,1.3800049E1,1.10052795E2,7.40376E1,2.3944357E2,1.981164E2,3.291294E2,1.279538E2,3.8772098E2,1.4429272E2,9.516213E2,1.6295381E3,2.568353E2,1.8690079E1,3.7463875E1,4.3916016E0,0E0,3.0592194E0,2.4965668E2,2.7138062E1,6.993408E-1,2.7113068E1,3.7317078E1,1.7577773E2,1.1045525E1,2.1057617E1,1.9830566E1,1.4902119E3,1.6702391E2,1.6969116E1,2.675422E2,2.5895752E2,3.0349125E1,3.8417053E1,2.089231E2,1.8101498E2,1.52091675E1,8.949671E1,3.1414343E2,2.098226E2,1.1627744E3,6.2706795E1,1.20425476E2,1.12927284E2,1.7992493E1,3.4136963E-1,0E0,0E0,0E0,0E0,0E0,0E0,0E0,0E0,0E0,0E0,0E0,0E0,0E0,0E0,0E0,0E0,0E0,0E0,0E0,0E0,0E0,0E0,0E0,0E0,0E0,0E0,0E0,0E0,0E0,0E0,0E0,0E0,0E0,0E0,0E0,0E0,0E0,0E0,0E0,0E0,0E0,0E0,0E0,0E0,0E0,0E0,0E0,0E0,0E0,0E0,0E0,0E0,0E0,0E0,0E0,0E0,0E0,0E0,0E0,0E0,0E0,0E0],"parents":[2147483647,0,0,1,1,2,2,3,3,4,4,5,5,6,6,7,7,8,8,9,9,10,10,11,11,12,12,13,13,14,14,15,15,16,16,17,17,18,18,19,19,20,20,21,21,22,22,23,23,24,24,25,25,26,26,27,27,28,28,29,29,30,30,31,31,32,32,34,34,35,35,36,36,37,37,38,38,39,39,40,40,41,41,42,42,43,43,44,44,45,45,46,46,47,47,48,48,49,49,50,50,51,51,52,52,53,53,54,54,55,55,56,56,57,57,58,58,59,59,60,60,61,61,62,62],"right_children":[2,4,6,8,10,12,14,16,18,20,22,24,26,28,30,32,34,36,38,40,42,44,46,48,50,52,54,56,58,60,62,64,66,-1,68,70,72,74,76,78,80,82,84,86,88,90,92,94,96,98,100,102,104,106,108,110,112,114,116,118,120,122,124,-1,-1,-1,-1,-1,-1,-1,-1,-1,-1,-1,-1,-1,-1,-1,-1,-1,-1,-1,-1,-1,-1,-1,-1,-1,-1,-1,-1,-1,-1,-1,-1,-1,-1,-1,-1,-1,-1,-1,-1,-1,-1,-1,-1,-1,-1,-1,-1,-1,-1,-1,-1,-1,-1,-1,-1,-1,-1,-1,-1,-1,-1],"split_conditions":[5.8220215E0,2E0,3.410267E3,5.0398207E0,1.8E1,5.7E1,2.49E2,1.674416E6,1E0,2.226176E6,1E0,6.570037E0,1E0,1.129816E6,1E0,1E0,5.8307E4,8.16E2,6.16552E5,1E0,5.007E3,4.608E4,5.3528686E0,9.4208E4,2.158352E6,3.0014E4,1.2E2,9.9E1,7.48288E6,5.8315496E0,2.8755494E4,7.3016E4,3.057295E4,1.7802912E-1,3.1631E4,8.0384E4,7.384E3,2.5E1,1.79308E5,2.0069E4,3.187E3,1.014647E5,2.04357E5,5.3E1,5.3762006E2,1.492E5,1.47456E5,1.0429E4,1E0,1.2E1,1E1,6.014877E0,1.2E2,3.2472766E3,4.6182E4,6.239293E0,6.222097E0,8E0,5.4E1,6.9071E4,6.41E2,4.09E2,1E0,-1.2858418E-1,3.6981568E-2,-1.3991468E-1,-6.6543005E-2,-6.506949E-2,-1.3390957E-1,-9.269857E-2,1.6560305E-2,1.3252227E-1,-1.2103003E-1,-2.819906E-2,-1.4300032E-1,6.9368603E-3,-1.2469783E-1,2.1772216E-1,-1.1019712E-1,2.5364047E-2,1.8038487E-1,-1.0532428E-1,1.6378777E-1,3.1359997E-1,2.0573759E-1,5.512181E-3,-9.1601074E-2,3.0238673E-1,-3.6950648E-2,-1.316471E-1,1.00426495E-1,-1.4077067E-1,-1.0930922E-1,1.14158094E-1,-8.318979E-2,-2.7136592E-2,1.5753348E-1,1.0507977E-2,1.16550766E-1,-1.1173916E-1,8.030087E-3,-1.00343805E-2,1.1947485E-1,4.1426335E-2,-7.7229984E-2,-1.3590269E-1,5.556212E-2,2.09812E-3,-1.09590106E-1,9.183988E-2,2.3781565E-1,-6.251445E-2,1.1714255E-1,1.1205764E-2,2.5292936E-1,6.2723085E-3,-1.1130103E-1,-3.99109E-2,3.043766E-1,3.290771E-2,-1.1479799E-1,-8.92969E-2,-2.0475222E-2,-2.819906E-2,-1.2216289E-1],"split_indices":[7,1,5,7,1,1,1,0,2,0,2,7,2,0,2,3,6,8,0,3,8,0,7,0,0,6,1,1,0,7,5,0,5,0,8,0,6,8,6,8,8,5,6,8,5,6,0,6,1,1,1,7,1,5,6,7,7,1,1,8,1,1,3,0,0,0,0,0,0,0,0,0,0,0,0,0,0,0,0,0,0,0,0,0,0,0,0,0,0,0,0,0,0,0,0,0,0,0,0,0,0,0,0,0,0,0,0,0,0,0,0,0,0,0,0,0,0,0,0,0,0,0,0,0,0],"split_type":[0,0,0,0,0,0,0,0,0,0,0,0,0,0,0,0,0,0,0,0,0,0,0,0,0,0,0,0,0,0,0,0,0,0,0,0,0,0,0,0,0,0,0,0,0,0,0,0,0,0,0,0,0,0,0,0,0,0,0,0,0,0,0,0,0,0,0,0,0,0,0,0,0,0,0,0,0,0,0,0,0,0,0,0,0,0,0,0,0,0,0,0,0,0,0,0,0,0,0,0,0,0,0,0,0,0,0,0,0,0,0,0,0,0,0,0,0,0,0,0,0,0,0,0,0],"sum_hessian":[1.867718E4,1.0498885E4,8.1782954E3,5.561267E3,4.937618E3,3.6222778E3,4.5560176E3,2.6278633E3,2.9334036E3,7.471652E2,4.1904526E3,1.6741875E3,1.9480903E3,3.7137231E3,8.4229443E2,2.5905918E3,3.7271584E1,2.1881887E3,7.4521497E2,4.0868723E2,3.3847797E2,3.2770823E3,9.133705E2,1.4187037E3,2.554837E2,1.1502184E3,7.978719E2,1.1389502E3,2.574773E3,5.848605E2,2.5743396E2,1.0639737E2,2.4841943E3,1.3001715E0,3.5971413E1,1.3051555E3,8.8303314E2,6.381675E2,1.07047455E2,9.1662094E1,3.1702515E2,6.0674667E0,3.3241052E2,6.260326E2,2.6510496E3,1.2936707E2,7.840034E2,2.7411948E2,1.1445844E3,1.0813093E2,1.4735277E2,5.677416E2,5.824768E2,5.062001E2,2.916718E2,6.27116E2,5.1183417E2,2.3788804E3,1.958925E2,6.024128E1,5.246192E2,1.6512178E2,9.231218E1,9.079531E1,1.5602058E1,2.4733596E3,1.0834763E1,2.5353344E1,1.0618067E1,1.0440377E3,2.6111777E2,3.467124E0,8.7956604E2,1.0834763E0,6.3708405E2,1.8852488E1,8.819497E1,8.862836E1,3.0337334E0,2.0347684E2,1.1354831E2,4.9839907E0,1.0834763E0,3.0489023E2,2.7520296E1,2.1669525E1,6.0436304E2,1.3543452E2,2.5156152E3,4.9189823E1,8.017724E1,3.0272327E2,4.8128015E2,1.46486E2,1.276335E2,8.147742E1,1.0631069E3,5.9157803E1,4.8973125E1,1.12464836E2,3.4887936E1,1.8397427E2,3.8376727E2,1.9025842E2,3.922184E2,5.025163E2,3.6838193E0,1.6685535E2,1.2481647E2,3.881012E2,2.3901486E2,4.3642422E2,7.540995E1,2.192956E2,2.159585E3,7.0642654E1,1.25249855E2,1.2568324E1,4.7672955E1,4.6741165E2,5.7207546E1,1.046638E2,6.0457973E1,1.0834763E0,9.12287E1],"tree_param":{"num_deleted":"0","num_feature":"9","num_nodes":"125","size_leaf_vector":"1"}},{"base_weights":[-3.52731E-3,-6.3407606E-1,7.6285034E-1,-1.1251765E0,-1.0251808E-1,2.5780952E-1,1.151118E0,-1.3087255E0,-9.626693E-1,1.6519402E0,-4.4133827E-1,8.581927E-1,-2.8217113E-1,1.3969611E0,8.801995E-3,-1.3174962E0,-6.9470197E-1,-8.4725404E-1,-1.3063487E0,2.3287978E0,8.057729E-1,-2.9887113E-1,-9.6564597E-1,9.7030103E-1,-9.232218E-1,1.6723534E-1,-9.596109E-1,5.729925E-1,1.7455292E0,3.4771028E-1,-7.948313E-1,-9.800896E-1,-1.3317316E0,1.6218512E-1,-8.2912487E-1,-6.565485E-1,-1.1336194E0,-1.3679865E-1,-9.736043E-1,8.7553895E-1,2.4961324E0,2.8360444E-1,1.5190085E0,-3.6370298E-1,8.401348E-1,1.0382596E-1,-1.1510653E0,-3.2416183E-1,1.0868002E0,-1.2196964E0,-1.09494746E-1,6.7846584E-1,-3.5228986E-1,-1.2791212E0,-4.218162E-1,1.3415487E0,-2.4313506E-1,1.9238398E0,-6.405133E-1,1.9522333E0,1.4806491E-1,-5.95266E-1,-1.1492817E0,-1.2211754E-1,3.3069983E-2,-1.3930567E-1,-1.2872155E-1,-6.0298093E-2,-1.279848E-1,-8.663122E-2,1.4817028E-2,-4.3617483E-2,-1.1773906E-1,5.037332E-3,-1.1933964E-1,1.892647E-1,3.0828891E-2,1.420564E-1,2.5499454E-1,1.2942079E-1,3.795474E-3,1.7661913E-1,2.3258526E-2,-1.0190458E-2,-6.268882E-2,1.865128E-1,-7.480081E-2,-1.2420688E-1,8.850616E-2,-1.3435556E-1,-1.0289234E-1,1.51031185E-2,-1.3771653E-1,2.1933158E-1,9.7117774E-2,-1.2927541E-1,-5.601122E-2,-4.9223825E-2,1.112054E-1,-9.071372E-3,1.03062145E-1,3.673174E-2,-7.171459E-2,-1.2942076E-1,5.0364252E-2,1.8880431E-3,-1.0320866E-1,-6.6466145E-2,1.5658759E-1,-4.68657E-2,1.0112949E-1,1.0047275E-2,2.0956726E-1,5.640425E-3,-1.04896866E-1,-3.674492E-2,2.4992566E-1,3.3466112E-2,-8.3161876E-2,-1.1320268E-1,-3.8914394E-2,-9.4106294E-2,-1.236959E-1],"categories":[],"categories_nodes":[],"categories_segments":[],"categories_sizes":[],"default_left":[0,0,0,0,0,0,0,0,0,0,0,0,0,0,0,0,0,0,0,0,0,0,0,0,0,0,0,0,0,0,0,0,0,0,0,0,0,0,0,0,0,0,0,0,0,0,0,0,0,0,0,0,0,0,0,0,0,0,0,0,0,0,0,0,0,0,0,0,0,0,0,0,0,0,0,0,0,0,0,0,0,0,0,0,0,0,0,0,0,0,0,0,0,0,0,0,0,0,0,0,0,0,0,0,0,0,0,0,0,0,0,0,0,0,0,0,0,0,0,0,0,0,0],"id":1,"left_children":[1,3,5,7,9,11,13,15,17,19,21,23,25,27,29,31,33,35,37,39,41,43,45,47,49,51,53,55,57,59,61,63,65,-1,67,69,71,-1,73,75,77,79,81,83,85,87,89,91,93,95,97,99,101,103,105,107,109,111,113,115,117,119,121,-1,-1,-1,-1,-1,-1,-1,-1,-1,-1,-1,-1,-1,-1,-1,-1,-1,-1,-1,-1,-1,-1,-1,-1,-1,-1,-1,-1,-1,-1,-1,-1,-1,-1,-1,-1,-1,-1,-1,-1,-1,-1,-1,-1,-1,-1,-1,-1,-1,-1,-1,-1,-1,-1,-1,-1,-1,-1,-1,-1],"loss_changes":[8.996987E3,2.6662876E3,1.6476323E3,1.5709814E2,2.917177E3,1.1848389E3,1.3341968E3,1.2496094E1,1.107395E2,4.5306226E2,3.069261E2,3.4648755E2,5.860675E2,1.1218564E3,2.2971019E2,1.0482422E1,1.2924532E1,1.1468738E2,1.3168823E1,1.0500488E2,1.3161072E2,2.3922815E2,1.7429211E2,2.4593518E2,2.4706993E1,3.0775494E2,1.3137079E2,7.302483E2,1.1698916E3,1.8973915E2,1.7012772E1,3.2996468E1,4.6274414E0,0E0,2.8782082E0,2.1469672E2,2.5238403E1,0E0,2.5710175E1,2.6564327E1,1.9224365E1,5.1070625E1,4.7167023E1,2.1090973E2,2.8553104E2,1.3852126E2,1.621875E1,6.7874435E1,1.8904248E2,2.9078598E0,1.3916845E1,1.5825903E2,1.512088E2,1.3590698E1,7.736728E1,2.7083167E2,1.6037897E2,8.0064746E2,5.4642563E1,8.4111206E1,9.691904E1,1.7498028E1,4.6155548E-1,0E0,0E0,0E0,0E0,0E0,0E0,0E0,0E0,0E0,0E0,0E0,0E0,0E0,0E0,0E0,0E0,0E0,0E0,0E0,0E0,0E0,0E0,0E0,0E0,0E0,0E0,0E0,0E0,0E0,0E0,0E0,0E0,0E0,0E0,0E0,0E0,0E0,0E0,0E0,0E0,0E0,0E0,0E0,0E0,0E0,0E0,0E0,0E0,0E0,0E0,0E0,0E0,0E0,0E0,0E0,0E0,0E0,0E0,0E0,0E0],"parents":[2147483647,0,0,1,1,2,2,3,3,4,4,5,5,6,6,7,7,8,8,9,9,10,10,11,11,12,12,13,13,14,14,15,15,16,16,17,17,18,18,19,19,20,20,21,21,22,22,23,23,24,24,25,25,26,26,27,27,28,28,29,29,30,30,31,31,32,32,34,34,35,35,36,36,38,38,39,39,40,40,41,41,42,42,43,43,44,44,45,45,46,46,47,47,48,48,49,49,50,50,51,51,52,52,53,53,54,54,55,55,56,56,57,57,58,58,59,59,60,60,61,61,62,62],"right_children":[2,4,6,8,10,12,14,16,18,20,22,24,26,28,30,32,34,36,38,40,42,44,46,48,50,52,54,56,58,60,62,64,66,-1,68,70,72,-1,74,76,78,80,82,84,86,88,90,92,94,96,98,100,102,104,106,108,110,112,114,116,118,120,122,-1,-1,-1,-1,-1,-1,-1,-1,-1,-1,-1,-1,-1,-1,-1,-1,-1,-1,-1,-1,-1,-1,-1,-1,-1,-1,-1,-1,-1,-1,-1,-1,-1,-1,-1,-1,-1,-1,-1,-1,-1,-1,-1,-1,-1,-1,-1,-1,-1,-1,-1,-1,-1,-1,-1,-1,-1,-1,-1,-1],"split_conditions":[5.8220215E0,2E0,3.410267E3,5.0398207E0,1.8E1,5.7E1,2.49E2,1.674416E6,1E0,5.0766177E0,1E0,1.781E4,1E0,1.129816E6,1E0,1E0,5.8307E4,8.16E2,1.45653E5,1.1E1,3.105E3,2.6025E4,5.3528686E0,1E0,1.52025E3,3.0014E4,1.2E2,8.4E1,7.48288E6,5.8315496E0,2.8755494E4,7.3016E4,1E0,1.6218512E-1,3.1631E4,8.0384E4,1E0,-1.3679865E-1,1.78283E5,3.016E3,8.8064E4,1E0,1.7E1,7.3E2,7.90856E5,8.71928E5,1.47456E5,1E0,1E0,1.5E1,2.3E1,6.014877E0,1.2E2,3.2472766E3,4.6182E4,1E0,6.222097E0,8E0,5.4E1,6.9071E4,5.8E2,5.932766E0,3.323392E6,-1.2211754E-1,3.3069983E-2,-1.3930567E-1,-1.2872155E-1,-6.0298093E-2,-1.279848E-1,-8.663122E-2,1.4817028E-2,-4.3617483E-2,-1.1773906E-1,5.037332E-3,-1.1933964E-1,1.892647E-1,3.0828891E-2,1.420564E-1,2.5499454E-1,1.2942079E-1,3.795474E-3,1.7661913E-1,2.3258526E-2,-1.0190458E-2,-6.268882E-2,1.865128E-1,-7.480081E-2,-1.2420688E-1,8.850616E-2,-1.3435556E-1,-1.0289234E-1,1.51031185E-2,-1.3771653E-1,2.1933158E-1,9.7117774E-2,-1.2927541E-1,-5.601122E-2,-4.9223825E-2,1.112054E-1,-9.071372E-3,1.03062145E-1,3.673174E-2,-7.171459E-2,-1.2942076E-1,5.0364252E-2,1.8880431E-3,-1.0320866E-1,-6.6466145E-2,1.5658759E-1,-4.68657E-2,1.0112949E-1,1.0047275E-2,2.0956726E-1,5.640425E-3,-1.04896866E-1,-3.674492E-2,2.4992566E-1,3.3466112E-2,-8.3161876E-2,-1.1320268E-1,-3.8914394E-2,-9.4106294E-2,-1.236959E-1],"split_indices":[7,1,5,7,1,1,1,0,2,7,2,8,2,0,2,3,6,8,6,1,8,8,7,1,5,6,1,1,0,7,5,0,1,0,8,0,3,0,6,6,0,3,1,8,6,0,0,2,3,1,1,7,1,5,6,1,7,1,1,8,1,7,0,0,0,0,0,0,0,0,0,0,0,0,0,0,0,0,0,0,0,0,0,0,0,0,0,0,0,0,0,0,0,0,0,0,0,0,0,0,0,0,0,0,0,0,0,0,0,0,0,0,0,0,0,0,0,0,0,0,0,0,0],"split_type":[0,0,0,0,0,0,0,0,0,0,0,0,0,0,0,0,0,0,0,0,0,0,0,0,0,0,0,0,0,0,0,0,0,0,0,0,0,0,0,0,0,0,0,0,0,0,0,0,0,0,0,0,0,0,0,0,0,0,0,0,0,0,0,0,0,0,0,0,0,0,0,0,0,0,0,0,0,0,0,0,0,0,0,0,0,0,0,0,0,0,0,0,0,0,0,0,0,0,0,0,0,0,0,0,0,0,0,0,0,0,0,0,0,0,0,0,0,0,0,0,0,0,0],"sum_hessian":[1.8616107E4,1.0213209E4,8.402899E3,5.308047E3,4.9051616E3,3.6529602E3,4.749939E3,2.4893352E3,2.8187117E3,7.9332715E2,4.1118345E3,1.7294564E3,1.9235037E3,3.908541E3,8.413981E2,2.4531487E3,3.618656E1,2.1126885E3,7.0602325E2,4.397859E2,3.5354126E2,3.23451E3,8.7732477E2,1.6274902E3,1.0196624E2,1.1568287E3,7.66675E2,1.162705E3,2.745836E3,5.92216E2,2.4918207E2,1.0213705E2,2.3510117E3,1.3777676E0,3.4808796E1,1.2701335E3,8.4255493E2,5.9305444E2,1.129688E2,4.6053627E1,3.9373227E2,2.049168E2,1.4862445E2,3.0609617E3,1.735483E2,1.296962E2,7.4762854E2,1.3423013E2,1.49326E3,7.4370926E1,2.7595316E1,5.829148E2,5.739139E2,4.80077E2,2.86598E2,5.984728E2,5.642321E2,2.5550864E3,1.907497E2,6.4561935E1,5.2765405E2,1.6113696E2,8.804509E1,8.6327675E1,1.5809377E1,9.7607904E2,1.3749326E3,2.4735777E1,1.0073018E1,1.00744836E3,2.6268524E2,5.040305E1,7.921519E2,2.0099426E1,9.286938E1,1.5652096E1,3.040153E1,2.0066137E1,3.7366614E2,3.9235085E1,1.6568172E2,1.243567E2,2.4267748E1,1.535219E3,1.5257427E3,1.0536861E2,6.817969E1,4.7417152E1,8.227905E1,2.863516E2,4.6127695E2,9.308147E1,4.1148666E1,1.395724E2,1.3536876E3,6.6090576E1,8.280351E0,2.1466372E1,6.128944E0,1.8329771E2,3.9961707E2,1.9308488E2,3.80829E2,4.7632022E2,3.7567585E0,1.6698303E2,1.1961496E2,5.9991512E1,5.384813E2,4.7878278E2,8.544937E1,2.2018837E2,2.334898E3,7.080396E1,1.1994573E2,1.2382315E1,5.217962E1,4.4378635E2,8.38677E1,4.3463093E1,1.17673874E2,2.9565422E1,5.847967E1],"tree_param":{"num_deleted":"0","num_feature":"9","num_nodes":"123","size_leaf_vector":"1"}},{"base_weights":[-5.624324E-3,-5.908132E-1,6.7454445E-1,-1.0678012E0,-9.4591945E-2,2.2955036E-1,1.0101881E0,-1.2534308E0,-9.0620095E-1,1.4382268E0,-4.0575132E-1,5.5796915E-1,-5.7234824E-1,1.2192836E0,6.629758E-3,-1.2879418E0,-1.0842066E0,-7.928966E-1,-1.2511735E0,1.9972113E0,6.893063E-1,-2.727881E-1,-9.1068757E-1,6.745681E-1,-8.780286E-1,2.3808953E-1,-9.0873593E-1,1.0184965E0,2.32899E0,3.1007084E-1,-7.4249476E-1,-1.3396744E-1,-1.225411E0,2.0682514E-1,-1.137328E0,-1.1151564E0,-6.2932175E-1,-1.3116083E0,-8.9218336E-1,8.0599487E-1,2.143559E0,2.232429E-1,1.2801427E0,-8.162081E-1,-1.4626956E-1,9.140125E-2,-1.0930544E0,5.3995486E-2,9.2804146E-1,1.4516593E0,-9.174769E-1,-1.1421993E0,7.9546404E-1,-1.2187629E0,-3.8780525E-1,1.4053253E0,-6.2527364E-1,2.3504639E-1,-1.216436E-1,-2.4634215E-1,7.7663195E-1,-8.420642E-1,-7.1464725E-2,-6.8516046E-2,-1.3027392E-1,1.3359891E-1,-9.681662E-2,-1.17094755E-1,-4.3042105E-2,-5.065749E-2,-1.2514165E-1,-6.89676E-2,2.1647967E-2,-2.2070577E-2,-1.3131951E-1,1.1345789E-2,-1.12444654E-1,1.7373338E-1,2.537824E-2,1.1545332E-1,2.194411E-1,1.0620854E-1,2.3068117E-3,1.5071724E-1,-1.7272444E-2,-8.330384E-2,1.05961815E-1,2.49454E-1,-3.0679751E-2,-1.2038692E-1,7.751101E-2,-7.1479194E-3,-1.1156932E-1,1.2807478E-1,-1.0116765E-2,1.3698007E-1,4.546058E-2,1.4048803E-2,2.0467912E-1,-1.035374E-1,-4.7524042E-2,-1.3357365E-1,-3.0082373E-2,2.0085345E-1,1.7528273E-2,-1.2334241E-1,4.5748495E-2,-1.5612852E-3,-1.03350304E-1,5.313936E-2,1.858673E-1,9.727212E-4,-9.153893E-2,1.1118824E-2,-1.2171153E-1,1.2617712E-1,-8.207839E-2,-4.8155483E-2,-1.0219001E-1,-1.1179926E-1,1.2893334E-1],"categories":[],"categories_nodes":[],"categories_segments":[],"categories_sizes":[],"default_left":[0,0,0,0,0,0,0,0,0,0,0,0,0,0,0,0,0,0,0,0,0,0,0,0,0,0,0,0,0,0,0,0,0,0,0,0,0,0,0,0,0,0,0,0,0,0,0,0,0,0,0,0,0,0,0,0,0,0,0,0,0,0,0,0,0,0,0,0,0,0,0,0,0,0,0,0,0,0,0,0,0,0,0,0,0,0,0,0,0,0,0,0,0,0,0,0,0,0,0,0,0,0,0,0,0,0,0,0,0,0,0,0,0,0,0,0,0,0,0,0,0],"id":2,"left_children":[1,3,5,7,9,11,13,15,17,19,21,23,25,27,29,31,33,35,37,39,41,43,45,47,49,51,53,55,57,59,61,-1,63,65,67,69,71,73,75,77,79,81,83,85,87,89,91,93,95,97,99,101,103,105,107,109,111,-1,-1,113,115,117,119,-1,-1,-1,-1,-1,-1,-1,-1,-1,-1,-1,-1,-1,-1,-1,-1,-1,-1,-1,-1,-1,-1,-1,-1,-1,-1,-1,-1,-1,-1,-1,-1,-1,-1,-1,-1,-1,-1,-1,-1,-1,-1,-1,-1,-1,-1,-1,-1,-1,-1,-1,-1,-1,-1,-1,-1,-1,-1],"loss_changes":[7.33495E3,2.344509E3,1.2726855E3,1.5037207E2,2.316702E3,9.656967E2,1.0193638E3,1.2315674E1,1.046875E2,3.4175916E2,2.7081683E2,4.3610583E2,2.9071103E2,8.93395E2,1.9086542E2,4.6503906E0,2.7945312E1,1.0672681E2,1.3294922E1,8.000195E1,9.659897E1,2.1970406E2,1.5381506E2,3.7845825E2,1.9323914E1,2.4197568E2,1.2117389E2,2.1666414E3,4.96958E1,1.5532222E2,1.6113052E1,0E0,3.638379E1,2.3601807E1,8.722717E0,5.6158813E1,6.9273315E1,6.9433594E-1,2.329728E1,2.676408E1,1.8434814E1,3.3205673E1,5.1366287E1,1.993869E1,1.1007245E3,1.1643976E2,1.6380005E1,1.3316096E2,3.5668274E2,2.5583358E0,9.5772705E0,1.4342255E1,1.6801715E2,1.2157471E1,6.787273E1,1.0915215E3,1.19670334E2,0E0,0E0,9.499359E1,2.5311145E2,1.3167664E1,4.7539753E1,0E0,0E0,0E0,0E0,0E0,0E0,0E0,0E0,0E0,0E0,0E0,0E0,0E0,0E0,0E0,0E0,0E0,0E0,0E0,0E0,0E0,0E0,0E0,0E0,0E0,0E0,0E0,0E0,0E0,0E0,0E0,0E0,0E0,0E0,0E0,0E0,0E0,0E0,0E0,0E0,0E0,0E0,0E0,0E0,0E0,0E0,0E0,0E0,0E0,0E0,0E0,0E0,0E0,0E0,0E0,0E0,0E0,0E0],"parents":[2147483647,0,0,1,1,2,2,3,3,4,4,5,5,6,6,7,7,8,8,9,9,10,10,11,11,12,12,13,13,14,14,15,15,16,16,17,17,18,18,19,19,20,20,21,21,22,22,23,23,24,24,25,25,26,26,27,27,28,28,29,29,30,30,32,32,33,33,34,34,35,35,36,36,37,37,38,38,39,39,40,40,41,41,42,42,43,43,44,44,45,45,46,46,47,47,48,48,49,49,50,50,51,51,52,52,53,53,54,54,55,55,56,56,59,59,60,60,61,61,62,62],"right_children":[2,4,6,8,10,12,14,16,18,20,22,24,26,28,30,32,34,36,38,40,42,44,46,48,50,52,54,56,58,60,62,-1,64,66,68,70,72,74,76,78,80,82,84,86,88,90,92,94,96,98,100,102,104,106,108,110,112,-1,-1,114,116,118,120,-1,-1,-1,-1,-1,-1,-1,-1,-1,-1,-1,-1,-1,-1,-1,-1,-1,-1,-1,-1,-1,-1,-1,-1,-1,-1,-1,-1,-1,-1,-1,-1,-1,-1,-1,-1,-1,-1,-1,-1,-1,-1,-1,-1,-1,-1,-1,-1,-1,-1,-1,-1,-1,-1,-1,-1,-1,-1],"split_conditions":[5.8220215E0,2E0,3.410267E3,5.0398207E0,1.8E1,1E0,2.49E2,8.6016E4,1E0,5.096652E0,1E0,3.899392E6,4.6E1,2.47E2,1E0,4.8522477E0,1E0,1E0,6.16552E5,1.1E1,2.855E3,4.608E4,5.3528686E0,6.05962E0,3E0,7E0,1.2E2,1E0,5.932766E0,4.27E2,6.322048E0,-1.3396744E-1,6.1E1,1.075E3,1.8555E4,1E0,5.611735E0,2.5E1,1.79308E5,3.016E3,8.8064E4,1E0,1.7E1,2.6245E4,5.3762006E2,1.492E5,2.5E1,1E0,3.97824E5,2.0391575E3,2.5035022E3,1.8442506E3,6.384533E0,3.2472766E3,4.9318E4,6.282466E0,7E1,2.3504639E-1,-1.216436E-1,2.226176E6,5.99E2,1.189695E4,4.27E2,-6.8516046E-2,-1.3027392E-1,1.3359891E-1,-9.681662E-2,-1.17094755E-1,-4.3042105E-2,-5.065749E-2,-1.2514165E-1,-6.89676E-2,2.1647967E-2,-2.2070577E-2,-1.3131951E-1,1.1345789E-2,-1.12444654E-1,1.7373338E-1,2.537824E-2,1.1545332E-1,2.194411E-1,1.0620854E-1,2.3068117E-3,1.5071724E-1,-1.7272444E-2,-8.330384E-2,1.05961815E-1,2.49454E-1,-3.0679751E-2,-1.2038692E-1,7.751101E-2,-7.1479194E-3,-1.1156932E-1,1.2807478E-1,-1.0116765E-2,1.3698007E-1,4.546058E-2,1.4048803E-2,2.0467912E-1,-1.035374E-1,-4.7524042E-2,-1.3357365E-1,-3.0082373E-2,2.0085345E-1,1.7528273E-2,-1.2334241E-1,4.5748495E-2,-1.5612852E-3,-1.03350304E-1,5.313936E-2,1.858673E-1,9.727212E-4,-9.153893E-2,1.1118824E-2,-1.2171153E-1,1.2617712E-1,-8.207839E-2,-4.8155483E-2,-1.0219001E-1,-1.1179926E-1,1.2893334E-1],"split_indices":[7,1,5,7,1,2,1,0,2,7,2,0,1,1,2,7,3,1,0,1,8,0,7,7,1,1,1,2,7,1,7,0,8,8,8,3,7,8,6,6,0,3,1,6,5,6,1,3,0,5,5,5,7,5,6,7,1,0,0,0,1,5,1,0,0,0,0,0,0,0,0,0,0,0,0,0,0,0,0,0,0,0,0,0,0,0,0,0,0,0,0,0,0,0,0,0,0,0,0,0,0,0,0,0,0,0,0,0,0,0,0,0,0,0,0,0,0,0,0,0,0],"split_type":[0,0,0,0,0,0,0,0,0,0,0,0,0,0,0,0,0,0,0,0,0,0,0,0,0,0,0,0,0,0,0,0,0,0,0,0,0,0,0,0,0,0,0,0,0,0,0,0,0,0,0,0,0,0,0,0,0,0,0,0,0,0,0,0,0,0,0,0,0,0,0,0,0,0,0,0,0,0,0,0,0,0,0,0,0,0,0,0,0,0,0,0,0,0,0,0,0,0,0,0,0,0,0,0,0,0,0,0,0,0,0,0,0,0,0,0,0,0,0,0,0],"sum_hessian":[1.8426266E4,9.904757E3,8.521509E3,5.049663E3,4.8550933E3,3.6646387E3,4.8568696E3,2.346961E3,2.7027024E3,8.186543E2,4.0364387E3,2.6000774E3,1.0645613E3,4.0192314E3,8.376383E2,1.9439147E3,4.0304626E2,2.0369694E3,6.6573303E2,4.678159E2,3.508384E2,3.1963062E3,8.401326E2,2.4053037E3,1.9477368E2,3.1234363E2,7.522177E2,3.4050496E3,6.1418195E2,5.9657513E2,2.410632E2,1.052634E3,8.912806E2,1.5814181E1,3.872321E2,6.8386523E2,1.3531041E3,5.675364E2,9.819665E1,5.1897427E1,4.1591846E2,1.9689868E2,1.5393974E2,6.0259607E2,2.5937102E3,1.2942932E2,7.107033E2,6.9788983E2,1.7074138E3,2.6470764E0,1.921266E2,8.954474E1,2.227989E2,4.7072855E2,2.8148914E2,2.7565054E3,6.48544E2,6.1081934E2,3.362569E0,2.7230304E2,3.2427206E2,2.0969337E2,3.1369822E1,1.1283345E2,7.7844714E2,7.994483E0,7.819699E0,3.6902527E2,1.8206802E1,1.25968185E2,5.5789703E2,1.2631532E3,8.995095E1,1.0277978E0,5.665086E2,1.8520227E1,7.967642E1,1.8518595E1,3.3378834E1,2.1498314E1,3.9442014E2,3.7104523E1,1.5979416E2,1.3310323E2,2.0836523E1,5.9778845E2,4.8075733E0,1.4779688E2,2.4459133E3,4.4453125E1,8.4976204E1,1.5498345E1,6.9520496E2,7.75454E1,6.203444E2,8.8227563E2,8.251382E2,1.2122833E0,1.4347931E0,1.5062878E2,4.1497818E1,7.232145E1,1.722329E1,7.461461E1,1.481843E2,4.6690894E2,3.8196177E0,1.7921208E2,1.0227706E2,9.422583E2,1.8142472E3,2.0368587E2,4.4485815E2,1.9965622E2,7.264682E1,2.488928E2,7.537927E1,7.1013435E1,1.3867995E2,1.7833397E1,1.3536426E1],"tree_param":{"num_deleted":"0","num_feature":"9","num_nodes":"121","size_leaf_vector":"1"}},{"base_weights":[-7.0491093E-3,-5.5201584E-1,6.016032E-1,-1.0155041E0,-8.7383434E-2,2.205935E-1,9.0944207E-1,-1.2053126E0,-8.5354626E-1,1.2781857E0,-3.7379965E-1,6.972502E-1,-2.3846187E-1,1.0985228E0,1.2619388E-2,-1.2417649E0,-1.0373775E0,-7.416744E-1,-1.2032961E0,1.774443E0,6.1284226E-1,-2.4956611E-1,-8.6071813E-1,8.4541845E-1,-2.3316742E-1,1.2009292E-1,-8.3863163E-1,1.8185799E-1,1.2899791E0,2.8643993E-1,-6.9151956E-1,-1.269345E0,-1.1180267E0,2.0051539E-1,-1.09269E0,-5.539375E-1,-1.0326779E0,-1.2655798E0,-8.4176004E-1,-3.224173E-1,1.8410375E0,2.0832126E-1,1.1413835E0,-3.0847237E-1,8.163855E-1,8.070426E-2,-1.0402628E0,2.2792878E-2,1.0207626E0,3.9316612E-1,-7.5105536E-1,1.2692922E0,-2.9173035E-2,-1.1761154E0,-3.423685E-1,-2.09285E-1,1.4629387E0,1.4034314E0,-6.193022E-1,1.5975924E0,1.1782773E-1,-4.9698162E-1,-1.047478E0,-1.0906831E-1,-1.278083E-1,2.158694E-2,-1.2877451E-1,1.0382116E-1,-9.95534E-2,-1.1256565E-1,-3.9725687E-2,-7.62917E-2,2.0944523E-2,1.3374497E-1,-1.0451E-1,-2.1056771E-2,-1.2672055E-1,1.0224969E-2,-1.07284606E-1,-6.200406E-2,5.0483365E-2,1.8765655E-1,-8.468366E-2,4.2466316E-3,1.2711637E-1,1.3444032E-1,-1.5699368E-2,-6.76236E-3,-5.4749697E-2,1.7292753E-1,-6.6142045E-2,-1.1424722E-1,6.925135E-2,-1.2493266E-1,-9.101939E-2,7.492473E-2,-8.792817E-2,-2.4560641E-2,1.10452846E-1,-1.3794982E-3,8.514856E-2,-1.0119393E-1,2.965133E-3,4.5321353E-2,2.3938496E-1,4.4464264E-2,-4.561533E-2,-1.0172596E-1,-1.2677692E-1,8.337114E-4,-8.047779E-2,3.1045502E-2,-1.16049126E-1,8.995824E-2,1.7106526E-1,2.9046355E-2,1.5243855E-1,-2.7237392E-3,-1.00777924E-1,-5.1599782E-2,1.9809797E-1,4.1963052E-2,-3.9970964E-2,-1.0720786E-1,-3.076829E-2,-8.3062276E-2,-1.1410306E-1],"categories":[],"categories_nodes":[],"categories_segments":[],"categories_sizes":[],"default_left":[0,0,0,0,0,0,0,0,0,0,0,0,0,0,0,0,0,0,0,0,0,0,0,0,0,0,0,0,0,0,0,0,0,0,0,0,0,0,0,0,0,0,0,0,0,0,0,0,0,0,0,0,0,0,0,0,0,0,0,0,0,0,0,0,0,0,0,0,0,0,0,0,0,0,0,0,0,0,0,0,0,0,0,0,0,0,0,0,0,0,0,0,0,0,0,0,0,0,0,0,0,0,0,0,0,0,0,0,0,0,0,0,0,0,0,0,0,0,0,0,0,0,0,0,0,0,0],"id":3,"left_children":[1,3,5,7,9,11,13,15,17,19,21,23,25,27,29,31,33,35,37,39,41,43,45,47,49,51,53,55,57,59,61,63,65,67,69,71,73,75,77,79,81,83,85,87,89,91,93,95,97,99,101,103,105,107,109,111,113,115,117,119,121,123,125,-1,-1,-1,-1,-1,-1,-1,-1,-1,-1,-1,-1,-1,-1,-1,-1,-1,-1,-1,-1,-1,-1,-1,-1,-1,-1,-1,-1,-1,-1,-1,-1,-1,-1,-1,-1,-1,-1,-1,-1,-1,-1,-1,-1,-1,-1,-1,-1,-1,-1,-1,-1,-1,-1,-1,-1,-1,-1,-1,-1,-1,-1,-1,-1],"loss_changes":[6.0223936E3,2.0628418E3,1.0057976E3,1.4638965E2,1.8719412E3,8.3915796E2,8.043911E2,1.22126465E1,1.0048645E2,2.7290112E2,2.3909338E2,2.595564E2,4.2058102E2,6.873325E2,1.5965108E2,4.7478027E0,2.756781E1,1.06818115E2,1.3037781E1,6.6890625E1,7.588545E1,1.9825055E2,1.35943E2,2.3409912E2,8.438168E1,2.1000975E2,1.22007385E2,3.400688E2,7.0283936E2,1.3160811E2,1.5534256E1,9.0112305E-1,7.674097E1,1.899693E1,8.321838E0,1.9112054E2,2.4058716E1,6.4611816E-1,2.083976E1,4.1206956E0,4.5546265E1,3.5713554E1,4.0840225E1,1.7202927E2,2.2428693E2,9.782781E1,1.7220764E1,1.8821399E2,1.4219458E2,2.2018396E1,2.9001137E1,1.2807275E2,2.1957457E2,5.038391E0,4.8213245E1,2.5759958E2,2.061145E1,4.113833E2,4.193875E1,5.6002472E1,8.28426E1,1.6197884E1,6.9610596E-1,0E0,0E0,0E0,0E0,0E0,0E0,0E0,0E0,0E0,0E0,0E0,0E0,0E0,0E0,0E0,0E0,0E0,0E0,0E0,0E0,0E0,0E0,0E0,0E0,0E0,0E0,0E0,0E0,0E0,0E0,0E0,0E0,0E0,0E0,0E0,0E0,0E0,0E0,0E0,0E0,0E0,0E0,0E0,0E0,0E0,0E0,0E0,0E0,0E0,0E0,0E0,0E0,0E0,0E0,0E0,0E0,0E0,0E0,0E0,0E0,0E0,0E0,0E0,0E0],"parents":[2147483647,0,0,1,1,2,2,3,3,4,4,5,5,6,6,7,7,8,8,9,9,10,10,11,11,12,12,13,13,14,14,15,15,16,16,17,17,18,18,19,19,20,20,21,21,22,22,23,23,24,24,25,25,26,26,27,27,28,28,29,29,30,30,31,31,32,32,33,33,34,34,35,35,36,36,37,37,38,38,39,39,40,40,41,41,42,42,43,43,44,44,45,45,46,46,47,47,48,48,49,49,50,50,51,51,52,52,53,53,54,54,55,55,56,56,57,57,58,58,59,59,60,60,61,61,62,62],"right_children":[2,4,6,8,10,12,14,16,18,20,22,24,26,28,30,32,34,36,38,40,42,44,46,48,50,52,54,56,58,60,62,64,66,68,70,72,74,76,78,80,82,84,86,88,90,92,94,96,98,100,102,104,106,108,110,112,114,116,118,120,122,124,126,-1,-1,-1,-1,-1,-1,-1,-1,-1,-1,-1,-1,-1,-1,-1,-1,-1,-1,-1,-1,-1,-1,-1,-1,-1,-1,-1,-1,-1,-1,-1,-1,-1,-1,-1,-1,-1,-1,-1,-1,-1,-1,-1,-1,-1,-1,-1,-1,-1,-1,-1,-1,-1,-1,-1,-1,-1,-1,-1,-1,-1,-1,-1,-1],"split_conditions":[5.8220215E0,2E0,3.7178533E3,5.0398207E0,1.8E1,5.7E1,2.49E2,8.0384E4,1E0,5.096652E0,1E0,6.570037E0,1E0,6.6304E5,1E0,5.0036907E0,1E0,8.16E2,6.16552E5,6E0,3.105E3,2.8328E4,5.3528686E0,9.1136E4,2.158352E6,1.0429E4,1.19E2,6.222097E0,7.48288E6,5.8315496E0,2.8755494E4,1E0,6.1E1,1.192E3,1.8555E4,8.0384E4,7.384E3,2.5E1,1.79308E5,2.66512E5,2.38733E5,5.7316413E0,1.7E1,7.13E2,7.90856E5,8.71928E5,1.47456E5,1.0429E4,1E0,1.2E1,1E1,1.57E2,1.21E2,1.1E2,4.6182E4,1E0,4.57728E5,8E0,5.4E1,3.3651E4,1.9646963E4,6.2976E5,3.323392E6,-1.0906831E-1,-1.278083E-1,2.158694E-2,-1.2877451E-1,1.0382116E-1,-9.95534E-2,-1.1256565E-1,-3.9725687E-2,-7.62917E-2,2.0944523E-2,1.3374497E-1,-1.0451E-1,-2.1056771E-2,-1.2672055E-1,1.0224969E-2,-1.07284606E-1,-6.200406E-2,5.0483365E-2,1.8765655E-1,-8.468366E-2,4.2466316E-3,1.2711637E-1,1.3444032E-1,-1.5699368E-2,-6.76236E-3,-5.4749697E-2,1.7292753E-1,-6.6142045E-2,-1.1424722E-1,6.925135E-2,-1.2493266E-1,-9.101939E-2,7.492473E-2,-8.792817E-2,-2.4560641E-2,1.10452846E-1,-1.3794982E-3,8.514856E-2,-1.0119393E-1,2.965133E-3,4.5321353E-2,2.3938496E-1,4.4464264E-2,-4.561533E-2,-1.0172596E-1,-1.2677692E-1,8.337114E-4,-8.047779E-2,3.1045502E-2,-1.16049126E-1,8.995824E-2,1.7106526E-1,2.9046355E-2,1.5243855E-1,-2.7237392E-3,-1.00777924E-1,-5.1599782E-2,1.9809797E-1,4.1963052E-2,-3.9970964E-2,-1.0720786E-1,-3.076829E-2,-8.3062276E-2,-1.1410306E-1],"split_indices":[7,1,5,7,1,1,1,0,2,7,2,7,2,0,2,7,3,8,0,1,8,8,7,0,0,6,1,7,0,7,5,3,8,8,8,0,6,8,6,0,6,7,1,8,6,0,0,6,1,1,1,1,1,1,6,2,0,1,1,8,5,0,0,0,0,0,0,0,0,0,0,0,0,0,0,0,0,0,0,0,0,0,0,0,0,0,0,0,0,0,0,0,0,0,0,0,0,0,0,0,0,0,0,0,0,0,0,0,0,0,0,0,0,0,0,0,0,0,0,0,0,0,0,0,0,0,0],"split_type":[0,0,0,0,0,0,0,0,0,0,0,0,0,0,0,0,0,0,0,0,0,0,0,0,0,0,0,0,0,0,0,0,0,0,0,0,0,0,0,0,0,0,0,0,0,0,0,0,0,0,0,0,0,0,0,0,0,0,0,0,0,0,0,0,0,0,0,0,0,0,0,0,0,0,0,0,0,0,0,0,0,0,0,0,0,0,0,0,0,0,0,0,0,0,0,0,0,0,0,0,0,0,0,0,0,0,0,0,0,0,0,0,0,0,0,0,0,0,0,0,0,0,0,0,0,0,0],"sum_hessian":[1.8154402E4,9.578357E3,8.576045E3,4.7944893E3,4.7838687E3,3.8333071E3,4.742738E3,2.2044805E3,2.5900088E3,8.2881226E2,3.9550562E3,1.8803456E3,1.9529615E3,3.9167324E3,8.260053E2,1.80606E3,3.9842035E2,1.9646969E3,6.253119E2,4.7377356E2,3.550387E2,3.1522869E3,8.027694E2,1.6221162E3,2.582294E2,1.2230714E3,7.298902E2,6.770528E2,3.2396797E3,5.951578E2,2.3084752E2,1.469306E3,3.3675406E2,1.6928825E1,3.8149152E2,1.1960105E3,7.6868646E2,5.312842E2,9.4027756E1,1.4465219E1,4.5930832E2,2.0190448E2,1.5313422E2,2.987882E3,1.644047E2,1.2866733E2,6.741021E2,2.8520572E2,1.3369105E3,1.16986626E2,1.4124277E2,1.3973643E2,1.083335E3,4.336301E2,2.962601E2,5.193271E2,1.5772571E2,3.0582207E3,1.8145895E2,6.684975E1,5.2830804E2,1.5081853E2,8.002899E1,7.4376656E1,1.3949294E3,3.797992E1,2.9877414E2,1.0033482E1,6.895344E0,3.6363504E2,1.785649E1,9.38965E2,2.570454E2,3.4516084E0,7.6523486E2,1.0182028E0,5.302659E2,1.860047E1,7.5427284E1,1.0822166E1,3.6430523E0,4.5361435E2,5.693985E0,1.7555011E2,2.6354372E1,1.3239668E2,2.0737537E1,1.4889011E3,1.498981E3,1.015214E2,6.2883297E1,4.2610256E1,8.6057076E1,2.5524072E2,4.1886136E2,1.5807495E2,1.2713076E2,8.282548E1,1.2540851E3,6.2478893E1,5.4507736E1,1.0564414E2,3.5598637E1,8.178731E1,5.794912E1,5.134848E2,5.698502E2,1.6307846E2,2.7055164E2,1.6903822E2,1.2722187E2,3.362651E2,1.8306198E2,4.9586514E1,1.0813919E2,3.0011264E2,2.7581082E3,7.231547E1,1.09143486E2,1.021104E1,5.6638702E1,3.3382602E2,1.9448203E2,3.619457E1,1.14623955E2,2.7096933E1,5.2932056E1],"tree_param":{"num_deleted":"0","num_feature":"9","num_nodes":"127","size_leaf_vector":"1"}},{"base_weights":[-7.9785045E-3,-5.162431E-1,5.4068047E-1,-9.680373E-1,-8.0603346E-2,7.3787194E-1,5.8093958E-2,-1.162956E0,-8.05284E-1,1.14944E0,-3.4367168E-1,2.9024675E-1,1.0407281E0,1.6628516E0,-5.1413214E-1,-1.1911162E0,-9.2934096E-1,-6.946643E-1,-1.161089E0,6.480166E-1,1.7235198E0,-2.2763379E-1,-8.1492084E-1,5.068875E-1,-2.8201746E-2,1.2841581E0,-1.9046274E-1,-9.49675E-1,1.8342319E0,3.856059E-2,-7.144674E-1,-1.249435E0,-1.1240683E0,8.642076E-1,-9.870785E-1,-1.0256099E0,-5.3122747E-1,-1.2301953E-1,-8.083598E-1,1.1994859E0,4.684903E-1,-4.9766925E-1,1.7614546E0,-7.572707E-1,-1.06221505E-1,7.1403064E-2,-9.9193877E-1,-8.9718664E-1,6.25458E-1,-1.848875E-1,1.4536085E0,1.0093042E0,1.5752969E0,2.6972985E-1,-6.9520545E-1,8.9148104E-1,-1.428324E0,1.9160447E-1,-1.251155E-1,-1.1302893E0,6.7102796E-1,-9.296246E-1,-4.4202685E-1,-1.2514268E-1,-1.4613688E-2,-5.7265725E-2,-1.201504E-1,2.1080025E-1,-7.230311E-2,-1.06295586E-1,-5.3542495E-2,-4.227717E-2,-1.167885E-1,-6.4363405E-2,-6.859876E-3,1.4245555E-2,-1.0389719E-1,-1.8801376E-2,1.3568494E-1,1.6581088E-2,9.460769E-2,-1.2570669E-1,1.17210865E-1,1.7783736E-1,1.21563785E-2,1.4525117E-2,-7.912311E-2,2.1863584E-1,-2.519126E-2,-1.1371435E-1,6.0573895E-2,-1.20756045E-1,-8.605784E-2,-4.752296E-2,-1.3260943E-1,1.656126E-2,9.835267E-2,-9.5995575E-2,-4.238551E-3,2.0819381E-1,-7.553863E-2,1.2762994E-1,3.827925E-2,1.6727096E-1,-1.566606E-2,3.9484198E-4,1.2069225E-1,9.872646E-2,-7.5683326E-2,-9.717282E-2,1.531453E-1,-1.4579849E-1,-5.543364E-2,-1.2911296E-1,-9.892363E-2,1.594026E-1,1.9024712E-3,-1.0574503E-1,-5.740167E-2,2.0580736E-1,-5.2150782E-2],"categories":[],"categories_nodes":[],"categories_segments":[],"categories_sizes":[],"default_left":[0,0,0,0,0,0,0,0,0,0,0,0,0,0,0,0,0,0,0,0,0,0,0,0,0,0,0,0,0,0,0,0,0,0,0,0,0,0,0,0,0,0,0,0,0,0,0,0,0,0,0,0,0,0,0,0,0,0,0,0,0,0,0,0,0,0,0,0,0,0,0,0,0,0,0,0,0,0,0,0,0,0,0,0,0,0,0,0,0,0,0,0,0,0,0,0,0,0,0,0,0,0,0,0,0,0,0,0,0,0,0,0,0,0,0,0,0,0,0,0,0],"id":4,"left_children":[1,3,5,7,9,11,13,15,17,19,21,23,25,27,29,31,33,35,37,39,41,43,45,47,49,51,53,55,57,59,61,63,65,67,69,71,73,-1,75,77,79,81,83,85,87,89,91,93,95,97,99,101,103,105,107,109,111,-1,-1,113,115,117,119,-1,-1,-1,-1,-1,-1,-1,-1,-1,-1,-1,-1,-1,-1,-1,-1,-1,-1,-1,-1,-1,-1,-1,-1,-1,-1,-1,-1,-1,-1,-1,-1,-1,-1,-1,-1,-1,-1,-1,-1,-1,-1,-1,-1,-1,-1,-1,-1,-1,-1,-1,-1,-1,-1,-1,-1,-1,-1],"loss_changes":[4.9721562E3,1.8216318E3,8.159053E2,1.4320117E2,1.5255192E3,8.248845E2,2.285858E3,1.2479248E1,9.677698E1,2.3798865E2,2.1217844E2,1.6957373E2,1.0882451E3,2.946963E2,2.032099E2,5.788086E0,2.4330399E1,1.01888306E2,1.3302429E1,4.3492477E1,3.3456665E1,2.0039664E2,1.2039981E2,2.4408298E2,2.3152419E2,2.4095557E2,1.3958772E2,3.735104E1,1.5747803E2,3.623607E2,7.854077E1,1.9591064E0,3.627527E1,1.6535732E1,6.9740906E0,5.3111145E1,6.598895E1,0E0,2.1856041E1,2.3976242E1,4.8607147E1,1.069505E1,1.0337769E1,1.7929749E1,8.48061E2,8.3739655E1,1.7069214E1,2.0059044E1,2.2203033E2,9.954695E1,1.3393073E2,2.6078125E2,2.482959E2,7.836972E1,3.045311E1,1.2294415E1,4.4036865E-2,0E0,0E0,2.6275635E0,1.9135603E2,3.356024E1,1.1955177E2,0E0,0E0,0E0,0E0,0E0,0E0,0E0,0E0,0E0,0E0,0E0,0E0,0E0,0E0,0E0,0E0,0E0,0E0,0E0,0E0,0E0,0E0,0E0,0E0,0E0,0E0,0E0,0E0,0E0,0E0,0E0,0E0,0E0,0E0,0E0,0E0,0E0,0E0,0E0,0E0,0E0,0E0,0E0,0E0,0E0,0E0,0E0,0E0,0E0,0E0,0E0,0E0,0E0,0E0,0E0,0E0,0E0,0E0],"parents":[2147483647,0,0,1,1,2,2,3,3,4,4,5,5,6,6,7,7,8,8,9,9,10,10,11,11,12,12,13,13,14,14,15,15,16,16,17,17,18,18,19,19,20,20,21,21,22,22,23,23,24,24,25,25,26,26,27,27,28,28,29,29,30,30,31,31,32,32,33,33,34,34,35,35,36,36,38,38,39,39,40,40,41,41,42,42,43,43,44,44,45,45,46,46,47,47,48,48,49,49,50,50,51,51,52,52,53,53,54,54,55,55,56,56,59,59,60,60,61,61,62,62],"right_children":[2,4,6,8,10,12,14,16,18,20,22,24,26,28,30,32,34,36,38,40,42,44,46,48,50,52,54,56,58,60,62,64,66,68,70,72,74,-1,76,78,80,82,84,86,88,90,92,94,96,98,100,102,104,106,108,110,112,-1,-1,114,116,118,120,-1,-1,-1,-1,-1,-1,-1,-1,-1,-1,-1,-1,-1,-1,-1,-1,-1,-1,-1,-1,-1,-1,-1,-1,-1,-1,-1,-1,-1,-1,-1,-1,-1,-1,-1,-1,-1,-1,-1,-1,-1,-1,-1,-1,-1,-1,-1,-1,-1,-1,-1,-1,-1,-1,-1,-1,-1,-1],"split_conditions":[5.8220215E0,2E0,1E0,5.0398207E0,1.8E1,6.239293E0,5.837642E0,1.62816E5,1E0,2.226176E6,1E0,1.23E2,6.567008E0,2.44E2,4.6E1,4.8522477E0,2.7788E4,1E0,1.45653E5,5.0237393E0,5.007E3,4.608E4,5.3528686E0,1E0,4.4435E4,1.790976E6,3.899392E6,4E1,2.49E2,7E0,1.52E2,2.751E3,6.1E1,1.192E3,1.674416E6,1E0,5.3986797E0,-1.2301953E-1,1.78283E5,6E0,2.804E3,8.6686555E4,3.3651E4,5.3E1,5.1910657E2,1.0274199E4,1.47456E5,1.21629E5,2.03264E5,1.41E2,8.12288E6,3.331E3,1.91E2,5.3516E4,4E0,2E0,2.18E2,1.9160447E-1,-1.251155E-1,1E0,6.384533E0,6.538407E0,1.5831E4,-1.2514268E-1,-1.4613688E-2,-5.7265725E-2,-1.201504E-1,2.1080025E-1,-7.230311E-2,-1.06295586E-1,-5.3542495E-2,-4.227717E-2,-1.167885E-1,-6.4363405E-2,-6.859876E-3,1.4245555E-2,-1.0389719E-1,-1.8801376E-2,1.3568494E-1,1.6581088E-2,9.460769E-2,-1.2570669E-1,1.17210865E-1,1.7783736E-1,1.21563785E-2,1.4525117E-2,-7.912311E-2,2.1863584E-1,-2.519126E-2,-1.1371435E-1,6.0573895E-2,-1.20756045E-1,-8.605784E-2,-4.752296E-2,-1.3260943E-1,1.656126E-2,9.835267E-2,-9.5995575E-2,-4.238551E-3,2.0819381E-1,-7.553863E-2,1.2762994E-1,3.827925E-2,1.6727096E-1,-1.566606E-2,3.9484198E-4,1.2069225E-1,9.872646E-2,-7.5683326E-2,-9.717282E-2,1.531453E-1,-1.4579849E-1,-5.543364E-2,-1.2911296E-1,-9.892363E-2,1.594026E-1,1.9024712E-3,-1.0574503E-1,-5.740167E-2,2.0580736E-1,-5.2150782E-2],"split_indices":[7,1,2,7,1,7,7,0,2,0,2,1,7,1,1,7,6,1,6,7,8,0,7,1,8,0,0,1,1,1,1,8,8,8,0,3,7,0,6,1,8,5,8,8,5,5,0,6,0,1,0,8,1,6,1,1,1,0,0,1,7,7,6,0,0,0,0,0,0,0,0,0,0,0,0,0,0,0,0,0,0,0,0,0,0,0,0,0,0,0,0,0,0,0,0,0,0,0,0,0,0,0,0,0,0,0,0,0,0,0,0,0,0,0,0,0,0,0,0,0,0],"split_type":[0,0,0,0,0,0,0,0,0,0,0,0,0,0,0,0,0,0,0,0,0,0,0,0,0,0,0,0,0,0,0,0,0,0,0,0,0,0,0,0,0,0,0,0,0,0,0,0,0,0,0,0,0,0,0,0,0,0,0,0,0,0,0,0,0,0,0,0,0,0,0,0,0,0,0,0,0,0,0,0,0,0,0,0,0,0,0,0,0,0,0,0,0,0,0,0,0,0,0,0,0,0,0,0,0,0,0,0,0,0,0,0,0,0,0,0,0,0,0,0,0],"sum_hessian":[1.7828045E4,9.254737E3,8.573309E3,4.5425337E3,4.712203E3,6.0859688E3,2.4873396E3,2.0642158E3,2.4783179E3,8.2963995E2,3.8825632E3,2.456778E3,3.6291904E3,6.5330304E2,1.8340366E3,1.8385021E3,2.2571376E2,1.8927991E3,5.8551874E2,4.439797E2,3.8566025E2,3.116625E3,7.6593823E2,1.461754E3,9.9502405E2,3.0300488E3,5.991416E2,3.993845E1,6.1336456E2,4.8814117E2,1.3458954E3,9.7382654E2,8.646756E2,6.603884E0,2.1910986E2,6.2399255E2,1.2688065E3,4.8751715E2,9.8001595E1,1.07642296E2,3.363374E2,6.2724357E0,3.7938782E2,5.802337E2,2.5363914E3,1.27607506E2,6.383307E2,1.1331748E2,1.3484365E3,9.0066364E2,9.436042E1,1.5609125E3,1.4691365E3,3.1364526E2,2.8549637E2,8.062602E0,3.1875849E1,5.978898E2,1.5474789E1,1.7111674E2,3.1702444E2,7.506583E2,5.952371E2,9.7193774E2,1.8888068E0,1.0750936E2,7.571662E2,3.5185657E0,3.0853188E0,1.864354E2,3.2674473E1,1.199061E2,5.0408646E2,1.02046844E3,2.4833812E2,1.9204319E1,7.879728E1,1.094486E1,9.669744E1,2.0669057E2,1.2964684E2,4.4814734E0,1.7909622E0,3.7543002E2,3.9577959E0,2.0922651E1,5.593111E2,1.5071701E2,2.3856743E3,3.877626E1,8.8831245E1,2.3855751E2,3.997732E2,5.818419E1,5.5133293E1,5.9096265E2,7.5747394E2,1.3898544E2,7.6167816E2,7.350895E1,2.0851469E1,1.0937578E3,4.6715466E2,1.3909384E3,7.819819E1,2.4513176E2,6.851349E1,9.5573015E0,2.7593906E2,1.9287784E0,6.1338234E0,3.0183306E1,1.6925435E0,7.6141014E1,9.497573E1,1.306405E2,1.8638394E2,5.5072345E2,1.9993488E2,1.7573164E1,5.7766394E2],"tree_param":{"num_deleted":"0","num_feature":"9","num_nodes":"121","size_leaf_vector":"1"}},{"base_weights":[-8.5237445E-3,-4.8348594E-1,4.891775E-1,-9.233355E-1,-7.44174E-2,5.524311E-1,-7.8716964E-1,-1.1247818E0,-7.592443E-1,1.0441813E0,-3.1663916E-1,2.0449723E-1,8.16319E-1,6.3020927E-1,-8.272474E-1,-1.1637483E0,-9.402023E-1,-6.4969873E-1,-1.1231319E0,5.806402E-1,1.5902319E0,1.9904381E-1,-4.227027E-1,5.819316E-1,-1.9277747E-1,5.003666E-1,1.3125896E0,-6.8909186E-1,1.287539E0,-7.1587354E-1,-1.0998949E0,-1.223547E-1,-1.0929166E0,2.1591581E-1,-9.957465E-1,-4.6381038E-1,-9.4841415E-1,-1.1933444E0,-7.5236595E-1,1.1340749E0,4.0885556E-1,-4.5886275E-1,1.6253834E0,-6.244873E-1,6.6898435E-1,-3.0677503E-1,-8.683929E-1,-2.32939E-2,6.9644207E-1,2.8551176E-1,-5.9480894E-1,1.4598454E0,1.6145903E-1,1.4634176E0,-3.8059768E-1,-1.03273384E-1,2.2976836E-2,1.829553E-1,-3.260984E-2,-4.3032384E-1,-8.327581E-1,-6.811785E-1,-1.165895E0,-5.5131365E-2,-1.17893316E-1,1.06757574E-1,-8.212327E-2,-1.0458437E-1,-4.9240265E-2,-6.480288E-2,3.5360977E-2,-2.4662707E-2,-9.9660486E-2,-2.3958592E-2,-1.1951601E-1,2.2547824E-4,-9.837628E-2,1.2590607E-1,-8.359068E-2,-2.7186323E-2,7.534885E-2,-1.0622833E-1,1.3947165E-1,1.6413897E-1,1.1177825E-2,-2.3730258E-2,-1.003338E-1,2.1989821E-1,2.4001127E-2,-3.7491556E-2,6.758755E-2,1.5973859E-2,-9.469509E-2,5.2269172E-2,-1.0084192E-1,1.17092125E-1,4.1592833E-2,-5.165037E-2,4.9293686E-2,-3.2056183E-2,-9.317449E-2,-5.993859E-2,1.6281189E-1,6.1042827E-2,-1.4179367E-2,1.5125138E-1,-7.3716748E-3,8.235939E-2,-5.7889532E-2,-7.150041E-2,7.017459E-2,-8.193492E-2,3.6324438E-2,-9.8870024E-2,-3.6040366E-2,-2.966377E-2,-1.12054385E-1,-1.1828516E-1,-1.8474227E-2],"categories":[],"categories_nodes":[],"categories_segments":[],"categories_sizes":[],"default_left":[0,0,0,0,0,0,0,0,0,0,0,0,0,0,0,0,0,0,0,0,0,0,0,0,0,0,0,0,0,0,0,0,0,0,0,0,0,0,0,0,0,0,0,0,0,0,0,0,0,0,0,0,0,0,0,0,0,0,0,0,0,0,0,0,0,0,0,0,0,0,0,0,0,0,0,0,0,0,0,0,0,0,0,0,0,0,0,0,0,0,0,0,0,0,0,0,0,0,0,0,0,0,0,0,0,0,0,0,0,0,0,0,0,0,0,0,0,0,0],"id":5,"left_children":[1,3,5,7,9,11,13,15,17,19,21,23,25,27,29,31,33,35,37,39,41,43,45,47,49,51,53,55,57,59,61,-1,63,65,67,69,71,73,75,77,79,81,83,85,87,89,91,93,95,97,99,101,103,105,107,-1,-1,-1,109,111,113,115,117,-1,-1,-1,-1,-1,-1,-1,-1,-1,-1,-1,-1,-1,-1,-1,-1,-1,-1,-1,-1,-1,-1,-1,-1,-1,-1,-1,-1,-1,-1,-1,-1,-1,-1,-1,-1,-1,-1,-1,-1,-1,-1,-1,-1,-1,-1,-1,-1,-1,-1,-1,-1,-1,-1,-1,-1],"loss_changes":[4.1249854E3,1.6065046E3,6.8836694E2,1.4136768E2,1.2541304E3,7.453071E2,2.3400238E1,1.2782471E1,9.391028E1,2.0762036E2,2.0817392E2,5.2541376E2,7.232737E2,1.0984102E1,1.1119568E1,5.392578E0,2.2145294E1,1.0102008E2,1.336731E1,4.2051697E1,2.795166E1,2.5185655E2,1.6278912E2,1.2453967E2,3.285077E2,9.176011E2,4.590586E2,1.6655362E0,5.8695774E0,9.029053E0,2.2970276E0,0E0,3.366974E1,1.5430884E1,7.70636E0,1.7012712E2,2.342572E1,5.0860596E-1,1.5709835E1,2.6995163E1,8.063191E1,9.478794E0,8.8185425E0,3.446212E1,2.7127875E2,1.6804887E2,5.272107E1,1.5480403E2,2.0061371E2,1.3009492E2,8.5456665E1,2.562306E2,2.842286E2,1.2453638E2,3.573214E1,0E0,0E0,0E0,2.1784222E0,2.6155668E1,1.4265167E1,2.6472902E0,1.3656769E0,0E0,0E0,0E0,0E0,0E0,0E0,0E0,0E0,0E0,0E0,0E0,0E0,0E0,0E0,0E0,0E0,0E0,0E0,0E0,0E0,0E0,0E0,0E0,0E0,0E0,0E0,0E0,0E0,0E0,0E0,0E0,0E0,0E0,0E0,0E0,0E0,0E0,0E0,0E0,0E0,0E0,0E0,0E0,0E0,0E0,0E0,0E0,0E0,0E0,0E0,0E0,0E0,0E0,0E0,0E0,0E0],"parents":[2147483647,0,0,1,1,2,2,3,3,4,4,5,5,6,6,7,7,8,8,9,9,10,10,11,11,12,12,13,13,14,14,15,15,16,16,17,17,18,18,19,19,20,20,21,21,22,22,23,23,24,24,25,25,26,26,27,27,28,28,29,29,30,30,32,32,33,33,34,34,35,35,36,36,37,37,38,38,39,39,40,40,41,41,42,42,43,43,44,44,45,45,46,46,47,47,48,48,49,49,50,50,51,51,52,52,53,53,54,54,58,58,59,59,60,60,61,61,62,62],"right_children":[2,4,6,8,10,12,14,16,18,20,22,24,26,28,30,32,34,36,38,40,42,44,46,48,50,52,54,56,58,60,62,-1,64,66,68,70,72,74,76,78,80,82,84,86,88,90,92,94,96,98,100,102,104,106,108,-1,-1,-1,110,112,114,116,118,-1,-1,-1,-1,-1,-1,-1,-1,-1,-1,-1,-1,-1,-1,-1,-1,-1,-1,-1,-1,-1,-1,-1,-1,-1,-1,-1,-1,-1,-1,-1,-1,-1,-1,-1,-1,-1,-1,-1,-1,-1,-1,-1,-1,-1,-1,-1,-1,-1,-1,-1,-1,-1,-1,-1,-1],"split_conditions":[5.8220215E0,2E0,8.12288E6,5.0398207E0,1.8E1,3.410267E3,1.6831E4,8.6016E4,1E0,2.226176E6,5.269175E0,5.8E1,6.384533E0,9.24627E6,2.5526448E7,4.8522477E0,1E0,8.16E2,5.77536E5,1E0,5.007E3,1.24928E5,1E0,9.1136E4,3.0014E4,5.837642E0,1E0,1.2988E4,8.5E1,5.4E1,6.490569E0,-1.223547E-1,6.1E1,1.075E3,1.674416E6,9.1136E4,1E0,3.3E1,1.79308E5,1.1470443E4,1.24928E5,1.014647E5,3.3651E4,2.01E2,7.3E2,2.3943E4,5.3528686E0,9.092772E2,2.54896E5,5.932766E0,1E0,1.680365E4,9.9E1,1.91E2,9.97888E5,-1.03273384E-1,2.2976836E-2,1.829553E-1,2.14E2,1.1E1,4.27E2,1E0,4.91E2,-5.5131365E-2,-1.17893316E-1,1.06757574E-1,-8.212327E-2,-1.0458437E-1,-4.9240265E-2,-6.480288E-2,3.5360977E-2,-2.4662707E-2,-9.9660486E-2,-2.3958592E-2,-1.1951601E-1,2.2547824E-4,-9.837628E-2,1.2590607E-1,-8.359068E-2,-2.7186323E-2,7.534885E-2,-1.0622833E-1,1.3947165E-1,1.6413897E-1,1.1177825E-2,-2.3730258E-2,-1.003338E-1,2.1989821E-1,2.4001127E-2,-3.7491556E-2,6.758755E-2,1.5973859E-2,-9.469509E-2,5.2269172E-2,-1.0084192E-1,1.17092125E-1,4.1592833E-2,-5.165037E-2,4.9293686E-2,-3.2056183E-2,-9.317449E-2,-5.993859E-2,1.6281189E-1,6.1042827E-2,-1.4179367E-2,1.5125138E-1,-7.3716748E-3,8.235939E-2,-5.7889532E-2,-7.150041E-2,7.017459E-2,-8.193492E-2,3.6324438E-2,-9.8870024E-2,-3.6040366E-2,-2.966377E-2,-1.12054385E-1,-1.1828516E-1,-1.8474227E-2],"split_indices":[7,1,0,7,1,5,8,0,2,0,7,1,7,0,0,7,3,8,0,3,8,0,2,0,6,7,2,8,1,1,7,0,8,8,0,0,3,8,6,5,0,5,8,8,8,8,7,5,0,7,2,5,1,1,0,0,0,0,1,1,1,2,1,0,0,0,0,0,0,0,0,0,0,0,0,0,0,0,0,0,0,0,0,0,0,0,0,0,0,0,0,0,0,0,0,0,0,0,0,0,0,0,0,0,0,0,0,0,0,0,0,0,0,0,0,0,0,0,0],"split_type":[0,0,0,0,0,0,0,0,0,0,0,0,0,0,0,0,0,0,0,0,0,0,0,0,0,0,0,0,0,0,0,0,0,0,0,0,0,0,0,0,0,0,0,0,0,0,0,0,0,0,0,0,0,0,0,0,0,0,0,0,0,0,0,0,0,0,0,0,0,0,0,0,0,0,0,0,0,0,0,0,0,0,0,0,0,0,0,0,0,0,0,0,0,0,0,0,0,0,0,0,0,0,0,0,0,0,0,0,0,0,0,0,0,0,0,0,0,0,0],"sum_hessian":[1.7447967E4,8.927948E3,8.520019E3,4.3015083E3,4.62644E3,8.1182583E3,4.0175986E2,1.9283358E3,2.3731726E3,8.2290234E2,3.8035374E3,3.5022922E3,4.6159663E3,1.0642856E1,3.91117E2,1.5878258E3,3.4051E2,1.8261958E3,5.469768E2,4.4619324E2,3.767091E2,6.4869476E2,3.1548425E3,1.7957546E3,1.7065376E3,2.8215962E3,1.79437E3,3.5232189E0,7.119637E0,2.802594E2,1.1085759E2,8.521426E2,7.3568317E2,1.5477068E1,3.2503296E2,1.127262E3,6.989339E2,4.5802206E2,8.895474E1,1.0436408E2,3.4182916E2,6.15002E0,3.7055908E2,2.355625E2,4.1313223E2,2.5049683E3,6.498744E2,2.858325E2,1.5099221E3,7.7948676E2,9.270508E2,7.356358E2,2.0859604E3,1.6477273E3,1.4664273E2,2.4740329E0,1.0491859E0,4.773791E0,2.345846E0,8.27594E1,1.9750002E2,1.6636086E1,9.4221504E1,1.0184242E2,6.3384076E2,8.482381E0,6.9946876E0,2.9463086E2,3.0402088E1,9.201084E2,2.0715352E2,4.530394E1,6.5363E2,1.1229126E0,4.5689914E2,2.1108133E1,6.784661E1,9.8477066E1,5.887011E0,1.1496382E2,2.2686534E2,4.9616795E0,1.1883407E0,3.6659787E2,3.9612095E0,1.173042E2,1.182583E2,8.956366E1,3.2356857E2,2.3431072E3,1.6186104E2,4.6057777E1,6.038166E2,1.8420825E2,1.01624245E2,5.598245E2,9.5009753E2,1.5986679E2,6.1962E2,5.121448E2,4.14906E2,5.537895E1,6.802569E2,8.4053107E2,1.2454293E3,1.5967434E3,5.098392E1,2.028794E1,1.263548E2,1.2296007E0,1.1162453E0,5.5513115E1,2.7246286E1,1.4765904E2,4.9840965E1,9.7648535E0,6.8712325E0,9.241872E1,1.8027862E0],"tree_param":{"num_deleted":"0","num_feature":"9","num_nodes":"119","size_leaf_vector":"1"}},{"base_weights":[-8.788923E-3,-4.524636E-1,4.4405973E-1,-8.8187855E-1,-6.856871E-2,6.0781777E-1,2.6901675E-2,-1.0903101E0,-7.1647406E-1,9.550068E-1,-2.9063633E-1,2.3898777E-1,8.592372E-1,1.4154581E0,-4.6615937E-1,-1.1322392E0,-9.04349E-1,-6.0810953E-1,-1.088727E0,5.213718E-1,1.4852004E0,1.7645688E-1,-3.8935202E-1,-8.7182856E-1,2.9220104E-1,1.0642443E0,-1.9333653E-1,-9.435765E-1,1.5706978E0,-4.915052E-3,-6.41448E-1,-1.1956598E-1,-1.0574998E0,2.1739095E-1,-9.626331E-1,-9.502022E-1,-4.4459632E-1,-1.1654591E-1,-7.164659E-1,1.0224564E0,3.6658868E-1,-4.197677E-1,1.518148E0,-5.801873E-1,5.855311E-1,-2.8014937E-1,-8.25448E-1,-4.7701174E-1,-1.2832845E0,7.881019E-1,1.0623732E-1,7.668239E-1,1.2732017E0,1.8945567E-1,-6.360782E-1,7.170479E-1,-1.3964297E0,1.6422403E-1,-1.2036377E-1,-1.0798331E0,5.5307764E-1,-9.463364E-1,-4.579259E-1,-5.1964916E-2,-1.14749625E-1,1.335638E-1,-4.713711E-2,-9.991632E-2,-2.7868753E-2,-3.6733735E-2,-1.0983857E-1,-2.427288E-2,-7.268857E-2,1.7271606E-2,-9.5508836E-2,1.1319611E-1,-8.655635E-2,-2.4706546E-2,6.718569E-2,-1.1492455E-1,1.0348822E-1,1.5712236E-1,9.334147E-2,-2.3511108E-2,-9.7226985E-2,1.6217004E-1,1.1675359E-2,2.9982207E-2,-3.8813483E-2,2.11672E-2,-8.989895E-2,-8.964133E-2,-8.6568244E-4,-1.3915364E-1,-8.651298E-2,1.3974584E-3,1.0175083E-1,3.9963257E-3,1.1952835E-1,1.1127877E-1,3.1222183E-2,1.3609539E-1,-2.7407426E-2,-2.9501214E-3,9.665009E-2,8.3154105E-2,-6.94299E-2,-9.595247E-2,1.2933572E-1,-1.0859885E-1,-1.5899098E-1,-1.2970303E-1,-9.447303E-2,1.3449217E-1,-1.0001722E-3,-1.0578369E-1,-1.6631031E-2,9.713564E-3,-5.9794106E-2],"categories":[],"categories_nodes":[],"categories_segments":[],"categories_sizes":[],"default_left":[0,0,0,0,0,0,0,0,0,0,0,0,0,0,0,0,0,0,0,0,0,0,0,0,0,0,0,0,0,0,0,0,0,0,0,0,0,0,0,0,0,0,0,0,0,0,0,0,0,0,0,0,0,0,0,0,0,0,0,0,0,0,0,0,0,0,0,0,0,0,0,0,0,0,0,0,0,0,0,0,0,0,0,0,0,0,0,0,0,0,0,0,0,0,0,0,0,0,0,0,0,0,0,0,0,0,0,0,0,0,0,0,0,0,0,0,0,0,0],"id":6,"left_children":[1,3,5,7,9,11,13,15,17,19,21,23,25,27,29,31,33,35,37,39,41,43,45,47,49,51,53,55,57,59,61,-1,63,65,67,69,71,-1,73,75,77,79,81,83,85,87,89,91,93,95,97,99,101,103,105,107,109,-1,-1,111,113,115,117,-1,-1,-1,-1,-1,-1,-1,-1,-1,-1,-1,-1,-1,-1,-1,-1,-1,-1,-1,-1,-1,-1,-1,-1,-1,-1,-1,-1,-1,-1,-1,-1,-1,-1,-1,-1,-1,-1,-1,-1,-1,-1,-1,-1,-1,-1,-1,-1,-1,-1,-1,-1,-1,-1,-1,-1],"loss_changes":[3.429517E3,1.4212725E3,5.7704504E2,1.3952075E2,1.035267E3,5.623015E2,1.631694E3,1.3000977E1,9.098511E1,1.859093E2,1.7262695E2,1.4568065E2,7.784885E2,2.3018811E2,1.4219748E2,5.673828E0,2.2170715E1,9.813464E1,1.3760925E1,3.438778E1,2.3532166E1,2.0264807E2,1.4691153E2,1.769931E1,2.1649684E2,1.8664575E2,9.991055E1,3.0468525E1,1.1835254E2,2.917066E2,7.08772E1,0E0,3.2347168E1,1.4036549E1,7.704132E0,4.873578E1,6.7864105E1,0E0,1.9244473E1,2.2732986E1,6.460522E1,8.601547E0,9.668579E0,3.087217E1,2.0612277E2,1.5496564E2,4.7344788E1,1.1604147E1,1.2679291E0,1.1370627E2,1.2331295E2,1.959776E2,2.4092285E2,5.38868E1,2.3925797E1,9.991791E0,1.4302063E-1,0E0,0E0,3.6513062E0,1.4276225E2,4.1392395E1,6.203824E1,0E0,0E0,0E0,0E0,0E0,0E0,0E0,0E0,0E0,0E0,0E0,0E0,0E0,0E0,0E0,0E0,0E0,0E0,0E0,0E0,0E0,0E0,0E0,0E0,0E0,0E0,0E0,0E0,0E0,0E0,0E0,0E0,0E0,0E0,0E0,0E0,0E0,0E0,0E0,0E0,0E0,0E0,0E0,0E0,0E0,0E0,0E0,0E0,0E0,0E0,0E0,0E0,0E0,0E0,0E0,0E0],"parents":[2147483647,0,0,1,1,2,2,3,3,4,4,5,5,6,6,7,7,8,8,9,9,10,10,11,11,12,12,13,13,14,14,15,15,16,16,17,17,18,18,19,19,20,20,21,21,22,22,23,23,24,24,25,25,26,26,27,27,28,28,29,29,30,30,32,32,33,33,34,34,35,35,36,36,38,38,39,39,40,40,41,41,42,42,43,43,44,44,45,45,46,46,47,47,48,48,49,49,50,50,51,51,52,52,53,53,54,54,55,55,56,56,59,59,60,60,61,61,62,62],"right_children":[2,4,6,8,10,12,14,16,18,20,22,24,26,28,30,32,34,36,38,40,42,44,46,48,50,52,54,56,58,60,62,-1,64,66,68,70,72,-1,74,76,78,80,82,84,86,88,90,92,94,96,98,100,102,104,106,108,110,-1,-1,112,114,116,118,-1,-1,-1,-1,-1,-1,-1,-1,-1,-1,-1,-1,-1,-1,-1,-1,-1,-1,-1,-1,-1,-1,-1,-1,-1,-1,-1,-1,-1,-1,-1,-1,-1,-1,-1,-1,-1,-1,-1,-1,-1,-1,-1,-1,-1,-1,-1,-1,-1,-1,-1,-1,-1,-1,-1,-1],"split_conditions":[5.8220215E0,2E0,1E0,5.0398207E0,1.8E1,6.239293E0,5.837642E0,8.0384E4,1E0,2.226176E6,5.269175E0,1E0,6.567008E0,2.44E2,4.6E1,4.8522477E0,1E0,1E0,1.45653E5,1E0,5.007E3,1.24928E5,1E0,1.21629E5,1.7E1,3.560664E3,3.899392E6,4E1,2.49E2,7E0,1.2E2,-1.1956598E-1,6.1E1,2.28E2,1.8555E4,1E0,4.5E2,-1.1654591E-1,1.78283E5,5.007E3,1.24928E5,8.6686555E4,2.04357E5,2.21E2,8.2E1,8.378E3,5.3444223E0,2.2528E5,6.0510664E0,1.13278E5,4.4435E4,5.07904E5,2.27E2,5.3516E4,4E0,2E0,6.6304E5,1.6422403E-1,-1.2036377E-1,1.2149768E3,6.384533E0,7.706715E3,4.6182E4,-5.1964916E-2,-1.14749625E-1,1.335638E-1,-4.713711E-2,-9.991632E-2,-2.7868753E-2,-3.6733735E-2,-1.0983857E-1,-2.427288E-2,-7.268857E-2,1.7271606E-2,-9.5508836E-2,1.1319611E-1,-8.655635E-2,-2.4706546E-2,6.718569E-2,-1.1492455E-1,1.0348822E-1,1.5712236E-1,9.334147E-2,-2.3511108E-2,-9.7226985E-2,1.6217004E-1,1.1675359E-2,2.9982207E-2,-3.8813483E-2,2.11672E-2,-8.989895E-2,-8.964133E-2,-8.6568244E-4,-1.3915364E-1,-8.651298E-2,1.3974584E-3,1.0175083E-1,3.9963257E-3,1.1952835E-1,1.1127877E-1,3.1222183E-2,1.3609539E-1,-2.7407426E-2,-2.9501214E-3,9.665009E-2,8.3154105E-2,-6.94299E-2,-9.595247E-2,1.2933572E-1,-1.0859885E-1,-1.5899098E-1,-1.2970303E-1,-9.447303E-2,1.3449217E-1,-1.0001722E-3,-1.0578369E-1,-1.6631031E-2,9.713564E-3,-5.9794106E-2],"split_indices":[7,1,2,7,1,7,7,0,2,0,7,1,7,1,1,7,3,1,6,3,8,0,2,6,1,5,0,1,1,1,1,0,8,8,8,3,8,0,6,8,0,5,6,8,1,6,7,0,7,0,8,0,1,6,1,1,0,0,0,5,7,5,6,0,0,0,0,0,0,0,0,0,0,0,0,0,0,0,0,0,0,0,0,0,0,0,0,0,0,0,0,0,0,0,0,0,0,0,0,0,0,0,0,0,0,0,0,0,0,0,0,0,0,0,0,0,0,0,0],"split_type":[0,0,0,0,0,0,0,0,0,0,0,0,0,0,0,0,0,0,0,0,0,0,0,0,0,0,0,0,0,0,0,0,0,0,0,0,0,0,0,0,0,0,0,0,0,0,0,0,0,0,0,0,0,0,0,0,0,0,0,0,0,0,0,0,0,0,0,0,0,0,0,0,0,0,0,0,0,0,0,0,0,0,0,0,0,0,0,0,0,0,0,0,0,0,0,0,0,0,0,0,0,0,0,0,0,0,0,0,0,0,0,0,0,0,0,0,0,0,0],"sum_hessian":[1.7067281E4,8.620965E3,8.446316E3,4.068617E3,4.5523477E3,6.065004E3,2.381313E3,1.7976934E3,2.2709236E3,8.109835E2,3.741364E3,2.4592524E3,3.6057512E3,6.235116E2,1.7578015E3,1.4627863E3,3.3490707E2,1.7609397E3,5.0998395E2,4.4720593E2,3.637776E2,6.52612E2,3.0887522E3,1.1172072E2,2.3475317E3,3.017943E3,5.8780804E2,3.8184143E1,5.8532745E2,4.8434695E2,1.2734545E3,7.832005E2,6.795858E2,1.6406986E1,3.185001E2,5.679328E2,1.1930068E3,4.21062E2,8.892193E1,1.042165E2,3.429894E2,5.9851766E0,3.5779242E2,2.2886798E2,4.2374402E2,2.4715054E3,6.1724664E2,5.81151E1,5.3605614E1,6.393551E2,1.7081768E3,1.247285E3,1.7706581E3,3.1555386E2,2.722542E2,8.05668E0,3.0127464E1,5.7101074E2,1.431673E1,1.651898E2,3.1915717E2,4.7694363E2,7.9651086E2,9.838378E1,5.81202E2,5.895728E0,1.0511258E1,3.0191376E2,1.6586336E1,1.1582515E2,4.5210767E2,6.966712E2,4.9633566E2,1.8872662E1,7.004927E1,9.888183E1,5.3346705E0,1.1400523E2,2.2898418E2,4.1260138E0,1.8591627E0,3.2647186E2,3.1320566E1,1.225819E2,1.0628608E2,1.312264E2,2.925176E2,3.8766214E2,2.0838433E3,4.074608E1,5.7650055E2,3.0177685E1,2.7937416E1,4.0732883E1,1.2872729E1,1.463982E2,4.929569E2,1.6111656E3,9.7011024E1,7.0744977E2,5.3983527E2,1.6757407E3,9.4917435E1,2.4693437E2,6.8619484E1,9.881457E0,2.6237274E2,1.8908772E0,6.165803E0,1.410644E1,1.6021025E1,6.0050175E1,1.0513964E2,1.3205835E2,1.870988E2,4.1698212E2,5.99615E1,1.6050961E2,6.360013E2],"tree_param":{"num_deleted":"0","num_feature":"9","num_nodes":"119","size_leaf_vector":"1"}},{"base_weights":[-8.902434E-3,-4.421342E-1,3.8776198E-1,-8.48785E-1,-6.919033E-2,1.1015714E-1,5.9741867E-1,-1.067001E0,-6.8983245E-1,8.6239326E-1,-2.7569127E-1,4.4633862E-1,-2.3402865E-1,1.4295976E0,4.8789716E-1,-1.1140587E0,-8.5790014E-1,-5.896937E-1,-1.057516E0,1.2903469E0,2.7867928E-1,-7.358833E-1,-1.7671481E-1,5.2502185E-1,-5.039422E-1,1.7011231E-1,-5.7448137E-1,1.544082E0,-1.1174086E0,7.665402E-1,1.4973529E-1,-1.1692293E-1,-1.0423874E0,2.0752601E-1,-9.152459E-1,-3.813688E-1,-8.179243E-1,7.023592E-1,-1.0751262E0,3.8907456E-1,1.417578E0,2.3326704E-2,6.571412E-1,-4.661676E-1,-8.5608166E-1,1.930414E0,-2.9901505E-1,-5.848414E-2,6.5031093E-1,1.2771817E0,-6.831229E-1,-6.125274E-1,3.9391524E-1,-3.7552303E-1,-8.4660614E-1,-6.150708E-1,1.5810483E0,-1.2543161E0,7.296982E-2,9.945685E-2,1.4025463E0,7.4976015E-1,-2.1249545E-1,-7.234727E-2,-1.1366618E-1,9.5378764E-2,-8.094494E-2,-9.705495E-2,-4.0527597E-2,-5.872733E-2,8.800314E-2,-1.0273009E-2,-8.703807E-2,1.5483476E-1,-7.513442E-2,-1.14095725E-1,-6.717551E-2,6.2430557E-2,-1.0228043E-1,5.6458946E-2,1.4692399E-1,-4.39606E-3,1.8347454E-1,1.2722354E-1,2.5235796E-2,-5.131827E-2,1.55421E-1,4.5336228E-2,-8.776074E-2,-1.0239382E-1,2.0013689E-1,3.2548882E-2,-4.519571E-2,7.410435E-2,-5.7035666E-2,3.556433E-2,9.784013E-2,1.8041524E-1,6.7202295E-3,-9.8586425E-2,4.2416914E-3,-6.602781E-2,2.076859E-1,6.7582496E-2,-3.3750847E-2,7.68659E-3,-6.869381E-2,-1.082541E-1,-4.67558E-2,-9.179677E-2,9.059923E-2,2.6004424E-3,1.5921034E-1,-6.73271E-2,-1.364859E-1,-1.8168708E-2,9.642347E-2,3.6360957E-2,1.468921E-1,-6.3132375E-2,1.18282974E-1,4.0663417E-5,-7.213451E-2],"categories":[],"categories_nodes":[],"categories_segments":[],"categories_sizes":[],"default_left":[0,0,0,0,0,0,0,0,0,0,0,0,0,0,0,0,0,0,0,0,0,0,0,0,0,0,0,0,0,0,0,0,0,0,0,0,0,0,0,0,0,0,0,0,0,0,0,0,0,0,0,0,0,0,0,0,0,0,0,0,0,0,0,0,0,0,0,0,0,0,0,0,0,0,0,0,0,0,0,0,0,0,0,0,0,0,0,0,0,0,0,0,0,0,0,0,0,0,0,0,0,0,0,0,0,0,0,0,0,0,0,0,0,0,0,0,0,0,0,0,0,0,0],"id":7,"left_children":[1,3,5,7,9,11,13,15,17,19,21,23,25,27,29,31,33,35,37,39,41,43,45,47,49,51,53,55,57,59,61,-1,63,65,67,69,71,73,75,77,79,81,83,85,87,89,91,93,95,97,99,101,103,105,107,109,111,113,-1,115,117,119,121,-1,-1,-1,-1,-1,-1,-1,-1,-1,-1,-1,-1,-1,-1,-1,-1,-1,-1,-1,-1,-1,-1,-1,-1,-1,-1,-1,-1,-1,-1,-1,-1,-1,-1,-1,-1,-1,-1,-1,-1,-1,-1,-1,-1,-1,-1,-1,-1,-1,-1,-1,-1,-1,-1,-1,-1,-1,-1,-1,-1],"loss_changes":[2.8629473E3,1.2075712E3,5.0611145E2,1.3138965E2,7.994815E2,4.3323877E2,4.5087585E2,1.482251E1,8.062537E1,1.8801361E2,1.548053E2,1.418825E2,2.5468106E2,1.6959973E2,4.1258984E2,3.9436035E0,1.8453339E1,8.2256775E1,1.535498E1,4.9309265E1,3.0935812E1,1.9110352E1,7.223462E2,1.2795145E2,4.7257603E1,1.485618E2,5.4067505E1,4.498059E1,7.324499E0,1.01854736E3,4.304819E2,0E0,1.6528137E1,1.29776535E1,7.611862E0,2.3680875E2,3.0968018E1,7.647056E0,1.1629578E1,1.8960724E1,1.5944702E1,2.3516169E1,3.1795765E1,1.8627533E1,1.2097595E1,3.4284912E1,2.5306602E2,1.2737238E2,1.3891418E2,8.571779E0,2.9191547E1,2.5603058E1,1.3613034E2,8.205353E1,3.73631E1,5.4393325E0,9.282593E0,6.2026596E-1,0E0,2.8535474E2,8.422168E1,4.4665024E2,1.3383286E2,0E0,0E0,0E0,0E0,0E0,0E0,0E0,0E0,0E0,0E0,0E0,0E0,0E0,0E0,0E0,0E0,0E0,0E0,0E0,0E0,0E0,0E0,0E0,0E0,0E0,0E0,0E0,0E0,0E0,0E0,0E0,0E0,0E0,0E0,0E0,0E0,0E0,0E0,0E0,0E0,0E0,0E0,0E0,0E0,0E0,0E0,0E0,0E0,0E0,0E0,0E0,0E0,0E0,0E0,0E0,0E0,0E0,0E0,0E0,0E0],"parents":[2147483647,0,0,1,1,2,2,3,3,4,4,5,5,6,6,7,7,8,8,9,9,10,10,11,11,12,12,13,13,14,14,15,15,16,16,17,17,18,18,19,19,20,20,21,21,22,22,23,23,24,24,25,25,26,26,27,27,28,28,29,29,30,30,32,32,33,33,34,34,35,35,36,36,37,37,38,38,39,39,40,40,41,41,42,42,43,43,44,44,45,45,46,46,47,47,48,48,49,49,50,50,51,51,52,52,53,53,54,54,55,55,56,56,57,57,59,59,60,60,61,61,62,62],"right_children":[2,4,6,8,10,12,14,16,18,20,22,24,26,28,30,32,34,36,38,40,42,44,46,48,50,52,54,56,58,60,62,-1,64,66,68,70,72,74,76,78,80,82,84,86,88,90,92,94,96,98,100,102,104,106,108,110,112,114,-1,116,118,120,122,-1,-1,-1,-1,-1,-1,-1,-1,-1,-1,-1,-1,-1,-1,-1,-1,-1,-1,-1,-1,-1,-1,-1,-1,-1,-1,-1,-1,-1,-1,-1,-1,-1,-1,-1,-1,-1,-1,-1,-1,-1,-1,-1,-1,-1,-1,-1,-1,-1,-1,-1,-1,-1,-1,-1,-1,-1,-1,-1,-1],"split_conditions":[5.7778764E0,2E0,3.410267E3,5.0333767E0,1.8E1,5.8E1,4.9704E4,8.6016E4,1E0,5.096652E0,4.608E4,2.471936E6,3.0014E4,1E0,4.226E3,4.8522477E0,1E0,4.5E2,3.8E1,1.1E1,3.105E3,5.3180637E0,5.1910657E2,9.1136E4,6.5442753E0,5.908835E0,1E0,3.39968E5,6.5133867E0,1.023062E6,1.8E1,-1.1692293E-1,1.01E2,5.1662E4,1.674416E6,7.3016E4,1E0,8.27904E5,6.8096E5,9.13432E3,8.8064E4,5.552996E4,7.706715E3,2.6245E4,1.8477658E2,1.09E2,7.7E1,5.768E3,1.2149768E3,1.1335212E3,1.52025E3,2.88256E5,6.8096E5,1.23E2,1.19E2,2.543E3,1E0,6.4482164E0,7.296982E-2,6.222097E0,6.3E1,2E0,1E0,-7.234727E-2,-1.1366618E-1,9.5378764E-2,-8.094494E-2,-9.705495E-2,-4.0527597E-2,-5.872733E-2,8.800314E-2,-1.0273009E-2,-8.703807E-2,1.5483476E-1,-7.513442E-2,-1.14095725E-1,-6.717551E-2,6.2430557E-2,-1.0228043E-1,5.6458946E-2,1.4692399E-1,-4.39606E-3,1.8347454E-1,1.2722354E-1,2.5235796E-2,-5.131827E-2,1.55421E-1,4.5336228E-2,-8.776074E-2,-1.0239382E-1,2.0013689E-1,3.2548882E-2,-4.519571E-2,7.410435E-2,-5.7035666E-2,3.556433E-2,9.784013E-2,1.8041524E-1,6.7202295E-3,-9.8586425E-2,4.2416914E-3,-6.602781E-2,2.076859E-1,6.7582496E-2,-3.3750847E-2,7.68659E-3,-6.869381E-2,-1.082541E-1,-4.67558E-2,-9.179677E-2,9.059923E-2,2.6004424E-3,1.5921034E-1,-6.73271E-2,-1.364859E-1,-1.8168708E-2,9.642347E-2,3.6360957E-2,1.468921E-1,-6.3132375E-2,1.18282974E-1,4.0663417E-5,-7.213451E-2],"split_indices":[7,1,5,7,1,1,6,0,2,7,0,0,6,2,8,7,3,8,8,1,8,7,5,0,7,7,2,0,7,0,1,0,8,6,0,0,3,0,0,5,0,5,5,6,5,1,1,6,5,5,5,0,0,1,1,8,1,7,0,7,1,1,2,0,0,0,0,0,0,0,0,0,0,0,0,0,0,0,0,0,0,0,0,0,0,0,0,0,0,0,0,0,0,0,0,0,0,0,0,0,0,0,0,0,0,0,0,0,0,0,0,0,0,0,0,0,0,0,0,0,0,0,0],"split_type":[0,0,0,0,0,0,0,0,0,0,0,0,0,0,0,0,0,0,0,0,0,0,0,0,0,0,0,0,0,0,0,0,0,0,0,0,0,0,0,0,0,0,0,0,0,0,0,0,0,0,0,0,0,0,0,0,0,0,0,0,0,0,0,0,0,0,0,0,0,0,0,0,0,0,0,0,0,0,0,0,0,0,0,0,0,0,0,0,0,0,0,0,0,0,0,0,0,0,0,0,0,0,0,0,0,0,0,0,0,0,0,0,0,0,0,0,0,0,0,0,0,0,0],"sum_hessian":[1.6657803E4,7.961854E3,8.695949E3,3.8081956E3,4.1536587E3,3.7423103E3,4.953639E3,1.6025049E3,2.2056907E3,7.530886E2,3.40057E3,1.8930186E3,1.8492917E3,5.7471576E2,4.3789233E3,1.3045826E3,2.979223E2,1.7356024E3,4.700882E2,4.338201E2,3.1926852E2,6.00784E2,2.7997861E3,1.7486758E3,1.443428E2,8.4578577E2,1.003506E3,5.503711E2,2.434465E1,2.40004E3,1.9788833E3,7.2849536E2,5.760873E2,1.5082662E1,2.8283966E2,9.0876685E2,8.268356E2,4.2720995E0,4.658161E2,5.4167755E1,3.7965234E2,1.9127486E2,1.2799368E2,1.8670682E2,4.140772E2,1.5277739E2,2.6470085E3,3.091962E2,1.4394795E3,1.2633466E1,1.3170935E2,1.8769138E2,6.580944E2,5.810577E2,4.224483E2,9.000884E0,5.413702E2,2.2963524E1,1.3811265E0,1.1719652E3,1.2280748E3,7.4452655E2,1.2343568E3,1.3342087E2,4.4266638E2,8.735004E0,6.347657E0,2.543532E2,2.8486452E1,7.817005E2,1.27066376E2,5.6702896E1,7.701327E2,2.6593657E0,1.6127338E0,3.9888803E2,6.6928055E1,4.6909973E1,7.257779E0,2.2361988E1,3.5729034E2,1.8536499E2,5.909871E0,4.994938E1,7.8044304E1,1.8318991E2,3.5169148E0,6.372417E0,4.0770477E2,3.268198E0,1.4950919E2,5.205074E2,2.1265012E3,1.2051232E2,1.8868388E2,7.594654E2,6.8001416E2,8.45854E0,4.1749263E0,9.267898E1,3.9030365E1,1.8515833E2,2.5330417E0,4.750672E2,1.830272E2,2.3721358E2,3.438441E2,2.592344E2,1.6321391E2,7.836799E0,1.1640848E0,3.8451974E0,5.37525E2,4.803825E0,1.8159698E1,8.8502783E2,2.8693738E2,7.413562E1,1.1539392E3,1.7762198E2,5.6690454E2,8.709511E2,3.634057E2],"tree_param":{"num_deleted":"0","num_feature":"9","num_nodes":"123","size_leaf_vector":"1"}},{"base_weights":[-8.8066645E-3,-4.1433933E-1,3.5418978E-1,-8.110166E-1,-6.353145E-2,4.038381E-1,-7.1057665E-1,-1.0251E0,-6.4061403E-1,8.643739E-1,-2.41738E-1,1.4238556E-1,6.244139E-1,5.007153E-1,-7.4734867E-1,-1.1516842E0,-9.52758E-1,-9.3899053E-1,-4.9833956E-1,1.2189373E0,2.6065525E-1,-1.5698601E-1,-6.653952E-1,4.354351E-1,-1.698683E-1,3.7679592E-1,1.0762724E0,-6.6377944E-1,1.0445788E0,-4.129857E-1,-8.540815E-1,-1.158022E0,-2.0491222E-1,1.5883066E-1,-1.0272319E0,-3.817317E-1,-1.0516826E0,-3.6415854E-1,-1.0004413E0,3.183723E-1,1.3398288E0,4.2313176E-1,-1.190212E0,-5.384181E-1,-6.641051E-2,3.9550614E-1,-8.852073E-1,-4.3057653E-1,5.062456E-1,3.6574833E-2,-6.1505383E-1,1.0025833E0,1.13005795E-1,1.1950989E0,-3.0733842E-1,-1.0017609E-1,2.19798E-2,1.4034827E-1,2.6172819E-2,-5.0145847E-1,4.1573906E-1,-6.739774E-1,-9.6543956E-1,-8.727035E-2,-1.1703595E-1,1.2304675E-1,-9.376224E-2,-7.2390765E-2,2.4411595E-1,-9.502354E-3,-1.0508521E-1,-7.815888E-2,-1.1323701E-2,-1.1441845E-1,-9.209436E-2,-1.5602465E-2,-6.6557765E-2,-1.09459594E-1,-4.3238994E-2,5.3779967E-2,-1.0444814E-1,3.8343772E-2,1.3978311E-1,-4.5992706E-2,8.029523E-2,-6.196661E-2,-1.4205945E-1,9.329256E-2,-6.141143E-2,1.7082433E-1,-2.0038744E-2,-1.0999234E-1,1.0008309E-1,-1.0630124E-1,-6.0423758E-2,-1.4634107E-2,-1.2138589E-1,1.2834506E-1,4.2844687E-2,8.134892E-2,-7.185872E-3,-9.850599E-2,-1.3196416E-2,1.7214705E-3,1.2698594E-1,2.9899409E-2,-4.0318545E-2,1.253754E-1,3.4930956E-2,-3.747298E-2,2.094603E-1,-6.657283E-2,7.141448E-2,-6.6984706E-2,5.13569E-3,-6.805703E-3,1.4588465E-1,-1.0172901E-1,-1.9333176E-2,-9.745755E-2,2.911869E-2],"categories":[],"categories_nodes":[],"categories_segments":[],"categories_sizes":[],"default_left":[0,0,0,0,0,0,0,0,0,0,0,0,0,0,0,0,0,0,0,0,0,0,0,0,0,0,0,0,0,0,0,0,0,0,0,0,0,0,0,0,0,0,0,0,0,0,0,0,0,0,0,0,0,0,0,0,0,0,0,0,0,0,0,0,0,0,0,0,0,0,0,0,0,0,0,0,0,0,0,0,0,0,0,0,0,0,0,0,0,0,0,0,0,0,0,0,0,0,0,0,0,0,0,0,0,0,0,0,0,0,0,0,0,0,0,0,0,0,0,0,0],"id":8,"left_children":[1,3,5,7,9,11,13,15,17,19,21,23,25,27,29,31,33,35,37,39,41,43,45,47,49,51,53,55,57,59,61,63,65,67,69,71,73,75,77,79,81,83,85,87,89,91,93,95,97,99,101,103,105,107,109,-1,-1,-1,111,113,115,117,119,-1,-1,-1,-1,-1,-1,-1,-1,-1,-1,-1,-1,-1,-1,-1,-1,-1,-1,-1,-1,-1,-1,-1,-1,-1,-1,-1,-1,-1,-1,-1,-1,-1,-1,-1,-1,-1,-1,-1,-1,-1,-1,-1,-1,-1,-1,-1,-1,-1,-1,-1,-1,-1,-1,-1,-1,-1,-1],"loss_changes":[2.3920776E3,1.0680074E3,4.5357275E2,1.3074585E2,6.739086E2,4.724148E2,1.7405563E1,1.3506348E1,8.478638E1,1.4023416E2,1.22641556E2,3.432672E2,4.9679382E2,8.207554E0,1.2905334E1,3.2138672E0,8.465082E1,4.0247437E1,9.1396484E1,4.4579895E1,5.807343E1,9.84269E1,1.3317232E2,1.188793E2,1.669667E2,4.7401224E2,2.5891077E2,1.5307685E0,3.0613375E0,6.9414053E0,4.978531E0,9.8895264E-1,6.45389E0,1.3261969E2,2.096405E1,1.1769352E1,5.4506836E0,6.742111E1,1.4857971E1,1.5585184E1,1.9664795E1,7.427905E1,2.3869858E0,6.146791E1,5.4820337E2,9.021729E1,2.2943726E1,3.25057E1,1.0763681E2,1.04684E2,1.0274481E2,2.2425098E2,1.942044E2,7.141675E1,2.1045813E1,0E0,0E0,0E0,2.0118454E0,7.8002777E0,4.845342E0,1.8045177E1,2.2483826E0,0E0,0E0,0E0,0E0,0E0,0E0,0E0,0E0,0E0,0E0,0E0,0E0,0E0,0E0,0E0,0E0,0E0,0E0,0E0,0E0,0E0,0E0,0E0,0E0,0E0,0E0,0E0,0E0,0E0,0E0,0E0,0E0,0E0,0E0,0E0,0E0,0E0,0E0,0E0,0E0,0E0,0E0,0E0,0E0,0E0,0E0,0E0,0E0,0E0,0E0,0E0,0E0,0E0,0E0,0E0,0E0,0E0,0E0],"parents":[2147483647,0,0,1,1,2,2,3,3,4,4,5,5,6,6,7,7,8,8,9,9,10,10,11,11,12,12,13,13,14,14,15,15,16,16,17,17,18,18,19,19,20,20,21,21,22,22,23,23,24,24,25,25,26,26,27,27,28,28,29,29,30,30,31,31,32,32,33,33,34,34,35,35,36,36,37,37,38,38,39,39,40,40,41,41,42,42,43,43,44,44,45,45,46,46,47,47,48,48,49,49,50,50,51,51,52,52,53,53,54,54,58,58,59,59,60,60,61,61,62,62],"right_children":[2,4,6,8,10,12,14,16,18,20,22,24,26,28,30,32,34,36,38,40,42,44,46,48,50,52,54,56,58,60,62,64,66,68,70,72,74,76,78,80,82,84,86,88,90,92,94,96,98,100,102,104,106,108,110,-1,-1,-1,112,114,116,118,120,-1,-1,-1,-1,-1,-1,-1,-1,-1,-1,-1,-1,-1,-1,-1,-1,-1,-1,-1,-1,-1,-1,-1,-1,-1,-1,-1,-1,-1,-1,-1,-1,-1,-1,-1,-1,-1,-1,-1,-1,-1,-1,-1,-1,-1,-1,-1,-1,-1,-1,-1,-1,-1,-1,-1,-1,-1,-1],"split_conditions":[5.7778764E0,2E0,8.12288E6,5.044466E0,5.0680475E0,3.7178533E3,1.6831E4,3.8E1,1E0,2.5E1,1E0,5.8E1,6.396021E0,9.24627E6,1.0560512E7,3.6021883E4,6.1E1,1E0,1E0,1.1E1,1E0,4.608E4,5.3444223E0,1E0,1E0,5.837642E0,1E0,1.2988E4,8.5E1,6.584041E0,6.575355E0,1E0,7.81312E5,5.0197763E0,3.9682727E0,2.09E2,2.61174E5,4.5E2,6.8096E5,5.07904E5,6.0044E4,1.4336E5,1.2744857E4,1.8477658E2,9.034E3,8.71928E5,4.82816E5,1E0,1E0,1.0429E4,1.19E2,2.47E2,1E0,6.567008E0,5.8E2,-1.0017609E-1,2.19798E-2,1.4034827E-1,2.14E2,4.4E2,1.57E2,6.282466E0,4.64E2,-8.727035E-2,-1.1703595E-1,1.2304675E-1,-9.376224E-2,-7.2390765E-2,2.4411595E-1,-9.502354E-3,-1.0508521E-1,-7.815888E-2,-1.1323701E-2,-1.1441845E-1,-9.209436E-2,-1.5602465E-2,-6.6557765E-2,-1.09459594E-1,-4.3238994E-2,5.3779967E-2,-1.0444814E-1,3.8343772E-2,1.3978311E-1,-4.5992706E-2,8.029523E-2,-6.196661E-2,-1.4205945E-1,9.329256E-2,-6.141143E-2,1.7082433E-1,-2.0038744E-2,-1.0999234E-1,1.0008309E-1,-1.0630124E-1,-6.0423758E-2,-1.4634107E-2,-1.2138589E-1,1.2834506E-1,4.2844687E-2,8.134892E-2,-7.185872E-3,-9.850599E-2,-1.3196416E-2,1.7214705E-3,1.2698594E-1,2.9899409E-2,-4.0318545E-2,1.253754E-1,3.4930956E-2,-3.747298E-2,2.094603E-1,-6.657283E-2,7.141448E-2,-6.6984706E-2,5.13569E-3,-6.805703E-3,1.4588465E-1,-1.0172901E-1,-1.9333176E-2,-9.745755E-2,2.911869E-2],"split_indices":[7,1,0,7,7,5,8,8,1,1,2,1,7,0,0,5,8,3,2,1,2,0,7,1,2,7,2,8,1,7,7,3,0,7,7,8,0,8,0,0,0,0,5,5,6,0,0,2,3,6,1,1,2,7,1,0,0,0,1,1,1,7,1,0,0,0,0,0,0,0,0,0,0,0,0,0,0,0,0,0,0,0,0,0,0,0,0,0,0,0,0,0,0,0,0,0,0,0,0,0,0,0,0,0,0,0,0,0,0,0,0,0,0,0,0,0,0,0,0,0,0],"split_type":[0,0,0,0,0,0,0,0,0,0,0,0,0,0,0,0,0,0,0,0,0,0,0,0,0,0,0,0,0,0,0,0,0,0,0,0,0,0,0,0,0,0,0,0,0,0,0,0,0,0,0,0,0,0,0,0,0,0,0,0,0,0,0,0,0,0,0,0,0,0,0,0,0,0,0,0,0,0,0,0,0,0,0,0,0,0,0,0,0,0,0,0,0,0,0,0,0,0,0,0,0,0,0,0,0,0,0,0,0,0,0,0,0,0,0,0,0,0,0,0,0],"sum_hessian":[1.6247768E4,7.6741797E3,8.573588E3,3.6010112E3,4.0731682E3,8.192219E3,3.8136896E2,1.5937301E3,2.0072812E3,6.5561096E2,3.4175574E3,3.7495063E3,4.4427124E3,1.0864636E1,3.705043E2,5.741539E2,1.0195762E3,6.4628973E2,1.3609915E3,4.1239362E2,2.4321738E2,2.8489915E3,5.68566E2,1.9340295E3,1.8154768E3,2.8711558E3,1.5715566E3,3.388612E0,7.4760246E0,9.0829895E1,2.796744E2,5.701143E2,4.039544E0,6.394891E1,9.5562726E2,1.09450005E2,5.368397E2,1.0753434E3,2.8564807E2,4.9237724E1,3.6315588E2,2.1936047E2,2.3856894E1,5.45756E2,2.3032354E3,9.7447235E1,4.711187E2,1.4580128E2,1.7882283E3,1.2409408E3,5.74536E2,8.505653E2,2.0205903E3,1.447389E3,1.2416766E2,2.3543015E0,1.0343106E0,5.2483115E0,2.2277129E0,8.242526E1,8.404628E0,1.09548805E2,1.7012561E2,2.6603983E1,5.435104E2,1.1355886E0,2.9039557E0,4.660592E1,1.734299E1,2.3739378E1,9.318879E2,4.320128E1,6.6248726E1,3.098555E2,2.2698427E2,6.3700244E2,4.3834097E2,2.4423857E2,4.1409508E1,4.2930973E1,6.3067493E0,2.1200144E1,3.4195575E2,6.591089E1,1.5344958E2,7.923629E0,1.5933266E1,2.6149565E1,5.1960645E2,1.608515E2,2.1423838E3,2.784363E1,6.960361E1,2.8682498E2,1.8429375E2,1.0785131E2,3.7949978E1,1.613049E2,1.6269233E3,1.5118866E2,1.0897521E3,3.247589E2,2.497771E2,1.8171173E2,6.688536E2,1.4857002E3,5.348902E2,1.3530717E3,9.431732E1,1.2159992E2,2.5677445E0,1.126805E0,1.100908E0,6.3018124E1,1.9407145E1,6.38022E0,2.024408E0,6.32526E1,4.6296207E1,1.6912051E2,1.0050869E0],"tree_param":{"num_deleted":"0","num_feature":"9","num_nodes":"121","size_leaf_vector":"1"}},{"base_weights":[-8.712452E-3,-3.7376666E-1,3.3642313E-1,-7.676058E-1,-5.5684593E-2,1.0362366E0,2.692674E-1,-9.96475E-1,-5.943501E-1,7.7765566E-1,-2.3348683E-1,4.6306998E-2,1.216857E0,5.30082E-1,1.441733E-2,-1.0460508E0,-7.835136E-1,-4.8714158E-1,-9.981381E-1,3.7022457E-1,1.2158269E0,1.8478121E-1,-3.2742378E-1,-8.1665796E-1,4.5921898E-1,6.1796033E-1,1.406682E0,-8.407048E-1,5.988946E-1,1.0517865E0,-2.0912594E-1,-1.0902997E0,-8.818198E-1,2.5154144E-1,-8.4610236E-1,-8.464442E-1,-3.2282257E-1,-1.0910223E0,-5.9107053E-1,1.1156691E0,2.588063E-1,1.3780243E0,4.3697032E-1,-4.8444104E-1,5.1674813E-1,-3.8353488E-1,4.5417377E-1,-1.3672745E0,-4.9142855E-1,-3.9914256E-1,9.142676E-1,9.3308985E-1,-1.9888489E-1,1.4640878E0,3.444364E-1,-1.1778824E0,-5.0214195E-1,2.77837E-1,9.0464073E-1,-6.200144E-1,1.3351079E0,-3.699119E-2,-5.404719E-1,-8.309497E-2,-1.1038301E-1,4.2415675E-2,-1.1339326E-1,8.411913E-2,-7.8361824E-2,-9.0354085E-2,-3.193541E-2,-2.9169058E-2,-1.0073806E-1,-4.4743083E-2,1.6426062E-2,-1.10297896E-1,-8.0050915E-2,3.2084808E-2,-8.603396E-2,-5.7887085E-2,1.2584196E-1,-3.533565E-2,5.2819412E-2,1.3853166E-1,-3.636277E-2,-3.363703E-2,1.1653074E-1,-1.361377E-2,-8.9243114E-2,1.669281E-1,1.755032E-2,-1.5752435E-2,-5.5675793E-2,1.3614893E-1,-8.085819E-2,-1.4341475E-1,-3.6210503E-2,7.145234E-2,-9.7186804E-2,3.2389585E-2,-9.168754E-2,1.13497935E-1,-1.104723E-1,5.0016757E-2,1.4488184E-1,1.3530594E-1,-4.4884905E-2,6.2288523E-2,1.4970087E-1,9.5613964E-2,-2.2934025E-2,-9.519363E-2,-1.3337515E-1,-1.1773796E-2,-1.1347993E-1,3.687748E-2,-4.3464836E-2,6.390915E-2,1.1980265E-1,-9.20242E-2,-1.599359E-2,1.3631903E-1,-7.6652795E-2,1.4992917E-2,-3.3276867E-2,-9.3727924E-2,-3.7780564E-2],"categories":[],"categories_nodes":[],"categories_segments":[],"categories_sizes":[],"default_left":[0,0,0,0,0,0,0,0,0,0,0,0,0,0,0,0,0,0,0,0,0,0,0,0,0,0,0,0,0,0,0,0,0,0,0,0,0,0,0,0,0,0,0,0,0,0,0,0,0,0,0,0,0,0,0,0,0,0,0,0,0,0,0,0,0,0,0,0,0,0,0,0,0,0,0,0,0,0,0,0,0,0,0,0,0,0,0,0,0,0,0,0,0,0,0,0,0,0,0,0,0,0,0,0,0,0,0,0,0,0,0,0,0,0,0,0,0,0,0,0,0,0,0,0,0,0,0],"id":9,"left_children":[1,3,5,7,9,11,13,15,17,19,21,23,25,27,29,31,33,35,37,39,41,43,45,47,49,51,53,55,57,59,61,63,65,67,69,71,73,75,77,79,81,83,85,87,89,91,93,95,97,99,101,103,105,107,109,111,113,115,117,119,121,123,125,-1,-1,-1,-1,-1,-1,-1,-1,-1,-1,-1,-1,-1,-1,-1,-1,-1,-1,-1,-1,-1,-1,-1,-1,-1,-1,-1,-1,-1,-1,-1,-1,-1,-1,-1,-1,-1,-1,-1,-1,-1,-1,-1,-1,-1,-1,-1,-1,-1,-1,-1,-1,-1,-1,-1,-1,-1,-1,-1,-1,-1,-1,-1,-1],"loss_changes":[1.9995365E3,9.661305E2,3.831023E2,1.3604492E2,6.325252E2,1.2759595E2,4.9483337E2,1.4839355E1,8.45202E1,1.3356384E2,1.3828647E2,3.999951E1,6.776611E1,3.4756067E2,8.7364795E2,7.7597656E0,1.8614716E1,9.145413E1,1.489624E1,3.2138046E1,4.5034607E1,1.4372868E2,1.2618155E2,5.837204E0,2.9993156E1,3.8047287E1,2.7402466E1,1.9532524E1,3.4370862E2,3.17187E2,1.7676595E2,2.385254E0,8.6069305E1,1.1016094E1,7.822571E0,4.317975E1,6.487748E1,2.7539062E-1,1.9563135E1,1.2935635E1,5.6413357E1,4.295166E0,3.628765E1,3.0382221E1,1.6968063E2,1.0488495E2,2.2211977E2,3.502426E-1,1.4838467E1,1.0395445E1,2.347984E1,2.3012253E1,1.6811743E1,1.1082825E1,8.913636E0,1.8147507E0,2.1682274E1,1.1099609E2,1.3902942E2,1.3316311E1,3.4770508E1,1.1288559E2,6.804181E1,0E0,0E0,0E0,0E0,0E0,0E0,0E0,0E0,0E0,0E0,0E0,0E0,0E0,0E0,0E0,0E0,0E0,0E0,0E0,0E0,0E0,0E0,0E0,0E0,0E0,0E0,0E0,0E0,0E0,0E0,0E0,0E0,0E0,0E0,0E0,0E0,0E0,0E0,0E0,0E0,0E0,0E0,0E0,0E0,0E0,0E0,0E0,0E0,0E0,0E0,0E0,0E0,0E0,0E0,0E0,0E0,0E0,0E0,0E0,0E0,0E0,0E0,0E0,0E0],"parents":[2147483647,0,0,1,1,2,2,3,3,4,4,5,5,6,6,7,7,8,8,9,9,10,10,11,11,12,12,13,13,14,14,15,15,16,16,17,17,18,18,19,19,20,20,21,21,22,22,23,23,24,24,25,25,26,26,27,27,28,28,29,29,30,30,31,31,32,32,33,33,34,34,35,35,36,36,37,37,38,38,39,39,40,40,41,41,42,42,43,43,44,44,45,45,46,46,47,47,48,48,49,49,50,50,51,51,52,52,53,53,54,54,55,55,56,56,57,57,58,58,59,59,60,60,61,61,62,62],"right_children":[2,4,6,8,10,12,14,16,18,20,22,24,26,28,30,32,34,36,38,40,42,44,46,48,50,52,54,56,58,60,62,64,66,68,70,72,74,76,78,80,82,84,86,88,90,92,94,96,98,100,102,104,106,108,110,112,114,116,118,120,122,124,126,-1,-1,-1,-1,-1,-1,-1,-1,-1,-1,-1,-1,-1,-1,-1,-1,-1,-1,-1,-1,-1,-1,-1,-1,-1,-1,-1,-1,-1,-1,-1,-1,-1,-1,-1,-1,-1,-1,-1,-1,-1,-1,-1,-1,-1,-1,-1,-1,-1,-1,-1,-1,-1,-1,-1,-1,-1,-1,-1,-1,-1,-1,-1,-1],"split_conditions":[5.816086E0,2E0,1E0,5.044466E0,1.8E1,1E0,7.7E1,8.0384E4,1E0,1.345536E6,5.269175E0,6.462E3,6.179201E0,1E0,5.837642E0,5.0036907E0,1E0,1E0,1.45653E5,3.016E3,2.17295E5,1.24928E5,2.3943E4,9.049202E1,6.179201E0,4.1592256E3,6.369E3,6.109852E0,3.2472766E3,1.680365E4,1E0,1E0,6.1E1,1.192E3,1.674416E6,1E0,5.3986797E0,5.647402E0,1.78283E5,4E0,8.0384E4,2.300208E6,5.6043205E0,2.21E2,7.13E2,6.17E2,5.0023496E4,1.655E3,3.33E2,5.908835E0,2.471936E6,2.9493E4,8E0,6E0,8.9E1,1.09178E5,1E0,6.575355E0,3.323392E6,1.621E3,5.0023496E4,4.866E3,1.19E2,-8.309497E-2,-1.1038301E-1,4.2415675E-2,-1.1339326E-1,8.411913E-2,-7.8361824E-2,-9.0354085E-2,-3.193541E-2,-2.9169058E-2,-1.0073806E-1,-4.4743083E-2,1.6426062E-2,-1.10297896E-1,-8.0050915E-2,3.2084808E-2,-8.603396E-2,-5.7887085E-2,1.2584196E-1,-3.533565E-2,5.2819412E-2,1.3853166E-1,-3.636277E-2,-3.363703E-2,1.1653074E-1,-1.361377E-2,-8.9243114E-2,1.669281E-1,1.755032E-2,-1.5752435E-2,-5.5675793E-2,1.3614893E-1,-8.085819E-2,-1.4341475E-1,-3.6210503E-2,7.145234E-2,-9.7186804E-2,3.2389585E-2,-9.168754E-2,1.13497935E-1,-1.104723E-1,5.0016757E-2,1.4488184E-1,1.3530594E-1,-4.4884905E-2,6.2288523E-2,1.4970087E-1,9.5613964E-2,-2.2934025E-2,-9.519363E-2,-1.3337515E-1,-1.1773796E-2,-1.1347993E-1,3.687748E-2,-4.3464836E-2,6.390915E-2,1.1980265E-1,-9.20242E-2,-1.599359E-2,1.3631903E-1,-7.6652795E-2,1.4992917E-2,-3.3276867E-2,-9.3727924E-2,-3.7780564E-2],"split_indices":[7,1,3,7,1,1,1,0,2,0,7,6,7,1,7,7,3,1,6,6,6,0,8,5,7,5,8,7,5,5,2,3,8,8,0,3,7,7,6,1,0,0,7,8,8,8,5,6,8,7,0,6,1,1,1,6,2,7,0,8,5,8,1,0,0,0,0,0,0,0,0,0,0,0,0,0,0,0,0,0,0,0,0,0,0,0,0,0,0,0,0,0,0,0,0,0,0,0,0,0,0,0,0,0,0,0,0,0,0,0,0,0,0,0,0,0,0,0,0,0,0,0,0,0,0,0,0],"split_type":[0,0,0,0,0,0,0,0,0,0,0,0,0,0,0,0,0,0,0,0,0,0,0,0,0,0,0,0,0,0,0,0,0,0,0,0,0,0,0,0,0,0,0,0,0,0,0,0,0,0,0,0,0,0,0,0,0,0,0,0,0,0,0,0,0,0,0,0,0,0,0,0,0,0,0,0,0,0,0,0,0,0,0,0,0,0,0,0,0,0,0,0,0,0,0,0,0,0,0,0,0,0,0,0,0,0,0,0,0,0,0,0,0,0,0,0,0,0,0,0,0,0,0,0,0,0,0],"sum_hessian":[1.5868196E4,7.711531E3,8.1566655E3,3.4448337E3,4.266697E3,7.129328E2,7.443733E3,1.4821611E3,1.9626727E3,7.496752E2,3.5170217E3,1.102021E2,6.027307E2,3.6782834E3,3.7654495E3,1.1991061E3,2.83055E2,1.552642E3,4.1003067E2,3.8942007E2,3.602551E2,6.448345E2,2.8721873E3,3.5348255E1,7.485385E1,1.4608604E2,4.5664468E2,1.752851E2,3.5029983E3,6.6690796E2,3.0985415E3,9.4015936E2,2.5894678E2,1.5967939E1,2.6708704E2,4.8593573E2,1.0667063E3,3.3248462E2,7.754605E1,4.9464466E1,3.399556E2,2.9752585E2,6.2729267E1,2.1365717E2,4.3117734E2,2.6802786E3,1.9190865E2,1.1936172E1,2.3412085E1,2.597669E1,4.887716E1,1.0531458E2,4.0771465E1,4.3287308E2,2.3771582E1,8.658013E1,8.8704956E1,1.7096449E3,1.7933534E3,9.647098E1,5.70437E2,2.0399143E3,1.0586271E3,4.971101E1,8.9044836E2,4.1789486E1,2.171573E2,1.0292489E1,5.6754503E0,2.4018149E2,2.6905561E1,1.09904236E2,3.760315E2,8.494714E2,2.1723491E2,3.1665533E2,1.5829307E1,1.7634092E1,5.991196E1,3.6058297E0,4.5858635E1,1.03789764E2,2.3616583E2,2.9648907E2,1.0367652E0,3.0685692E1,3.2043575E1,1.1597897E2,9.767819E1,9.761094E1,3.335664E2,1.1637717E3,1.5165068E3,1.1162537E2,8.028327E1,1.0791453E1,1.1447178E0,6.531109E0,1.6880976E1,1.0995437E1,1.4981253E1,4.4455257E1,4.421904E0,5.832455E1,4.6990032E1,5.043713E0,3.5727753E1,1.7052885E1,4.1582022E2,1.1182995E1,1.2588586E1,3.8246174E1,4.833396E1,5.5916233E1,3.2788727E1,1.5165616E3,1.9308327E2,9.4300183E2,8.503515E2,5.7771557E1,3.8699425E1,5.6326196E2,7.175032E0,1.2502782E3,7.8963617E2,3.0641003E2,7.5221704E2],"tree_param":{"num_deleted":"0","num_feature":"9","num_nodes":"127","size_leaf_vector":"1"}},{"base_weights":[-8.514333E-3,-5.5717486E-1,1.9002028E-1,-7.296567E-1,2.6929626E-1,6.932944E-1,3.1275913E-2,-9.697285E-1,-5.6625E-1,4.2651224E-1,-9.3154156E-1,2.505441E-1,9.9624074E-1,-1.3908905E-1,4.7823298E-1,-1.1144543E0,-8.886561E-1,-8.6592925E-1,-4.225348E-1,6.2195224E-1,-1.01184025E-1,-1.15642466E-1,-4.6137336E-1,9.6120626E-1,1.2987599E-1,4.550728E-1,1.2604399E0,-2.0960173E-2,-5.209124E-1,1.1864865E0,-2.3723634E-1,-1.1217748E0,-1.3884373E-1,1.851264E-1,-9.696499E-1,-2.5407985E-1,-1.0105017E0,-3.032785E-1,-9.3794894E-1,-1.683379E-2,9.215704E-1,-5.995549E-1,1.09425E0,-1.0026044E0,9.353037E-2,1.0479803E-1,1.1334281E0,2.4363588E-1,-6.429606E-1,-6.451956E-1,5.037934E-1,1.3188137E0,-6.2508655E-1,-1.7572457E-1,2.920483E-1,6.98213E-1,-5.948758E-1,6.9676095E-1,1.335137E0,-5.2482474E-1,3.3841583E-1,-8.093233E-2,-1.1360717E-1,1.19918264E-1,-8.953744E-2,-6.4400606E-2,1.8689993E-1,-1.8919643E-3,-9.96085E-2,-7.401247E-2,5.159424E-3,-1.091601E-1,-9.120526E-2,-1.2750159E-2,-5.8924865E-2,-1.0563742E-1,-3.243118E-2,6.099481E-2,-7.296535E-2,5.2308333E-3,1.1310115E-1,1.6086079E-1,-7.473625E-2,1.3053726E-1,1.1848705E-2,-1.0874688E-1,-4.146821E-2,6.784209E-2,-1.1596095E-1,-7.030386E-2,5.289153E-2,1.2712723E-1,-7.468664E-3,4.3128144E-2,-1.1364225E-2,1.3015954E-1,-8.065937E-2,-1.0402105E-1,9.377418E-2,1.4931428E-1,4.285743E-2,1.3313578E-1,-4.9228143E-2,-1.2702061E-1,6.2328284E-3,-5.782466E-2,-9.242517E-3,6.755107E-2,-2.0668006E-2,-1.01107836E-1,1.1630183E-1,-6.614704E-2,5.0381836E-2,2.443981E-1,5.1431675E-2,1.3718736E-1,-8.5480206E-2,6.0662446E-3,-7.593374E-2,1.035886E-1,-7.645129E-2],"categories":[],"categories_nodes":[],"categories_segments":[],"categories_sizes":[],"default_left":[0,0,0,0,0,0,0,0,0,0,0,0,0,0,0,0,0,0,0,0,0,0,0,0,0,0,0,0,0,0,0,0,0,0,0,0,0,0,0,0,0,0,0,0,0,0,0,0,0,0,0,0,0,0,0,0,0,0,0,0,0,0,0,0,0,0,0,0,0,0,0,0,0,0,0,0,0,0,0,0,0,0,0,0,0,0,0,0,0,0,0,0,0,0,0,0,0,0,0,0,0,0,0,0,0,0,0,0,0,0,0,0,0,0,0,0,0,0,0,0,0],"id":10,"left_children":[1,3,5,7,9,11,13,15,17,19,21,23,25,27,29,31,33,35,37,39,41,-1,43,45,47,49,51,53,55,57,59,61,63,65,67,69,71,73,75,77,79,81,83,85,87,89,91,93,95,97,99,101,103,105,107,109,111,113,115,117,119,-1,-1,-1,-1,-1,-1,-1,-1,-1,-1,-1,-1,-1,-1,-1,-1,-1,-1,-1,-1,-1,-1,-1,-1,-1,-1,-1,-1,-1,-1,-1,-1,-1,-1,-1,-1,-1,-1,-1,-1,-1,-1,-1,-1,-1,-1,-1,-1,-1,-1,-1,-1,-1,-1,-1,-1,-1,-1,-1,-1],"loss_changes":[1.6875552E3,5.8699744E2,9.088275E2,1.3306348E2,1.3471877E2,3.6562646E2,6.5866705E2,1.51779785E1,8.701813E1,6.501641E1,8.208382E0,9.502149E1,2.3094165E2,2.8247855E2,1.2099468E3,3.3497314E0,7.74223E1,5.7831085E1,8.4125626E1,8.800374E1,1.0257749E2,0E0,8.627562E0,2.361148E1,8.364614E1,2.8884056E1,1.20520386E2,2.3181184E2,1.338487E2,8.641321E1,1.9691412E2,1.2562256E0,5.929271E0,8.9347496E1,2.0741333E1,1.8883776E1,3.2426758E0,5.605841E1,1.8374603E1,6.646442E1,5.6918427E1,4.082041E1,1.0287701E1,2.709999E-1,1.1740456E1,9.978742E0,2.2385574E1,5.5593594E1,3.9908535E1,1.5375173E1,3.7367615E1,2.4627197E1,1.4862152E1,1.0730829E2,3.0292725E2,6.878868E1,1.02451355E2,8.846895E1,7.513391E1,1.0890898E2,3.0581485E2,0E0,0E0,0E0,0E0,0E0,0E0,0E0,0E0,0E0,0E0,0E0,0E0,0E0,0E0,0E0,0E0,0E0,0E0,0E0,0E0,0E0,0E0,0E0,0E0,0E0,0E0,0E0,0E0,0E0,0E0,0E0,0E0,0E0,0E0,0E0,0E0,0E0,0E0,0E0,0E0,0E0,0E0,0E0,0E0,0E0,0E0,0E0,0E0,0E0,0E0,0E0,0E0,0E0,0E0,0E0,0E0,0E0,0E0,0E0,0E0],"parents":[2147483647,0,0,1,1,2,2,3,3,4,4,5,5,6,6,7,7,8,8,9,9,10,10,11,11,12,12,13,13,14,14,15,15,16,16,17,17,18,18,19,19,20,20,22,22,23,23,24,24,25,25,26,26,27,27,28,28,29,29,30,30,31,31,32,32,33,33,34,34,35,35,36,36,37,37,38,38,39,39,40,40,41,41,42,42,43,43,44,44,45,45,46,46,47,47,48,48,49,49,50,50,51,51,52,52,53,53,54,54,55,55,56,56,57,57,58,58,59,59,60,60],"right_children":[2,4,6,8,10,12,14,16,18,20,22,24,26,28,30,32,34,36,38,40,42,-1,44,46,48,50,52,54,56,58,60,62,64,66,68,70,72,74,76,78,80,82,84,86,88,90,92,94,96,98,100,102,104,106,108,110,112,114,116,118,120,-1,-1,-1,-1,-1,-1,-1,-1,-1,-1,-1,-1,-1,-1,-1,-1,-1,-1,-1,-1,-1,-1,-1,-1,-1,-1,-1,-1,-1,-1,-1,-1,-1,-1,-1,-1,-1,-1,-1,-1,-1,-1,-1,-1,-1,-1,-1,-1,-1,-1,-1,-1,-1,-1,-1,-1,-1,-1,-1,-1],"split_conditions":[2E0,5.959035E0,1.8E1,5.044466E0,1E0,3.0215093E3,1.5284554E4,3.8E1,1E0,3.937E3,1E0,1E0,2.226176E6,1E0,4.336E3,3.6021883E4,6.1E1,1E0,1E0,1.97688E5,6.5367393E0,-1.15642466E-1,6.222097E0,6E0,3.9985E4,3.9985E4,6.570037E0,6.05962E0,3E1,3.312E3,2.8328E4,1E0,7.81312E5,5.0197763E0,3.9682727E0,2.35E2,2.61174E5,5.86E2,6.8096E5,1.3016E4,1E0,3.97824E5,1.5339E4,1.428918E4,9.3641E4,2.295E3,1.4E1,1E1,3E0,6.490569E0,3E0,4.4435E4,6.442811E3,4.608E4,8.02816E5,2E1,3.92E2,3.02E2,4.4E2,1.41E2,8.51745E5,-8.093233E-2,-1.1360717E-1,1.19918264E-1,-8.953744E-2,-6.4400606E-2,1.8689993E-1,-1.8919643E-3,-9.96085E-2,-7.401247E-2,5.159424E-3,-1.091601E-1,-9.120526E-2,-1.2750159E-2,-5.8924865E-2,-1.0563742E-1,-3.243118E-2,6.099481E-2,-7.296535E-2,5.2308333E-3,1.1310115E-1,1.6086079E-1,-7.473625E-2,1.3053726E-1,1.1848705E-2,-1.0874688E-1,-4.146821E-2,6.784209E-2,-1.1596095E-1,-7.030386E-2,5.289153E-2,1.2712723E-1,-7.468664E-3,4.3128144E-2,-1.1364225E-2,1.3015954E-1,-8.065937E-2,-1.0402105E-1,9.377418E-2,1.4931428E-1,4.285743E-2,1.3313578E-1,-4.9228143E-2,-1.2702061E-1,6.2328284E-3,-5.782466E-2,-9.242517E-3,6.755107E-2,-2.0668006E-2,-1.01107836E-1,1.1630183E-1,-6.614704E-2,5.0381836E-2,2.443981E-1,5.1431675E-2,1.3718736E-1,-8.5480206E-2,6.0662446E-3,-7.593374E-2,1.035886E-1,-7.645129E-2],"split_indices":[1,7,1,7,2,5,5,8,1,8,1,3,0,2,8,5,8,3,2,0,7,0,7,1,6,6,7,7,1,8,8,3,0,7,7,8,0,8,0,6,1,0,8,5,6,6,1,1,1,7,1,8,5,0,0,1,1,8,1,1,6,0,0,0,0,0,0,0,0,0,0,0,0,0,0,0,0,0,0,0,0,0,0,0,0,0,0,0,0,0,0,0,0,0,0,0,0,0,0,0,0,0,0,0,0,0,0,0,0,0,0,0,0,0,0,0,0,0,0,0,0],"split_type":[0,0,0,0,0,0,0,0,0,0,0,0,0,0,0,0,0,0,0,0,0,0,0,0,0,0,0,0,0,0,0,0,0,0,0,0,0,0,0,0,0,0,0,0,0,0,0,0,0,0,0,0,0,0,0,0,0,0,0,0,0,0,0,0,0,0,0,0,0,0,0,0,0,0,0,0,0,0,0,0,0,0,0,0,0,0,0,0,0,0,0,0,0,0,0,0,0,0,0,0,0,0,0,0,0,0,0,0,0,0,0,0,0,0,0,0,0,0,0,0,0],"sum_hessian":[1.5490403E4,4.115421E3,1.1374982E4,3.4049385E3,7.1048267E2,2.7267815E3,8.648201E3,1.376984E3,2.0279545E3,6.2880334E2,8.1679306E1,1.108523E3,1.6182585E3,6.262019E3,2.386182E3,4.898269E2,8.8715704E2,6.5568195E2,1.3722726E3,4.587281E2,1.7007526E2,5.426471E1,2.7414597E1,1.5989171E2,9.486312E2,5.3175977E2,1.0864988E3,4.7832324E3,1.4787863E3,1.198807E3,1.1873748E3,4.8603015E2,3.796755E0,6.2133343E1,8.2502374E2,1.2584541E2,5.2983655E2,1.1157087E3,2.5656378E2,1.4676622E2,3.1196185E2,1.2038555E2,4.9689713E1,1.3469842E1,1.3944755E1,2.7039713E1,1.32852E2,8.2750854E2,1.2112273E2,2.2029104E1,5.0973065E2,1.0541636E3,3.2335194E1,3.2009758E3,1.5822567E3,8.410238E1,1.394684E3,2.804753E2,9.1833167E2,7.9186E2,3.9551477E2,2.3786898E1,4.6224326E2,1.1600113E0,2.6367438E0,4.204707E1,2.0086271E1,2.2365679E1,8.02658E2,4.8038803E1,7.780661E1,2.8498602E2,2.4485054E2,6.9187854E2,4.2383023E2,2.1445486E2,4.2108925E1,7.8173035E1,6.8593185E1,6.0813187E1,2.5114867E2,6.93264E0,1.1345291E2,4.057322E1,9.116492E0,1.1028271E1,2.4415712E0,9.819994E0,4.1247606E0,9.082392E0,1.7957321E1,1.1919925E2,1.365275E1,5.424185E2,2.8509E2,8.861502E0,1.1226123E2,1.7904081E1,4.125022E0,3.4684067E1,4.750466E2,1.0471754E3,6.9881086E0,1.6243408E1,1.6091785E1,5.4782355E2,2.6531523E3,8.942959E2,6.879609E2,1.772918E1,6.63732E1,1.315355E3,7.932893E1,2.5346151E1,2.5512917E2,9.0354803E2,1.4783636E1,2.2667688E2,5.6518317E2,2.4233054E2,1.5318425E2],"tree_param":{"num_deleted":"0","num_feature":"9","num_nodes":"121","size_leaf_vector":"1"}},{"base_weights":[-8.239603E-3,-5.266412E-1,1.7444853E-1,-6.943561E-1,2.4463484E-1,6.4041287E-1,2.856399E-2,-9.43703E-1,-5.307362E-1,3.8656276E-1,-8.873985E-1,2.2660688E-1,9.330691E-1,-1.2708868E-1,4.4308746E-1,-9.994948E-1,-6.9961727E-1,-8.3039427E-1,-3.9165285E-1,5.3076553E-1,-2.2938938E-1,-1.117082E-1,-4.3039832E-1,3.515066E-1,-4.1403556E-1,4.115243E-1,1.2007662E0,-1.9110119E-2,-4.856747E-1,1.1100842E0,-2.1831399E-1,-1.0943503E0,-9.005363E-1,2.9007062E-1,-7.637717E-1,-2.3302779E-1,-9.797102E-1,-2.7805927E-1,-9.0907985E-1,1.1383842E0,2.7424428E-1,-5.284877E-1,9.574525E-1,-9.416489E-1,7.997702E-2,2.1746495E-1,1.2879105E0,3.6295632E-1,-7.362016E-1,-6.007421E-1,4.550954E-1,1.258022E0,-5.7509786E-1,1.6971496E-1,-2.4135119E-1,4.0270817E-1,-5.7439524E-1,6.21262E-1,1.2678326E0,-4.8449978E-1,3.0565917E-1,-8.658683E-2,-1.1059109E-1,-2.7827937E-2,-1.03343956E-1,1.1985421E-1,-3.607805E-2,4.6163674E-2,-7.9533696E-2,-7.015665E-2,5.0205085E-3,-1.06589094E-1,-8.767097E-2,-6.714902E-2,-1.6437953E-2,-1.03422344E-1,-2.98634E-2,-5.1002838E-2,1.2987725E-1,-8.207751E-2,5.1542997E-2,6.803295E-3,-9.1409884E-2,1.4207102E-1,-9.852829E-3,-1.24116674E-1,-6.746974E-2,6.0696658E-2,-1.11102454E-1,3.59348E-2,-6.410941E-2,1.4071287E-1,-7.063719E-2,-4.8981844E-3,9.81118E-2,-7.909928E-2,7.918772E-2,-9.7767316E-2,8.689086E-2,1.3610098E-1,3.8670264E-2,1.2704583E-1,-4.515147E-2,-1.18523E-1,5.6406646E-3,-4.477563E-2,5.431209E-2,1.4204627E-1,-4.468959E-2,-9.9707715E-2,8.3861016E-2,-6.4236805E-2,4.4369698E-2,1.2615636E-2,1.2740289E-1,1.3031362E-1,-8.021897E-2,5.4574283E-3,-7.079015E-2,9.198724E-2,-7.170879E-2],"categories":[],"categories_nodes":[],"categories_segments":[],"categories_sizes":[],"default_left":[0,0,0,0,0,0,0,0,0,0,0,0,0,0,0,0,0,0,0,0,0,0,0,0,0,0,0,0,0,0,0,0,0,0,0,0,0,0,0,0,0,0,0,0,0,0,0,0,0,0,0,0,0,0,0,0,0,0,0,0,0,0,0,0,0,0,0,0,0,0,0,0,0,0,0,0,0,0,0,0,0,0,0,0,0,0,0,0,0,0,0,0,0,0,0,0,0,0,0,0,0,0,0,0,0,0,0,0,0,0,0,0,0,0,0,0,0,0,0,0,0],"id":11,"left_children":[1,3,5,7,9,11,13,15,17,19,21,23,25,27,29,31,33,35,37,39,41,-1,43,45,47,49,51,53,55,57,59,61,63,65,67,69,71,73,75,77,79,81,83,85,87,89,91,93,95,97,99,101,103,105,107,109,111,113,115,117,119,-1,-1,-1,-1,-1,-1,-1,-1,-1,-1,-1,-1,-1,-1,-1,-1,-1,-1,-1,-1,-1,-1,-1,-1,-1,-1,-1,-1,-1,-1,-1,-1,-1,-1,-1,-1,-1,-1,-1,-1,-1,-1,-1,-1,-1,-1,-1,-1,-1,-1,-1,-1,-1,-1,-1,-1,-1,-1,-1,-1],"loss_changes":[1.431083E3,5.095077E2,7.5951056E2,1.3146094E2,1.1345752E2,3.2241077E2,5.4915436E2,1.6735107E1,8.116504E1,5.5750343E1,7.78389E0,8.85563E1,2.1732361E2,2.395813E2,1.0252383E3,8.774048E0,1.5556404E1,5.4978516E1,7.835037E1,7.883487E1,4.2928913E1,0E0,7.371675E0,1.1584646E2,4.5507072E1,2.3679665E1,1.0549634E2,1.9965883E2,1.1310077E2,8.842932E1,1.6297781E2,4.3243408E-1,4.226184E1,9.554519E0,9.151199E0,1.663432E1,3.45813E0,4.8998993E1,1.804837E1,4.0431274E1,9.506861E1,2.216676E1,1.2081491E1,2.8580284E-1,1.003579E1,9.896578E1,2.849002E1,1.3707584E1,1.1350433E1,1.32198305E1,3.1032402E1,2.1803223E1,1.2732052E1,5.933395E2,7.471421E2,8.053372E1,9.0415375E1,9.170289E1,6.4898315E1,9.3318146E1,2.4810202E2,0E0,0E0,0E0,0E0,0E0,0E0,0E0,0E0,0E0,0E0,0E0,0E0,0E0,0E0,0E0,0E0,0E0,0E0,0E0,0E0,0E0,0E0,0E0,0E0,0E0,0E0,0E0,0E0,0E0,0E0,0E0,0E0,0E0,0E0,0E0,0E0,0E0,0E0,0E0,0E0,0E0,0E0,0E0,0E0,0E0,0E0,0E0,0E0,0E0,0E0,0E0,0E0,0E0,0E0,0E0,0E0,0E0,0E0,0E0,0E0],"parents":[2147483647,0,0,1,1,2,2,3,3,4,4,5,5,6,6,7,7,8,8,9,9,10,10,11,11,12,12,13,13,14,14,15,15,16,16,17,17,18,18,19,19,20,20,22,22,23,23,24,24,25,25,26,26,27,27,28,28,29,29,30,30,31,31,32,32,33,33,34,34,35,35,36,36,37,37,38,38,39,39,40,40,41,41,42,42,43,43,44,44,45,45,46,46,47,47,48,48,49,49,50,50,51,51,52,52,53,53,54,54,55,55,56,56,57,57,58,58,59,59,60,60],"right_children":[2,4,6,8,10,12,14,16,18,20,22,24,26,28,30,32,34,36,38,40,42,-1,44,46,48,50,52,54,56,58,60,62,64,66,68,70,72,74,76,78,80,82,84,86,88,90,92,94,96,98,100,102,104,106,108,110,112,114,116,118,120,-1,-1,-1,-1,-1,-1,-1,-1,-1,-1,-1,-1,-1,-1,-1,-1,-1,-1,-1,-1,-1,-1,-1,-1,-1,-1,-1,-1,-1,-1,-1,-1,-1,-1,-1,-1,-1,-1,-1,-1,-1,-1,-1,-1,-1,-1,-1,-1,-1,-1,-1,-1,-1,-1,-1,-1,-1,-1,-1,-1],"split_conditions":[2E0,5.959035E0,1.8E1,5.044466E0,1E0,3.0215093E3,1.5284554E4,8.6016E4,1E0,1.21629E5,1E0,6.567008E0,2.226176E6,1E0,4.336E3,4.8522477E0,1E0,1E0,1E0,6.0883207E0,6.5252013E0,-1.117082E-1,6.222097E0,1.315608E6,1.382538E6,3.9985E4,6.570037E0,1.23E2,4E1,3.312E3,2.8328E4,1E0,6.1E1,2.6245E4,8.8064E4,9.1136E4,2.61174E5,1.04E2,6.8096E5,1E0,4.06E2,3.753E3,2.471936E6,6.0224648E0,9.3641E4,3.187E3,1.1E1,1.2E1,1.7E1,6.490569E0,3E0,4.4435E4,6.442811E3,1.03429E5,6.112978E2,5.719691E0,3.92E2,6.109852E0,4.4E2,1.41E2,8.51745E5,-8.658683E-2,-1.1059109E-1,-2.7827937E-2,-1.03343956E-1,1.1985421E-1,-3.607805E-2,4.6163674E-2,-7.9533696E-2,-7.015665E-2,5.0205085E-3,-1.06589094E-1,-8.767097E-2,-6.714902E-2,-1.6437953E-2,-1.03422344E-1,-2.98634E-2,-5.1002838E-2,1.2987725E-1,-8.207751E-2,5.1542997E-2,6.803295E-3,-9.1409884E-2,1.4207102E-1,-9.852829E-3,-1.24116674E-1,-6.746974E-2,6.0696658E-2,-1.11102454E-1,3.59348E-2,-6.410941E-2,1.4071287E-1,-7.063719E-2,-4.8981844E-3,9.81118E-2,-7.909928E-2,7.918772E-2,-9.7767316E-2,8.689086E-2,1.3610098E-1,3.8670264E-2,1.2704583E-1,-4.515147E-2,-1.18523E-1,5.6406646E-3,-4.477563E-2,5.431209E-2,1.4204627E-1,-4.468959E-2,-9.9707715E-2,8.3861016E-2,-6.4236805E-2,4.4369698E-2,1.2615636E-2,1.2740289E-1,1.3031362E-1,-8.021897E-2,5.4574283E-3,-7.079015E-2,9.198724E-2,-7.170879E-2],"split_indices":[1,7,1,7,2,5,5,0,1,6,1,7,0,2,8,7,3,3,2,7,7,0,7,0,0,6,7,1,1,8,8,3,8,6,0,0,0,8,0,1,8,8,0,7,6,8,1,1,1,7,1,8,5,0,5,7,1,7,1,1,6,0,0,0,0,0,0,0,0,0,0,0,0,0,0,0,0,0,0,0,0,0,0,0,0,0,0,0,0,0,0,0,0,0,0,0,0,0,0,0,0,0,0,0,0,0,0,0,0,0,0,0,0,0,0,0,0,0,0,0,0],"split_type":[0,0,0,0,0,0,0,0,0,0,0,0,0,0,0,0,0,0,0,0,0,0,0,0,0,0,0,0,0,0,0,0,0,0,0,0,0,0,0,0,0,0,0,0,0,0,0,0,0,0,0,0,0,0,0,0,0,0,0,0,0,0,0,0,0,0,0,0,0,0,0,0,0,0,0,0,0,0,0,0,0,0,0,0,0,0,0,0,0,0,0,0,0,0,0,0,0,0,0,0,0,0,0,0,0,0,0,0,0,0,0,0,0,0,0,0,0,0,0,0,0],"sum_hessian":[1.5108855E4,3.9365356E3,1.1172319E4,3.2335059E3,7.030299E2,2.6630337E3,8.509286E3,1.279245E3,1.9542609E3,6.252928E2,7.7737144E1,1.1039127E3,1.559121E3,6.186836E3,2.32245E3,1.0387241E3,2.4052077E2,6.179353E2,1.3363254E3,5.0678568E2,1.1850709E2,5.077419E1,2.6962954E1,9.241848E2,1.7972784E2,5.296873E2,1.0294337E3,4.755806E3,1.43103E3,1.1559961E3,1.1664539E3,5.252211E2,5.1350305E2,1.4427739E1,2.2609303E2,1.2408216E2,4.9385315E2,1.0970266E3,2.3929884E2,1.4941959E2,3.573661E2,9.5096375E1,2.3410711E1,1.3047783E1,1.3915171E1,8.0953595E2,1.1464888E2,5.2641582E1,1.27086266E2,2.1330833E1,5.0835648E2,9.975628E2,3.1870903E1,2.571333E3,2.1844731E3,1.2961554E2,1.3014144E3,2.8324152E2,8.7275464E2,7.735532E2,3.9290067E2,2.8950201E1,4.9627094E2,9.091768E1,4.2258536E2,5.6708083E0,8.756931E0,5.335524E0,2.207575E2,4.6191975E1,7.789019E1,2.6379083E2,2.3006233E2,2.448221E2,8.522045E2,1.9801154E2,4.1287304E1,1.3055901E1,1.3636368E2,6.407101E1,2.932951E2,3.766073E1,5.7435646E1,1.6032064E1,7.378646E0,4.429031E0,8.618752E0,9.986678E0,3.9284923E0,6.9522626E2,1.1430967E2,1.0845959E2,6.1892953E0,3.2142696E1,2.0498886E1,1.23152824E2,3.9334388E0,1.7243132E1,4.0877023E0,3.435806E1,4.739984E2,9.9061334E2,6.9494777E0,1.5763786E1,1.6107117E1,9.689159E2,1.602417E3,2.3979964E2,1.9446735E3,3.047278E1,9.914276E1,1.2203098E3,8.1104706E1,1.6175107E2,1.2149045E2,8.58484E2,1.42706375E1,2.2686879E2,5.4668445E2,2.4554103E2,1.4735963E2],"tree_param":{"num_deleted":"0","num_feature":"9","num_nodes":"121","size_leaf_vector":"1"}},{"base_weights":[-8.01047E-3,-3.2358548E-1,2.5661895E-1,-6.707827E-1,-5.83283E-2,2.9687393E-1,-6.296632E-1,-9.3356895E-1,-5.0890255E-1,5.0662404E-1,-2.3510784E-1,1.9050892E-1,6.3296276E-1,3.975978E-1,-6.6278005E-1,-1.0000218E0,-6.6357154E-1,-4.1727093E-1,-9.198257E-1,7.809839E-1,-7.060796E-2,-1.5864556E-1,-6.3462776E-1,4.372385E-1,-1.3847786E-1,1.0604446E0,9.035636E-2,-4.284198E-1,1.0326904E0,-4.1319314E-1,-7.992936E-1,-1.0794502E0,-9.0286654E-1,3.0947283E-1,-7.306524E-1,-2.5898087E-1,-7.336639E-1,1.0584961E0,-9.446808E-1,-1.0938019E-2,1.1138774E0,-5.749578E-1,2.4548331E-1,-3.5538292E-1,1.2263024E-2,3.9938277E-1,-8.014219E-1,3.1036246E-1,1.0015386E0,3.00853E-1,-2.636607E-1,4.5810804E-1,1.2267154E0,-5.333933E-2,1.397568E0,3.134689E-2,-8.3292946E-2,9.641363E-3,1.3188984E-1,-4.9807566E-1,2.5672492E-1,-5.791708E-1,-9.2503977E-1,-8.368935E-2,-1.0920389E-1,-5.3582884E-2,-1.02992035E-1,8.494753E-2,-7.1611874E-2,-7.846252E-2,5.7783592E-3,-4.681316E-2,4.715407E-2,-1.041286E-2,-7.94934E-2,1.8419676E-1,-6.2032927E-2,-1.0357856E-1,-4.9175933E-2,-1.628598E-2,2.1958844E-1,9.823807E-2,2.2523661E-1,1.30992E-1,-6.0691606E-2,1.0246619E-1,-2.9524138E-2,-2.1464007E-2,-6.2311262E-2,8.40256E-2,-1.5449204E-2,-1.0842121E-1,9.86514E-2,-1.02809146E-1,-5.5929642E-2,-2.3790633E-2,3.9601743E-2,1.2229359E-1,-7.106366E-2,5.387968E-3,8.8650905E-2,-3.2096967E-2,5.3506095E-2,7.1547076E-2,-4.206997E-2,1.2559108E-1,-6.488436E-2,7.19653E-2,-4.3881174E-2,-5.2318242E-3,1.5402359E-1,-6.236297E-2,-8.539546E-3,-1.5472518E-2,1.441387E-1,-9.705437E-2,-2.6202515E-2,8.515763E-3,-9.425256E-2],"categories":[],"categories_nodes":[],"categories_segments":[],"categories_sizes":[],"default_left":[0,0,0,0,0,0,0,0,0,0,0,0,0,0,0,0,0,0,0,0,0,0,0,0,0,0,0,0,0,0,0,0,0,0,0,0,0,0,0,0,0,0,0,0,0,0,0,0,0,0,0,0,0,0,0,0,0,0,0,0,0,0,0,0,0,0,0,0,0,0,0,0,0,0,0,0,0,0,0,0,0,0,0,0,0,0,0,0,0,0,0,0,0,0,0,0,0,0,0,0,0,0,0,0,0,0,0,0,0,0,0,0,0,0,0,0,0,0,0],"id":12,"left_children":[1,3,5,7,9,11,13,15,17,19,21,23,25,27,29,31,33,35,37,39,41,43,45,47,49,51,53,55,57,59,61,63,65,67,69,71,73,75,77,79,81,83,85,87,89,91,93,95,97,99,101,103,105,107,109,-1,-1,-1,-1,111,113,115,117,-1,-1,-1,-1,-1,-1,-1,-1,-1,-1,-1,-1,-1,-1,-1,-1,-1,-1,-1,-1,-1,-1,-1,-1,-1,-1,-1,-1,-1,-1,-1,-1,-1,-1,-1,-1,-1,-1,-1,-1,-1,-1,-1,-1,-1,-1,-1,-1,-1,-1,-1,-1,-1,-1,-1,-1],"loss_changes":[1.229042E3,6.181563E2,2.8577496E2,1.2319299E2,3.8026794E2,2.7362616E2,1.2105759E1,1.9197937E1,6.7435394E1,1.4377527E2,8.848485E1,4.7232892E2,4.268061E2,6.4735227E0,1.1172577E1,5.8652954E0,1.4691368E1,7.365881E1,1.7107178E1,1.6219757E2,4.689744E1,8.189104E1,8.060396E1,2.3774579E2,1.3725293E2,1.0252771E2,1.5262251E2,1.9728609E0,1.6930695E0,7.0332985E0,5.475357E0,5.595093E-1,1.8325562E1,8.912857E0,8.880325E0,1.506254E2,1.8862457E1,7.108982E0,1.2861511E1,6.173257E1,6.263257E1,7.6195946E0,7.655927E1,4.252739E1,1.8020229E2,5.7973404E1,2.1442566E1,1.2764691E2,2.320661E2,8.002109E1,8.90486E1,5.102488E1,4.495337E1,2.1862035E2,1.6725418E1,0E0,0E0,0E0,0E0,5.5488663E0,7.201198E0,9.877687E0,2.4920883E0,0E0,0E0,0E0,0E0,0E0,0E0,0E0,0E0,0E0,0E0,0E0,0E0,0E0,0E0,0E0,0E0,0E0,0E0,0E0,0E0,0E0,0E0,0E0,0E0,0E0,0E0,0E0,0E0,0E0,0E0,0E0,0E0,0E0,0E0,0E0,0E0,0E0,0E0,0E0,0E0,0E0,0E0,0E0,0E0,0E0,0E0,0E0,0E0,0E0,0E0,0E0,0E0,0E0,0E0,0E0,0E0],"parents":[2147483647,0,0,1,1,2,2,3,3,4,4,5,5,6,6,7,7,8,8,9,9,10,10,11,11,12,12,13,13,14,14,15,15,16,16,17,17,18,18,19,19,20,20,21,21,22,22,23,23,24,24,25,25,26,26,27,27,28,28,29,29,30,30,31,31,32,32,33,33,34,34,35,35,36,36,37,37,38,38,39,39,40,40,41,41,42,42,43,43,44,44,45,45,46,46,47,47,48,48,49,49,50,50,51,51,52,52,53,53,54,54,59,59,60,60,61,61,62,62],"right_children":[2,4,6,8,10,12,14,16,18,20,22,24,26,28,30,32,34,36,38,40,42,44,46,48,50,52,54,56,58,60,62,64,66,68,70,72,74,76,78,80,82,84,86,88,90,92,94,96,98,100,102,104,106,108,110,-1,-1,-1,-1,112,114,116,118,-1,-1,-1,-1,-1,-1,-1,-1,-1,-1,-1,-1,-1,-1,-1,-1,-1,-1,-1,-1,-1,-1,-1,-1,-1,-1,-1,-1,-1,-1,-1,-1,-1,-1,-1,-1,-1,-1,-1,-1,-1,-1,-1,-1,-1,-1,-1,-1,-1,-1,-1,-1,-1,-1,-1,-1],"split_conditions":[5.7778764E0,2E0,8.12288E6,5.0333767E0,5.2282515E0,1.4834583E4,1.6831E4,8.6016E4,1E0,7.7E1,1E0,7.7E1,4.226E3,1.0560512E7,1.2536088E7,4.8522477E0,1E0,8.16E2,3.8E1,1.17248E5,4.57728E5,5.554691E0,5.3528686E0,3.474432E6,2.6245E4,1.81E2,4.0139E4,1.5083569E5,2.658679E5,6.584041E0,6.575355E0,1E0,1.01E2,4.433432E3,1.8555E4,8.0384E4,2.8396E4,8.27904E5,6.8096E5,5.2196436E0,7.6E1,5.768E3,4.336E3,1.22E2,5.1910657E2,9.22784E5,4.0678667E3,9.1136E4,6.570037E0,1.59E2,4.09E2,9.9E1,4.4E2,1.5E1,3.92E2,3.134689E-2,-8.3292946E-2,9.641363E-3,1.3188984E-1,4.4E2,1.57E2,6.109852E0,6.973892E2,-8.368935E-2,-1.0920389E-1,-5.3582884E-2,-1.02992035E-1,8.494753E-2,-7.1611874E-2,-7.846252E-2,5.7783592E-3,-4.681316E-2,4.715407E-2,-1.041286E-2,-7.94934E-2,1.8419676E-1,-6.2032927E-2,-1.0357856E-1,-4.9175933E-2,-1.628598E-2,2.1958844E-1,9.823807E-2,2.2523661E-1,1.30992E-1,-6.0691606E-2,1.0246619E-1,-2.9524138E-2,-2.1464007E-2,-6.2311262E-2,8.40256E-2,-1.5449204E-2,-1.0842121E-1,9.86514E-2,-1.02809146E-1,-5.5929642E-2,-2.3790633E-2,3.9601743E-2,1.2229359E-1,-7.106366E-2,5.387968E-3,8.8650905E-2,-3.2096967E-2,5.3506095E-2,7.1547076E-2,-4.206997E-2,1.2559108E-1,-6.488436E-2,7.19653E-2,-4.3881174E-2,-5.2318242E-3,1.5402359E-1,-6.236297E-2,-8.539546E-3,-1.5472518E-2,1.441387E-1,-9.705437E-2,-2.6202515E-2,8.515763E-3,-9.425256E-2],"split_indices":[7,1,0,7,7,5,8,0,2,1,2,1,8,0,0,7,3,8,8,0,0,7,7,0,6,1,8,5,5,7,7,3,8,5,8,0,6,0,0,7,1,6,8,1,5,0,5,0,7,1,1,1,1,1,1,0,0,0,0,1,1,7,5,0,0,0,0,0,0,0,0,0,0,0,0,0,0,0,0,0,0,0,0,0,0,0,0,0,0,0,0,0,0,0,0,0,0,0,0,0,0,0,0,0,0,0,0,0,0,0,0,0,0,0,0,0,0,0,0],"split_type":[0,0,0,0,0,0,0,0,0,0,0,0,0,0,0,0,0,0,0,0,0,0,0,0,0,0,0,0,0,0,0,0,0,0,0,0,0,0,0,0,0,0,0,0,0,0,0,0,0,0,0,0,0,0,0,0,0,0,0,0,0,0,0,0,0,0,0,0,0,0,0,0,0,0,0,0,0,0,0,0,0,0,0,0,0,0,0,0,0,0,0,0,0,0,0,0,0,0,0,0,0,0,0,0,0,0,0,0,0,0,0,0,0,0,0,0,0,0,0],"sum_hessian":[1.4715233E4,6.71147E3,8.003763E3,2.9061104E3,3.8053596E3,7.656662E3,3.4710074E2,1.1059739E3,1.8001366E3,9.0649994E2,2.8988599E3,5.8172065E3,1.8394558E3,1.0496617E1,3.3660413E2,8.853611E2,2.2061272E2,1.4735627E3,3.2657385E2,6.1421094E2,2.92289E2,2.4343564E3,4.6450327E2,3.3239905E3,2.493216E3,1.0283422E3,8.1111365E2,4.703955E0,5.792662E0,1.2043686E2,2.1616727E2,4.8155777E2,4.0380334E2,1.3994949E1,2.0661777E2,9.833937E2,4.9016913E2,3.5360765E0,3.2303778E2,1.8206433E2,4.3214658E2,1.1229464E2,1.7999437E2,1.1311642E3,1.3031923E3,6.432672E1,4.0017654E2,2.715086E3,6.0890436E2,5.5256793E2,1.9406481E3,2.2327095E2,8.050712E2,7.3164636E2,7.9467285E1,1.7392174E0,2.9647377E0,1.6691638E0,4.1234984E0,1.0712057E2,1.3316289E1,8.0629196E1,1.3553806E2,2.7088867E1,4.544689E2,1.0517816E2,2.9862518E2,9.280323E0,4.7146263E0,1.9338438E2,1.323339E1,7.647907E2,2.1860294E2,4.3714382E1,4.4645474E2,2.3446858E0,1.1913906E0,2.6786923E2,5.516854E1,1.712045E2,1.0859836E1,3.8907132E2,4.3075275E1,1.2055174E0,1.1108912E2,7.3371635E1,1.06622734E2,7.4259235E2,3.885718E2,2.177842E2,1.0854081E3,1.7999073E1,4.6327644E1,2.0500848E2,1.9516808E2,3.6661887E2,2.3484673E3,5.394368E2,6.946755E1,3.8943408E2,1.6313382E2,1.8112849E3,1.2936316E2,1.7283989E2,5.043106E1,7.9305676E2,1.2014482E1,2.431626E2,4.8848373E2,7.175755E0,7.229153E1,8.174059E1,2.5379974E1,1.0528859E1,2.7874305E0,3.5168884E1,4.5460316E1,2.2403004E0,1.3329776E2],"tree_param":{"num_deleted":"0","num_feature":"9","num_nodes":"119","size_leaf_vector":"1"}},{"base_weights":[-7.6611475E-3,-4.734558E-1,1.494584E-1,-6.301967E-1,1.8688618E-1,5.5510753E-1,2.3845635E-2,-9.0943706E-1,-4.792776E-1,3.1605136E-1,-8.676562E-1,2.83661E-1,9.5236355E-1,-1.08461514E-1,3.885115E-1,-9.6297014E-1,-5.4537636E-1,-7.780068E-1,-3.5260406E-1,4.8720223E-1,-1.4267538E-1,-1.09445885E-1,-4.3065298E-1,8.353309E-1,2.0910937E-1,1.1541568E0,-6.7387813E-1,-1.3745164E-2,-4.3585113E-1,9.955913E-1,-1.8201794E-1,-1.0525916E0,-8.5985124E-1,9.161523E-1,-6.444706E-1,-1.9308837E-1,-9.361617E-1,-2.5868168E-1,-8.5537124E-1,1.0021682E0,2.3465188E-1,-5.784414E-1,8.8361007E-1,-6.139949E-2,-1.048608E0,8.825507E-1,-1.2751336E-1,-3.4943962E-1,2.7463722E-1,4.4357136E-1,1.1861373E0,-8.384007E-1,2.493752E-1,-1.83015E-1,1.9550392E-1,3.69322E-1,-5.1821727E-1,5.207171E-1,1.1638662E0,-4.1934884E-1,2.8167722E-1,-4.5351822E-2,-1.0654084E-1,-4.7133476E-2,-9.851428E-2,1.9180813E-1,-1.5282141E-2,-8.0402076E-2,-1.9670913E-2,-6.369091E-2,6.579154E-3,-1.03098E-1,-8.248027E-2,-5.800568E-2,-1.0765867E-2,-9.9521354E-2,-2.5081158E-2,-6.810973E-2,1.2009112E-1,-7.166938E-2,4.9877126E-2,1.4362596E-1,-7.1015626E-2,-9.301483E-2,9.531814E-2,-9.497737E-2,5.0914086E-2,-2.079614E-2,-1.2162971E-1,5.1409133E-2,1.1607041E-1,6.6117756E-3,-1.090854E-1,4.5933336E-2,9.179651E-3,7.249405E-2,-8.410668E-2,1.2004285E-1,1.8916978E-2,3.983109E-2,-9.6841715E-2,9.943732E-2,-2.1114355E-2,-2.2439451E-3,-3.8325485E-2,3.940427E-2,-1.627E-2,-1.1261046E-1,6.990709E-2,-8.433882E-2,-3.0064914E-2,-1.1641708E-3,1.0545377E-1,1.19809486E-1,-7.282763E-2,7.335675E-3,-6.3416615E-2,8.152769E-2,-6.525542E-2],"categories":[],"categories_nodes":[],"categories_segments":[],"categories_sizes":[],"default_left":[0,0,0,0,0,0,0,0,0,0,0,0,0,0,0,0,0,0,0,0,0,0,0,0,0,0,0,0,0,0,0,0,0,0,0,0,0,0,0,0,0,0,0,0,0,0,0,0,0,0,0,0,0,0,0,0,0,0,0,0,0,0,0,0,0,0,0,0,0,0,0,0,0,0,0,0,0,0,0,0,0,0,0,0,0,0,0,0,0,0,0,0,0,0,0,0,0,0,0,0,0,0,0,0,0,0,0,0,0,0,0,0,0,0,0,0,0,0,0],"id":13,"left_children":[1,3,5,7,9,11,13,15,17,19,21,23,25,27,29,31,33,35,37,39,41,-1,43,45,47,49,51,53,55,57,59,61,63,