{"learner":{"attributes":{"scikit_learn":"{\"_estimator_type\": \"classifier\"}"},"feature_names":[],"feature_types":[],"gradient_booster":{"model":{"cats":{"enc":[],"feature_segments":[],"sorted_idx":[]},"gbtree_model_param":{"num_parallel_tree":"1","num_trees":"100"},"iteration_indptr":[0,1,2,3,4,5,6,7,8,9,10,11,12,13,14,15,16,17,18,19,20,21,22,23,24,25,26,27,28,29,30,31,32,33,34,35,36,37,38,39,40,41,42,43,44,45,46,47,48,49,50,51,52,53,54,55,56,57,58,59,60,61,62,63,64,65,66,67,68,69,70,71,72,73,74,75,76,77,78,79,80,81,82,83,84,85,86,87,88,89,90,91,92,93,94,95,96,97,98,99,100],"tree_info":[0,0,0,0,0,0,0,0,0,0,0,0,0,0,0,0,0,0,0,0,0,0,0,0,0,0,0,0,0,0,0,0,0,0,0,0,0,0,0,0,0,0,0,0,0,0,0,0,0,0,0,0,0,0,0,0,0,0,0,0,0,0,0,0,0,0,0,0,0,0,0,0,0,0,0,0,0,0,0,0,0,0,0,0,0,0,0,0,0,0,0,0,0,0,0,0,0,0,0,0],"trees":[{"base_weights":[8.421027E-1,2.4732025E0,3.889106E-1,2.8435888E0,9.7202563E-1,9.5099944E-1,-5.0831026E-1,2.943386E0,2.053987E0,1.3289478E0,-8.4928554E-1,-5.6176984E-1,2.0547109E0,-3.3242875E-1,-1.1184849E0,3.0554187E0,2.4106443E0,1.3165232E0,2.825549E0,1.910916E0,-8.344348E-2,6.969773E-2,-1.1717155E0,-8.676394E-1,2.1532187E0,1.6352086E0,2.5610397E0,-5.425666E-1,5.1049423E-1,-1.2040524E0,2.0957325E0,2.7218552E0,3.0872817E0,1.167566E0,2.7944744E0,6.194217E-1,1.7918764E0,2.8577588E0,5.340895E-2,2.4241962E0,1.4894376E0,1.9962984E0,-2.6369998E-1,1.2163255E0,-3.225807E-1,-1.3795196E-1,-6.946155E-1,2.580392E0,-9.0635145E-1,-1.1622041E0,2.784993E0,1.984403E0,1.2634103E-1,-1.5838642E-1,2.680813E0,-1.6640165E-1,-8.090018E-1,2.6586536E-1,1.7051277E0,-1.3320464E0,-8.633138E-1,2.9377374E-1,-2.6127747E-1,3.000415E-1,9.5206976E-2,3.0917138E-1,1.2825032E-1,2.637974E-1,3.8108945E-2,2.8902474E-1,-6.9191925E-2,1.2570281E-1,-1.2013941E-1,2.3724781E-1,4.3662403E-2,2.0798905E-1,2.9809466E-1,5.5900484E-2,2.6217243E-1,-1.0294672E-3,1.9835138E-1,-8.2821E-2,2.5341508E-1,-6.9974676E-2,9.847132E-2,-1.975566E-2,1.8729402E-1,-7.676143E-2,1.1013649E-1,-1.136274E-1,-1.870203E-2,1.2163255E-1,2.8687152E-1,-1.3488469E-1,-5.854676E-2,-1.3101156E-1,6.0826153E-2,-1.1662193E-1,2.8716713E-1,2.635396E-1,1.6730137E-1,1.7716056E-1,-5.8572043E-2,2.3532653E-1,-8.9069866E-2,2.854112E-1,1.9362108E-1,2.883437E-1,-2.078656E-2,-9.1155976E-2,-2.2979315E-2,9.173159E-2,-6.345803E-2,2.2103083E-1,4.8345592E-2,-1.377151E-1,-1.799488E-2,-1.4366339E-1,-6.679078E-2,-1.13721184E-1,1.2657356E-1],"categories":[],"categories_nodes":[],"categories_segments":[],"categories_sizes":[],"default_left":[0,0,0,0,0,0,0,0,0,0,0,0,0,0,0,0,0,0,0,0,0,0,0,0,0,0,0,0,0,0,0,0,0,0,0,0,0,0,0,0,0,0,0,0,0,0,0,0,0,0,0,0,0,0,0,0,0,0,0,0,0,0,0,0,0,0,0,0,0,0,0,0,0,0,0,0,0,0,0,0,0,0,0,0,0,0,0,0,0,0,0,0,0,0,0,0,0,0,0,0,0,0,0,0,0,0,0,0,0,0,0,0,0,0,0,0,0,0,0,0,0],"id":0,"left_children":[1,3,5,7,9,11,13,15,17,19,21,23,25,27,29,31,33,35,37,39,41,43,45,47,49,51,53,55,57,59,61,63,65,67,69,71,73,75,-1,77,79,81,83,85,87,-1,89,91,93,95,97,99,101,103,105,107,109,111,113,115,117,-1,119,-1,-1,-1,-1,-1,-1,-1,-1,-1,-1,-1,-1,-1,-1,-1,-1,-1,-1,-1,-1,-1,-1,-1,-1,-1,-1,-1,-1,-1,-1,-1,-1,-1,-1,-1,-1,-1,-1,-1,-1,-1,-1,-1,-1,-1,-1,-1,-1,-1,-1,-1,-1,-1,-1,-1,-1,-1,-1],"loss_changes":[8.329215E3,1.3595225E3,4.448598E3,1.4877246E2,3.1731918E2,9.055973E3,3.642871E2,9.660156E1,1.2360077E2,3.3477136E2,2.3878273E1,1.902259E3,6.6185645E2,4.6773157E2,2.1151141E2,6.854492E0,1.4341052E2,3.7422348E1,6.4802856E0,5.8767212E1,4.5418762E1,1.019918E1,4.941559E0,2.769663E2,4.891776E2,9.0476416E2,4.6263184E2,2.116289E2,1.535979E2,3.1158081E1,4.0597137E1,6.3015625E1,6.4560547E0,8.4852356E1,8.018787E1,5.801772E1,5.2949844E1,4.0288696E0,0E0,4.58468E1,1.1926004E2,1.6785843E1,6.115793E1,5.72423E0,1.164085E1,0E0,4.2866793E0,5.596878E0,2.8820667E2,1.0705654E1,7.018799E1,2.7833008E2,3.8046786E2,1.139408E2,1.6987012E2,1.11543236E2,7.324744E1,2.57936E2,5.41131E1,2.7640137E1,2.202089E1,0E0,9.733219E0,0E0,0E0,0E0,0E0,0E0,0E0,0E0,0E0,0E0,0E0,0E0,0E0,0E0,0E0,0E0,0E0,0E0,0E0,0E0,0E0,0E0,0E0,0E0,0E0,0E0,0E0,0E0,0E0,0E0,0E0,0E0,0E0,0E0,0E0,0E0,0E0,0E0,0E0,0E0,0E0,0E0,0E0,0E0,0E0,0E0,0E0,0E0,0E0,0E0,0E0,0E0,0E0,0E0,0E0,0E0,0E0,0E0,0E0],"parents":[2147483647,0,0,1,1,2,2,3,3,4,4,5,5,6,6,7,7,8,8,9,9,10,10,11,11,12,12,13,13,14,14,15,15,16,16,17,17,18,18,19,19,20,20,21,21,22,22,23,23,24,24,25,25,26,26,27,27,28,28,29,29,30,30,31,31,32,32,33,33,34,34,35,35,36,36,37,37,39,39,40,40,41,41,42,42,43,43,44,44,46,46,47,47,48,48,49,49,50,50,51,51,52,52,53,53,54,54,55,55,56,56,57,57,58,58,59,59,60,60,62,62],"right_children":[2,4,6,8,10,12,14,16,18,20,22,24,26,28,30,32,34,36,38,40,42,44,46,48,50,52,54,56,58,60,62,64,66,68,70,72,74,76,-1,78,80,82,84,86,88,-1,90,92,94,96,98,100,102,104,106,108,110,112,114,116,118,-1,120,-1,-1,-1,-1,-1,-1,-1,-1,-1,-1,-1,-1,-1,-1,-1,-1,-1,-1,-1,-1,-1,-1,-1,-1,-1,-1,-1,-1,-1,-1,-1,-1,-1,-1,-1,-1,-1,-1,-1,-1,-1,-1,-1,-1,-1,-1,-1,-1,-1,-1,-1,-1,-1,-1,-1,-1,-1,-1],"split_conditions":[9.909091E0,3.0381E4,3.1E1,1.078E5,2.093056E6,1.2702E4,2.470128E6,8.015385E0,5.125E3,7.4761906E0,2.231966E7,5.650522E0,5.4094768E0,6.8457414E4,1.5690239E2,1.2472E4,3.5324E4,3.973E4,4.285802E6,5.4368033E0,1.2E1,5.9866465E3,5.813245E0,7E0,8.9E1,2.5656717E1,6.1E1,1.793987E1,5.779966E0,3.1145403E1,1.342E3,3.8E2,6.28E2,9E0,4.4E1,1.7754E4,6.5463476E0,6.287E3,5.340895E-2,7.4358E4,4.412E3,2.8916E4,9.64E2,4.174714E3,4.969773E6,-1.3795196E-1,6.4043617E0,4.76E2,6.6E1,1.3767E4,4.269E3,1.7152E4,2.66E2,1.1218E4,1.8E1,2.3E1,1.219E3,5.448371E0,1.7804878E1,5.9617248E0,2.8059E4,2.9377374E-1,5.803448E0,3.000415E-1,9.5206976E-2,3.0917138E-1,1.2825032E-1,2.637974E-1,3.8108945E-2,2.8902474E-1,-6.9191925E-2,1.2570281E-1,-1.2013941E-1,2.3724781E-1,4.3662403E-2,2.0798905E-1,2.9809466E-1,5.5900484E-2,2.6217243E-1,-1.0294672E-3,1.9835138E-1,-8.2821E-2,2.5341508E-1,-6.9974676E-2,9.847132E-2,-1.975566E-2,1.8729402E-1,-7.676143E-2,1.1013649E-1,-1.136274E-1,-1.870203E-2,1.2163255E-1,2.8687152E-1,-1.3488469E-1,-5.854676E-2,-1.3101156E-1,6.0826153E-2,-1.1662193E-1,2.8716713E-1,2.635396E-1,1.6730137E-1,1.7716056E-1,-5.8572043E-2,2.3532653E-1,-8.9069866E-2,2.854112E-1,1.9362108E-1,2.883437E-1,-2.078656E-2,-9.1155976E-2,-2.2979315E-2,9.173159E-2,-6.345803E-2,2.2103083E-1,4.8345592E-2,-1.377151E-1,-1.799488E-2,-1.4366339E-1,-6.679078E-2,-1.13721184E-1,1.2657356E-1],"split_indices":[7,3,4,0,9,9,9,7,6,7,0,5,5,2,7,0,0,9,0,5,4,2,7,6,6,7,6,7,5,7,4,3,6,6,4,3,5,6,0,9,4,9,4,2,9,0,5,0,6,3,3,3,6,3,4,6,4,5,7,5,6,0,5,0,0,0,0,0,0,0,0,0,0,0,0,0,0,0,0,0,0,0,0,0,0,0,0,0,0,0,0,0,0,0,0,0,0,0,0,0,0,0,0,0,0,0,0,0,0,0,0,0,0,0,0,0,0,0,0,0,0],"split_type":[0,0,0,0,0,0,0,0,0,0,0,0,0,0,0,0,0,0,0,0,0,0,0,0,0,0,0,0,0,0,0,0,0,0,0,0,0,0,0,0,0,0,0,0,0,0,0,0,0,0,0,0,0,0,0,0,0,0,0,0,0,0,0,0,0,0,0,0,0,0,0,0,0,0,0,0,0,0,0,0,0,0,0,0,0,0,0,0,0,0,0,0,0,0,0,0,0,0,0,0,0,0,0,0,0,0,0,0,0,0,0,0,0,0,0,0,0,0,0,0,0],"sum_hessian":[1.1268153E4,2.4490896E3,8.819063E3,1.9636924E3,4.8539737E2,5.4221484E3,3.3969148E3,1.7409297E3,2.2276271E2,4.0608688E2,7.931046E1,2.287435E3,3.1347134E3,2.6380479E3,7.5886676E2,1.4345226E3,3.0640707E2,1.15281876E2,1.0748084E2,2.873379E2,1.1874899E2,2.0802744E1,5.8507717E1,2.056438E3,2.3099713E2,1.7166598E3,1.4180537E3,2.1119119E3,5.2613605E2,7.397976E2,1.9069181E1,1.326175E2,1.301905E3,7.3243E1,2.331641E2,4.7672955E1,6.760892E1,1.05747284E2,1.733562E0,1.2741681E2,1.599211E2,8.66781E0,1.10081184E2,4.7672954E0,1.6035448E1,3.9438534E1,1.9069181E1,2.2102915E1,2.034335E3,3.6838192E1,1.9415894E2,1.3937838E3,3.2287592E2,5.9807888E1,1.3582458E3,8.763156E2,1.2355963E3,4.377244E2,8.841166E1,5.3567065E2,2.0412692E2,1.3868496E1,5.200686E0,1.13981705E2,1.8635792E1,1.2980045E3,3.9005146E0,2.4703259E1,4.8539734E1,2.2709662E2,6.0674667E0,3.553802E1,1.2134933E1,4.6806175E1,2.0802744E1,1.690223E1,8.8845055E1,1.2568324E1,1.1484848E2,3.9871925E1,1.2004917E2,1.3001715E0,7.3676386E0,8.1910805E1,2.8170382E1,1.733562E0,3.0337334E0,1.2568324E1,3.467124E0,9.534591E0,9.534591E0,4.7672954E0,1.733562E1,8.537793E2,1.1805557E3,3.423785E1,2.600343E0,3.9005146E0,1.9025842E2,4.4855917E2,9.452247E2,9.707947E1,2.2579645E2,1.3001715E1,4.6806175E1,1.0995117E3,2.5873413E2,1.0834763E1,8.6548083E2,1.0492384E3,1.8635791E2,2.5396683E2,1.8375757E2,6.1974842E1,2.6436821E1,5.1530133E2,2.0369354E1,5.0273296E1,1.5385362E2,3.467124E0,1.733562E0],"tree_param":{"num_deleted":"0","num_feature":"10","num_nodes":"121","size_leaf_vector":"1"}},{"base_weights":[7.342998E-1,2.0571096E0,3.424395E-1,2.3399692E0,8.457011E-1,8.241465E-1,-4.7270864E-1,2.4188745E0,1.7590356E0,1.1439508E0,-7.9366386E-1,-5.19677E-1,1.7172362E0,-3.0849198E-1,-1.0554053E0,1.8576345E0,2.483092E0,1.2190851E0,2.282739E0,1.6148474E0,-7.5534806E-2,7.029462E-2,-1.1097274E0,-8.0951947E-1,1.8095866E0,1.8634396E0,7.832047E-1,-5.455186E-1,3.399864E-1,-1.1393619E0,1.7842348E0,2.3795834E0,1.4013267E-1,2.5200248E-1,2.1598225E0,1.918986E0,5.8602196E-1,-9.366013E-2,2.3250859E0,2.0148933E0,1.2640837E0,1.7072786E0,-2.4073923E-1,5.8281326E-1,-6.5505785E-1,-1.3632213E-1,-7.188562E-1,2.164128E0,-8.467297E-1,-1.0990787E0,2.2960742E0,-3.2309124E-1,1.9485252E0,5.2099954E-2,2.350188E0,-2.0421058E-1,-8.499849E-1,1.5168366E-1,1.2062497E0,-1.2672046E0,-8.056113E-1,2.4411719E-1,-2.3808572E-1,1.74881E-1,2.4772389E-1,1.9545726E-1,-5.3501207E-2,-2.3050299E-2,2.4268174E-1,2.640284E-1,1.2589572E-1,-1.0464784E-1,1.0611808E-1,5.5434473E-2,2.3713247E-1,5.7820912E-2,2.1590523E-1,-3.530432E-2,1.6359793E-1,-7.9616055E-2,2.1477412E-1,-6.483229E-2,8.5941195E-2,1.0871935E-1,1.5290274E-2,-1.0101342E-1,8.7488316E-2,-9.693033E-2,-2.125684E-2,1.0762638E-1,2.3816243E-1,-1.2711284E-1,-5.2483913E-2,-1.2467469E-1,5.551799E-2,2.3716871E-1,-4.3623444E-2,1.7641382E-1,-9.862621E-2,2.0583038E-1,8.310201E-2,1.4117986E-1,-5.3017028E-2,-3.0893937E-2,2.4141403E-1,2.3995566E-1,-2.4041964E-2,-8.788037E-2,8.1854224E-2,7.2162144E-2,-6.1415613E-2,-7.695968E-2,1.485328E-1,-1.3125184E-1,-1.6388614E-2,-4.6102073E-2,-1.13232635E-1,-1.087381E-1,1.1518325E-1],"categories":[],"categories_nodes":[],"categories_segments":[],"categories_sizes":[],"default_left":[0,0,0,0,0,0,0,0,0,0,0,0,0,0,0,0,0,0,0,0,0,0,0,0,0,0,0,0,0,0,0,0,0,0,0,0,0,0,0,0,0,0,0,0,0,0,0,0,0,0,0,0,0,0,0,0,0,0,0,0,0,0,0,0,0,0,0,0,0,0,0,0,0,0,0,0,0,0,0,0,0,0,0,0,0,0,0,0,0,0,0,0,0,0,0,0,0,0,0,0,0,0,0,0,0,0,0,0,0,0,0,0,0,0,0,0,0,0,0],"id":1,"left_children":[1,3,5,7,9,11,13,15,17,19,21,23,25,27,29,31,33,35,37,39,41,43,45,47,49,51,53,55,57,59,61,63,65,-1,67,69,71,-1,73,75,77,79,81,83,85,-1,87,89,91,93,95,97,99,101,103,105,107,109,111,113,115,-1,117,-1,-1,-1,-1,-1,-1,-1,-1,-1,-1,-1,-1,-1,-1,-1,-1,-1,-1,-1,-1,-1,-1,-1,-1,-1,-1,-1,-1,-1,-1,-1,-1,-1,-1,-1,-1,-1,-1,-1,-1,-1,-1,-1,-1,-1,-1,-1,-1,-1,-1,-1,-1,-1,-1,-1,-1],"loss_changes":[5.9827695E3,9.018867E2,3.4975825E3,9.374414E1,2.4581436E2,6.7199873E3,3.162918E2,6.3129883E1,7.0546875E1,2.4372058E2,2.1292732E1,1.5110205E3,4.5786035E2,3.971737E2,1.753706E2,1.7622504E2,1.465918E1,5.639943E1,1.996814E1,4.0401917E1,3.54973E1,8.467327E0,4.6619797E0,2.2194104E2,3.5310175E2,5.415625E2,5.233845E2,1.9641724E2,1.126886E2,2.9136597E1,2.8837677E1,4.9683228E0,5.8580124E1,0E0,1.15196655E2,2.5820969E1,5.51053E1,0E0,9.254822E0,2.8018188E1,1.00269684E2,1.2986204E1,4.983702E1,2.7120194E0,6.0314655E0,0E0,2.9025898E0,3.3200684E0,2.6782104E2,9.529434E0,4.495276E1,1.5367416E2,3.4164258E2,2.4824353E2,2.546405E1,8.479316E1,4.8782837E1,2.4903827E2,6.9194E1,2.5247498E1,2.1825745E1,0E0,8.48407E0,0E0,0E0,0E0,0E0,0E0,0E0,0E0,0E0,0E0,0E0,0E0,0E0,0E0,0E0,0E0,0E0,0E0,0E0,0E0,0E0,0E0,0E0,0E0,0E0,0E0,0E0,0E0,0E0,0E0,0E0,0E0,0E0,0E0,0E0,0E0,0E0,0E0,0E0,0E0,0E0,0E0,0E0,0E0,0E0,0E0,0E0,0E0,0E0,0E0,0E0,0E0,0E0,0E0,0E0,0E0,0E0],"parents":[2147483647,0,0,1,1,2,2,3,3,4,4,5,5,6,6,7,7,8,8,9,9,10,10,11,11,12,12,13,13,14,14,15,15,16,16,17,17,18,18,19,19,20,20,21,21,22,22,23,23,24,24,25,25,26,26,27,27,28,28,29,29,30,30,31,31,32,32,34,34,35,35,36,36,38,38,39,39,40,40,41,41,42,42,43,43,44,44,46,46,47,47,48,48,49,49,50,50,51,51,52,52,53,53,54,54,55,55,56,56,57,57,58,58,59,59,60,60,62,62],"right_children":[2,4,6,8,10,12,14,16,18,20,22,24,26,28,30,32,34,36,38,40,42,44,46,48,50,52,54,56,58,60,62,64,66,-1,68,70,72,-1,74,76,78,80,82,84,86,-1,88,90,92,94,96,98,100,102,104,106,108,110,112,114,116,-1,118,-1,-1,-1,-1,-1,-1,-1,-1,-1,-1,-1,-1,-1,-1,-1,-1,-1,-1,-1,-1,-1,-1,-1,-1,-1,-1,-1,-1,-1,-1,-1,-1,-1,-1,-1,-1,-1,-1,-1,-1,-1,-1,-1,-1,-1,-1,-1,-1,-1,-1,-1,-1,-1,-1,-1,-1],"split_conditions":[9.909091E0,3.0381E4,3.2E1,7.68E2,2.093056E6,1.2702E4,2.470128E6,1.1761E4,4.109E3,7.4761906E0,2.231966E7,5.650522E0,2.7482374E1,7.83483E5,1.5690239E2,5.45E2,1.3337E4,1.67E2,2.87E2,5.562955E0,1.2E1,6.291005E0,5.7533236E0,7E0,8.9E1,6.1E1,5.464094E0,1.8884615E1,5.7464824E0,3.1145403E1,1.342E3,1E0,9E0,2.5200248E-1,1.7525E4,6.388128E0,5.612512E0,-9.366013E-2,7.001181E1,7.4358E4,6.65E3,2.8916E4,9.64E2,5.9866465E3,3.635016E6,-1.3632213E-1,8.97536E6,4.76E2,3.5479538E2,1.3767E4,1E1,1.2338E4,2.2E1,1.8028E4,1.4231E4,2.3E1,1.0952654E2,5.448371E0,4.951224E6,5.9617248E0,4.969773E6,2.4411719E-1,5.803448E0,1.74881E-1,2.4772389E-1,1.9545726E-1,-5.3501207E-2,-2.3050299E-2,2.4268174E-1,2.640284E-1,1.2589572E-1,-1.0464784E-1,1.0611808E-1,5.5434473E-2,2.3713247E-1,5.7820912E-2,2.1590523E-1,-3.530432E-2,1.6359793E-1,-7.9616055E-2,2.1477412E-1,-6.483229E-2,8.5941195E-2,1.0871935E-1,1.5290274E-2,-1.0101342E-1,8.7488316E-2,-9.693033E-2,-2.125684E-2,1.0762638E-1,2.3816243E-1,-1.2711284E-1,-5.2483913E-2,-1.2467469E-1,5.551799E-2,2.3716871E-1,-4.3623444E-2,1.7641382E-1,-9.862621E-2,2.0583038E-1,8.310201E-2,1.4117986E-1,-5.3017028E-2,-3.0893937E-2,2.4141403E-1,2.3995566E-1,-2.4041964E-2,-8.788037E-2,8.1854224E-2,7.2162144E-2,-6.1415613E-2,-7.695968E-2,1.485328E-1,-1.3125184E-1,-1.6388614E-2,-4.6102073E-2,-1.13232635E-1,-1.087381E-1,1.1518325E-1],"split_indices":[7,3,4,8,9,9,9,0,6,7,0,5,7,3,7,3,3,4,4,5,4,7,7,6,6,6,5,7,5,7,4,6,6,0,9,7,7,0,2,9,6,9,4,2,9,0,9,0,2,3,4,3,4,3,9,6,7,5,0,5,9,0,5,0,0,0,0,0,0,0,0,0,0,0,0,0,0,0,0,0,0,0,0,0,0,0,0,0,0,0,0,0,0,0,0,0,0,0,0,0,0,0,0,0,0,0,0,0,0,0,0,0,0,0,0,0,0,0,0],"split_type":[0,0,0,0,0,0,0,0,0,0,0,0,0,0,0,0,0,0,0,0,0,0,0,0,0,0,0,0,0,0,0,0,0,0,0,0,0,0,0,0,0,0,0,0,0,0,0,0,0,0,0,0,0,0,0,0,0,0,0,0,0,0,0,0,0,0,0,0,0,0,0,0,0,0,0,0,0,0,0,0,0,0,0,0,0,0,0,0,0,0,0,0,0,0,0,0,0,0,0,0,0,0,0,0,0,0,0,0,0,0,0,0,0,0,0,0,0,0,0],"sum_hessian":[1.1542161E4,2.636804E3,8.905356E3,2.1369114E3,4.998926E2,5.5975225E3,3.3078342E3,1.8785884E3,2.5832306E2,4.2320172E2,7.669089E1,2.234983E3,3.3625396E3,2.5817656E3,7.260686E2,1.9595332E2,1.682635E3,1.2882712E2,1.2949596E2,3.050748E2,1.1812692E2,2.0749577E1,5.594131E1,1.9882296E3,2.4675337E2,2.9065793E3,4.559603E2,1.8908104E3,6.909552E2,7.057998E2,2.0268845E1,1.4998683E2,4.596649E1,1.5040105E3,1.7862454E2,6.0219017E1,6.86081E1,1.407096E0,1.2808885E2,1.4030861E2,1.6476619E2,9.226309E0,1.0890061E2,1.2273731E1,8.475846E0,3.2424934E1,2.3516375E1,2.3865496E1,1.9643641E3,3.5176567E1,2.115768E2,1.0876405E2,2.7978152E3,3.1160742E2,1.4435287E2,8.922571E2,9.9855334E2,5.685439E2,1.224113E2,5.0829932E2,1.9750047E2,1.514272E1,5.126125E0,2.2642576E1,1.2734425E2,1.1951635E1,3.401486E1,1.7961082E1,1.6066345E2,2.7340405E1,3.2878613E1,1.5196209E1,5.3411892E1,3.5901628E0,1.24498695E2,1.3251881E1,1.2705673E2,3.0816473E1,1.3394972E2,1.2596023E0,7.9667068E0,7.9761345E1,2.9139265E1,4.9442024E0,7.3295283E0,7.155028E0,1.3208188E0,1.5121595E1,8.39478E0,4.9675264E0,1.889797E1,8.460006E2,1.1183635E3,3.2519993E1,2.656573E0,2.0600778E2,5.56902E0,2.582467E1,8.2939384E1,2.5467886E3,2.510268E2,9.3003654E1,2.1860378E2,3.300198E0,1.4105269E2,1.1342694E1,8.8091437E2,9.8206445E2,1.648893E1,3.259957E2,2.4254819E2,1.4932559E1,1.07478745E2,4.8806473E2,2.0234592E1,9.729414E1,1.0020633E2,3.3169823E0,1.8091425E0],"tree_param":{"num_deleted":"0","num_feature":"10","num_nodes":"119","size_leaf_vector":"1"}},{"base_weights":[6.53128E-1,1.6942434E0,2.7543315E-1,1.9403876E0,5.001984E-1,6.8246984E-1,-4.772789E-1,2.0689962E0,1.5506666E0,9.36748E-1,-1.873211E-1,-4.9513245E-1,1.4562035E0,-3.2271388E-1,-9.9822354E-1,2.1630006E0,1.5675628E0,4.540278E-1,1.8521227E0,1.2638432E0,-1.0790755E0,-6.2976766E-1,5.3894883E-1,-7.6690215E-1,1.5949001E0,1.6239663E0,4.847519E-1,-5.382941E-1,3.315586E-1,1.5893693E0,-1.0818797E0,1.9265776E0,2.1826601E-1,1.1681772E0,1.9334785E0,2.0947502E0,-2.9529145E-1,2.0431817E0,1.1905781E-1,-6.6773295E-1,1.3858705E0,-1.2635837E-1,-3.472456E-1,1.758022E-1,-7.0942765E-1,9.9520016E-1,-1.002893E0,-1.2103561E0,-4.8274973E-1,-8.960633E-1,1.9920101E0,1.2818044E0,1.9300388E0,-1.9915527E-2,1.6992085E0,-8.75604E-1,-3.2864952E-1,-7.0961386E-1,5.102776E-1,1.942788E0,-9.533952E-2,-1.2238222E0,-7.370677E-1,2.1262805E-1,-2.6427528E-2,1.4809006E-1,-8.017993E-2,-8.9560226E-2,1.9637704E-1,1.7006664E-2,2.1811453E-1,-6.269986E-2,1.23412564E-1,2.2633658E-1,1.6462594E-1,1.7856297E-1,-1.8835757E-2,1.7435513E-1,-1.2825437E-1,2.1500783E-1,1.1188789E-1,2.958833E-2,-6.816297E-2,-4.050763E-2,-1.1883439E-1,-1.11873426E-1,1.3648137E-1,-1.2915674E-1,-2.4797622E-2,-1.284316E-1,1.5340017E-1,2.6795452E-2,-7.711659E-2,-1.2457561E-1,5.083077E-2,-8.9468025E-2,2.0469189E-1,1.4895324E-1,3.7900585E-4,-1.968149E-2,1.9990231E-1,-6.3529156E-2,1.2563245E-1,-1.328973E-1,1.8913025E-1,-1.2442603E-1,-6.858284E-2,7.649528E-2,-4.0739518E-2,-3.373847E-2,-1.24777734E-1,2.2695759E-1,2.8830415E-2,-2.2171063E-2,2.1955469E-1,-1.2683932E-1,-4.4606323E-3,-5.2031327E-2,-1.1972191E-1],"categories":[],"categories_nodes":[],"categories_segments":[],"categories_sizes":[],"default_left":[0,0,0,0,0,0,0,0,0,0,0,0,0,0,0,0,0,0,0,0,0,0,0,0,0,0,0,0,0,0,0,0,0,0,0,0,0,0,0,0,0,0,0,0,0,0,0,0,0,0,0,0,0,0,0,0,0,0,0,0,0,0,0,0,0,0,0,0,0,0,0,0,0,0,0,0,0,0,0,0,0,0,0,0,0,0,0,0,0,0,0,0,0,0,0,0,0,0,0,0,0,0,0,0,0,0,0,0,0,0,0,0,0,0,0,0,0,0,0],"id":2,"left_children":[1,3,5,7,9,11,13,15,17,19,21,23,25,27,29,31,33,35,37,39,41,43,45,47,49,51,53,55,57,59,61,63,-1,65,67,69,71,73,75,77,79,-1,81,-1,83,85,87,89,91,93,95,97,99,101,103,105,107,109,111,113,-1,115,117,-1,-1,-1,-1,-1,-1,-1,-1,-1,-1,-1,-1,-1,-1,-1,-1,-1,-1,-1,-1,-1,-1,-1,-1,-1,-1,-1,-1,-1,-1,-1,-1,-1,-1,-1,-1,-1,-1,-1,-1,-1,-1,-1,-1,-1,-1,-1,-1,-1,-1,-1,-1,-1,-1,-1,-1],"loss_changes":[4.571842E3,9.0872363E2,2.6148542E3,1.2539551E2,1.5935178E2,5.047547E3,2.4088416E2,8.740332E1,2.1094324E2,2.1535776E2,6.679216E1,1.2491504E3,5.44022E2,3.2623367E2,1.499906E2,3.3222656E0,4.27135E1,1.720697E2,1.660343E2,6.6851135E1,5.752182E0,2.5779305E1,5.645153E1,2.4448865E2,2.5218152E2,2.9601953E2,3.0262827E2,1.2269513E2,1.0708291E2,2.1493317E1,3.160138E1,5.868695E1,0E0,9.338811E1,1.5390625E1,6.9198303E0,4.9786278E1,3.5798462E1,2.6427141E1,2.7875233E1,5.13378E1,0E0,2.48357E0,0E0,1.7814507E1,4.944688E1,3.7109203E0,1.5600134E2,2.5721375E2,1.8065071E1,3.6486572E1,3.5805884E2,2.2083545E2,2.7549292E2,8.682797E1,4.574109E1,9.2812004E1,1.6494587E1,1.9073314E2,1.1165031E1,0E0,2.4589783E1,1.8943306E1,0E0,0E0,0E0,0E0,0E0,0E0,0E0,0E0,0E0,0E0,0E0,0E0,0E0,0E0,0E0,0E0,0E0,0E0,0E0,0E0,0E0,0E0,0E0,0E0,0E0,0E0,0E0,0E0,0E0,0E0,0E0,0E0,0E0,0E0,0E0,0E0,0E0,0E0,0E0,0E0,0E0,0E0,0E0,0E0,0E0,0E0,0E0,0E0,0E0,0E0,0E0,0E0,0E0,0E0,0E0,0E0],"parents":[2147483647,0,0,1,1,2,2,3,3,4,4,5,5,6,6,7,7,8,8,9,9,10,10,11,11,12,12,13,13,14,14,15,15,16,16,17,17,18,18,19,19,20,20,21,21,22,22,23,23,24,24,25,25,26,26,27,27,28,28,29,29,30,30,31,31,33,33,34,34,35,35,36,36,37,37,38,38,39,39,40,40,42,42,44,44,45,45,46,46,47,47,48,48,49,49,50,50,51,51,52,52,53,53,54,54,55,55,56,56,57,57,58,58,59,59,61,61,62,62],"right_children":[2,4,6,8,10,12,14,16,18,20,22,24,26,28,30,32,34,36,38,40,42,44,46,48,50,52,54,56,58,60,62,64,-1,66,68,70,72,74,76,78,80,-1,82,-1,84,86,88,90,92,94,96,98,100,102,104,106,108,110,112,114,-1,116,118,-1,-1,-1,-1,-1,-1,-1,-1,-1,-1,-1,-1,-1,-1,-1,-1,-1,-1,-1,-1,-1,-1,-1,-1,-1,-1,-1,-1,-1,-1,-1,-1,-1,-1,-1,-1,-1,-1,-1,-1,-1,-1,-1,-1,-1,-1,-1,-1,-1,-1,-1,-1,-1,-1,-1,-1],"split_conditions":[1.1139211E1,4.3087E4,3.9E1,8.015385E0,7.714286E0,1.3974E4,2.470128E6,4.22E2,3.2356E4,2.231966E7,9.64E2,5.650522E0,2.1E1,9.26831E5,1.342E3,7.016E3,1.38802E5,9E0,2.3E1,1.12693E5,5.813245E0,2.3E1,5.1361E4,6.6E1,8.7E1,5.3481417E0,5.5236034E0,1.47112E5,4.951224E6,9.811E3,3.1145403E1,3.8E2,2.1826601E-1,1.7403E4,2.87E2,8.428572E0,5.4942813E0,1.2987E4,5.2866535E0,8E0,1.96E2,-1.2635837E-1,3.40099E5,1.758022E-1,3.88E2,5.467E3,6.0853615E0,3.8599632E1,1.4574468E1,1.0043E4,1.4536E4,2.7843712E1,5.8E1,1.365E3,8.1E1,5.2932143E0,1.25E3,1.5959E4,5.205032E6,4.951224E6,-9.533952E-2,5.9617248E0,3.5119816E7,2.1262805E-1,-2.6427528E-2,1.4809006E-1,-8.017993E-2,-8.9560226E-2,1.9637704E-1,1.7006664E-2,2.1811453E-1,-6.269986E-2,1.23412564E-1,2.2633658E-1,1.6462594E-1,1.7856297E-1,-1.8835757E-2,1.7435513E-1,-1.2825437E-1,2.1500783E-1,1.1188789E-1,2.958833E-2,-6.816297E-2,-4.050763E-2,-1.1883439E-1,-1.11873426E-1,1.3648137E-1,-1.2915674E-1,-2.4797622E-2,-1.284316E-1,1.5340017E-1,2.6795452E-2,-7.711659E-2,-1.2457561E-1,5.083077E-2,-8.9468025E-2,2.0469189E-1,1.4895324E-1,3.7900585E-4,-1.968149E-2,1.9990231E-1,-6.3529156E-2,1.2563245E-1,-1.328973E-1,1.8913025E-1,-1.2442603E-1,-6.858284E-2,7.649528E-2,-4.0739518E-2,-3.373847E-2,-1.24777734E-1,2.2695759E-1,2.8830415E-2,-2.2171063E-2,2.1955469E-1,-1.2683932E-1,-4.4606323E-3,-5.2031327E-2,-1.1972191E-1],"split_indices":[7,3,4,7,7,9,9,6,0,0,4,5,4,3,4,0,9,6,4,9,7,6,6,6,6,5,5,9,0,6,7,3,0,3,4,7,5,3,5,4,4,0,3,0,4,6,5,7,7,9,0,7,6,6,6,5,6,6,0,0,0,5,0,0,0,0,0,0,0,0,0,0,0,0,0,0,0,0,0,0,0,0,0,0,0,0,0,0,0,0,0,0,0,0,0,0,0,0,0,0,0,0,0,0,0,0,0,0,0,0,0,0,0,0,0,0,0,0,0],"split_type":[0,0,0,0,0,0,0,0,0,0,0,0,0,0,0,0,0,0,0,0,0,0,0,0,0,0,0,0,0,0,0,0,0,0,0,0,0,0,0,0,0,0,0,0,0,0,0,0,0,0,0,0,0,0,0,0,0,0,0,0,0,0,0,0,0,0,0,0,0,0,0,0,0,0,0,0,0,0,0,0,0,0,0,0,0,0,0,0,0,0,0,0,0,0,0,0,0,0,0,0,0,0,0,0,0,0,0,0,0,0,0,0,0,0,0,0,0,0,0],"sum_hessian":[1.1626748E4,3.0941746E3,8.532574E3,2.564828E3,5.293466E2,5.5379595E3,2.9946145E3,1.9252001E3,6.396278E2,3.2354495E2,2.0580167E2,2.196026E3,3.3419333E3,2.3106584E3,6.839561E2,1.6184697E3,3.067304E2,1.3845638E2,5.0117142E2,2.7869577E2,4.4849197E1,1.2797292E2,7.782874E1,1.943892E3,2.521338E2,2.8492214E3,4.9271198E2,1.738129E3,5.7252936E2,2.0855944E1,6.631002E2,1.3185114E2,1.4866185E3,1.4866246E2,1.5806795E2,4.2845528E1,9.561085E1,4.5124564E2,4.9925797E1,1.6294662E1,2.624011E2,3.5238335E1,9.610861E0,3.4513226E0,1.245216E2,6.0330647E1,1.7498096E1,7.5787604E2,1.186016E3,3.449562E1,2.1763818E2,1.3477477E3,1.5014739E3,3.487659E2,1.4394606E2,6.649975E2,1.0731315E3,8.344267E1,4.890867E2,1.8518072E1,2.3378708E0,4.6792758E2,1.951726E2,1.20863525E2,1.0987608E1,1.2851038E2,2.015208E1,1.371935E0,1.5669601E2,1.9681493E0,4.087738E1,7.905505E1,1.6555792E1,2.8721622E2,1.6402942E2,7.026258E0,4.2899536E1,2.9375787E0,1.3357083E1,6.611312E1,1.9628798E2,3.3270347E0,6.2838264E0,7.72653E1,4.72563E1,8.677065E0,5.1653584E1,1.2143603E1,5.3544927E0,7.3850543E2,1.9370583E1,3.292079E2,8.5680804E2,2.770895E1,6.786672E0,3.7770176E0,2.1386116E2,1.159171E3,1.8857668E2,4.711199E1,1.4543619E3,2.3564505E2,1.1312084E2,8.233548E0,1.3571251E2,2.2410217E2,4.4089532E2,7.149605E1,1.00163544E3,5.028748E1,3.3155193E1,5.3761765E1,4.3532495E2,1.9491744E0,1.65689E1,4.5081253E2,1.7115057E1,1.3412415E2,6.104846E1],"tree_param":{"num_deleted":"0","num_feature":"10","num_nodes":"119","size_leaf_vector":"1"}},{"base_weights":[5.88297E-1,1.5076122E0,2.4829346E-1,1.7233222E0,4.4833443E-1,6.129941E-1,-4.4115254E-1,1.8430837E0,1.3901911E0,6.384239E-1,-8.514859E-1,-4.6155757E-1,1.2857364E0,-2.9584488E-1,-9.486816E-1,1.9143362E0,1.3319626E0,3.8050947E-1,1.5868704E0,1.1680716E0,-1.0033998E-1,1.5391979E-1,-9.2519265E-1,-7.172885E-1,1.4239006E0,1.423626E0,3.7408674E-1,-5.221242E-1,2.3564243E-1,1.4230204E0,-1.0300345E0,1.9187528E0,-5.967475E-1,-3.0814937E-1,1.5513953E0,1.8472974E0,-5.800054E-1,1.709811E0,-2.1619932E-1,-7.6383394E-1,1.2767129E0,-4.664127E-1,1.1244056E0,-1.2285665E0,-6.2151146E-1,-9.351026E-1,-1.3945518E-1,-8.4788823E-1,1.7653322E0,8.1283367E-1,1.5607829E0,-3.4461153E-1,1.1784151E0,-2.1348806E-1,-7.7059615E-1,1.3002115E-1,1.5467274E0,1.7334515E0,-9.173193E-2,-1.1748574E0,-6.8796164E-1,1.7633651E-1,1.9427894E-1,-9.080186E-2,-2.2682485E-3,1.3375936E-1,-1.0861137E-1,-6.3424944E-3,1.6264676E-1,4.2442765E-2,1.9194405E-1,1.2312595E-1,-8.894626E-2,1.8823837E-1,1.291536E-1,1.6192079E-1,-5.3239733E-2,1.4114642E-1,-1.2057888E-1,1.9336419E-1,1.0449535E-1,-2.200973E-2,-1.01947665E-1,-9.2106126E-2,1.6335094E-1,-5.9393058E-3,-1.2785435E-1,-1.1464764E-1,-2.2421792E-2,-1.2164386E-1,-6.523983E-2,1.7694937E-1,-3.9836366E-2,-1.1977398E-1,4.564288E-2,1.8242337E-1,-7.3291615E-2,1.5139756E-1,-1.071832E-2,-3.011105E-2,1.618527E-1,7.021236E-2,-9.5658116E-2,-1.22000016E-1,1.3713367E-1,-6.258149E-2,5.2822586E-3,-8.014505E-2,8.188506E-2,5.9465457E-2,-4.0224247E-2,-5.5461526E-2,2.005529E-1,-2.0857288E-2,1.954979E-1,-1.22046046E-1,-4.046052E-3,-3.7133764E-2,-9.980554E-2],"categories":[],"categories_nodes":[],"categories_segments":[],"categories_sizes":[],"default_left":[0,0,0,0,0,0,0,0,0,0,0,0,0,0,0,0,0,0,0,0,0,0,0,0,0,0,0,0,0,0,0,0,0,0,0,0,0,0,0,0,0,0,0,0,0,0,0,0,0,0,0,0,0,0,0,0,0,0,0,0,0,0,0,0,0,0,0,0,0,0,0,0,0,0,0,0,0,0,0,0,0,0,0,0,0,0,0,0,0,0,0,0,0,0,0,0,0,0,0,0,0,0,0,0,0,0,0,0,0,0,0,0,0,0,0,0,0,0,0],"id":3,"left_children":[1,3,5,7,9,11,13,15,17,19,21,23,25,27,29,31,33,35,37,39,41,-1,43,45,47,49,51,53,55,57,59,61,63,65,67,69,71,73,75,77,79,81,83,85,87,89,91,93,95,97,99,101,103,105,107,109,111,113,-1,115,117,-1,-1,-1,-1,-1,-1,-1,-1,-1,-1,-1,-1,-1,-1,-1,-1,-1,-1,-1,-1,-1,-1,-1,-1,-1,-1,-1,-1,-1,-1,-1,-1,-1,-1,-1,-1,-1,-1,-1,-1,-1,-1,-1,-1,-1,-1,-1,-1,-1,-1,-1,-1,-1,-1,-1,-1,-1,-1],"loss_changes":[3.620923E3,7.139155E2,2.1271519E3,1.0109912E2,1.3162778E2,4.000176E3,2.1558209E2,6.694092E1,1.3664612E2,1.8144347E2,1.3426708E1,1.0284971E3,4.272207E2,2.7396472E2,1.2708142E2,1.9692871E1,8.567984E1,1.616777E2,1.2852795E2,5.7641052E1,8.7695015E1,0E0,5.38171E0,2.361217E2,1.9916766E2,2.4631543E2,2.596222E2,1.2233319E2,9.40515E1,1.7581497E1,3.0403564E1,2.8095703E0,6.403924E-1,3.8288593E1,2.5436218E1,3.840393E0,4.0133263E1,3.6645386E1,2.2794693E1,1.6122728E1,3.6953125E1,2.026339E1,4.840091E1,1.8140144E0,7.117483E0,1.0761694E2,2.5526202E2,1.6048716E1,3.398523E1,3.5109738E2,2.5984473E2,1.528634E2,9.968759E1,7.841469E1,4.403601E1,1.5628476E2,4.994584E1,8.917095E0,0E0,2.2775879E1,1.8265572E1,0E0,0E0,0E0,0E0,0E0,0E0,0E0,0E0,0E0,0E0,0E0,0E0,0E0,0E0,0E0,0E0,0E0,0E0,0E0,0E0,0E0,0E0,0E0,0E0,0E0,0E0,0E0,0E0,0E0,0E0,0E0,0E0,0E0,0E0,0E0,0E0,0E0,0E0,0E0,0E0,0E0,0E0,0E0,0E0,0E0,0E0,0E0,0E0,0E0,0E0,0E0,0E0,0E0,0E0,0E0,0E0,0E0,0E0],"parents":[2147483647,0,0,1,1,2,2,3,3,4,4,5,5,6,6,7,7,8,8,9,9,10,10,11,11,12,12,13,13,14,14,15,15,16,16,17,17,18,18,19,19,20,20,22,22,23,23,24,24,25,25,26,26,27,27,28,28,29,29,30,30,31,31,32,32,33,33,34,34,35,35,36,36,37,37,38,38,39,39,40,40,41,41,42,42,43,43,44,44,45,45,46,46,47,47,48,48,49,49,50,50,51,51,52,52,53,53,54,54,55,55,56,56,57,57,59,59,60,60],"right_children":[2,4,6,8,10,12,14,16,18,20,22,24,26,28,30,32,34,36,38,40,42,-1,44,46,48,50,52,54,56,58,60,62,64,66,68,70,72,74,76,78,80,82,84,86,88,90,92,94,96,98,100,102,104,106,108,110,112,114,-1,116,118,-1,-1,-1,-1,-1,-1,-1,-1,-1,-1,-1,-1,-1,-1,-1,-1,-1,-1,-1,-1,-1,-1,-1,-1,-1,-1,-1,-1,-1,-1,-1,-1,-1,-1,-1,-1,-1,-1,-1,-1,-1,-1,-1,-1,-1,-1,-1,-1,-1,-1,-1,-1,-1,-1,-1,-1,-1,-1],"split_conditions":[1.1139211E1,4.3087E4,3.9E1,7.810811E0,2.802688E6,1.3974E4,2.470128E6,2.68E2,1.6384E4,7.4761906E0,8.4E1,5.650522E0,2.2E1,7.83483E5,1.342E3,1.055E3,4.347E4,9E0,4.4E1,1.12693E5,1.914E4,1.5391979E-1,5.7533236E0,7.928E3,8.7E1,5.1087966E0,5.412278E0,1.8884615E1,5.927439E0,9.811E3,3.1145403E1,2.1545E4,5.4448442E0,9.4459816E1,7.001181E1,8.428572E0,5.45E2,1.4708E4,3.994954E2,3.0222588E3,1.96E2,5.8904777E0,5.7376103E0,7.267E3,6.111678E0,7.2E1,8.441E3,1.0043E4,1.1E1,3.19E2,6.1E1,1.6830189E1,1.8278E4,1.47112E5,1.0952654E2,5.448371E0,6.155296E6,4.951224E6,-9.173193E-2,5.9617248E0,4.969773E6,1.7633651E-1,1.9427894E-1,-9.080186E-2,-2.2682485E-3,1.3375936E-1,-1.0861137E-1,-6.3424944E-3,1.6264676E-1,4.2442765E-2,1.9194405E-1,1.2312595E-1,-8.894626E-2,1.8823837E-1,1.291536E-1,1.6192079E-1,-5.3239733E-2,1.4114642E-1,-1.2057888E-1,1.9336419E-1,1.0449535E-1,-2.200973E-2,-1.01947665E-1,-9.2106126E-2,1.6335094E-1,-5.9393058E-3,-1.2785435E-1,-1.1464764E-1,-2.2421792E-2,-1.2164386E-1,-6.523983E-2,1.7694937E-1,-3.9836366E-2,-1.1977398E-1,4.564288E-2,1.8242337E-1,-7.3291615E-2,1.5139756E-1,-1.071832E-2,-3.011105E-2,1.618527E-1,7.021236E-2,-9.5658116E-2,-1.22000016E-1,1.3713367E-1,-6.258149E-2,5.2822586E-3,-8.014505E-2,8.188506E-2,5.9465457E-2,-4.0224247E-2,-5.5461526E-2,2.005529E-1,-2.0857288E-2,1.954979E-1,-1.22046046E-1,-4.046052E-3,-3.7133764E-2,-9.980554E-2],"split_indices":[7,3,4,7,9,9,9,4,0,7,4,5,4,3,4,6,9,6,4,9,6,0,7,9,6,5,5,7,5,6,7,0,5,2,2,7,3,3,2,2,4,5,5,4,5,6,3,9,4,6,6,7,9,9,7,5,0,0,0,5,9,0,0,0,0,0,0,0,0,0,0,0,0,0,0,0,0,0,0,0,0,0,0,0,0,0,0,0,0,0,0,0,0,0,0,0,0,0,0,0,0,0,0,0,0,0,0,0,0,0,0,0,0,0,0,0,0,0,0],"split_type":[0,0,0,0,0,0,0,0,0,0,0,0,0,0,0,0,0,0,0,0,0,0,0,0,0,0,0,0,0,0,0,0,0,0,0,0,0,0,0,0,0,0,0,0,0,0,0,0,0,0,0,0,0,0,0,0,0,0,0,0,0,0,0,0,0,0,0,0,0,0,0,0,0,0,0,0,0,0,0,0,0,0,0,0,0,0,0,0,0,0,0,0,0,0,0,0,0,0,0,0,0,0,0,0,0,0,0,0,0,0,0,0,0,0,0,0,0,0,0],"sum_hessian":[1.1584541E4,3.1267837E3,8.457757E3,2.5972554E3,5.295285E2,5.531719E3,2.9260376E3,1.9071106E3,6.901447E2,4.6241272E2,6.711575E1,2.129941E3,3.4017783E3,2.275994E3,6.5004364E2,1.6713694E3,2.3574121E2,1.12996376E2,5.771483E2,2.6898566E2,1.9342706E2,1.4126797E0,6.570307E1,1.876099E3,2.5384196E2,2.9543616E3,4.4741693E2,1.5963639E3,6.7963E2,2.1011078E1,6.2903253E2,1.6686703E3,2.6990843E0,2.7770578E1,2.0797064E2,4.4348778E1,6.86476E1,5.403564E2,3.6791935E1,1.4000053E1,2.5498561E2,1.493931E2,4.4033962E1,3.1344608E1,3.4358467E1,1.3620547E3,5.140444E2,3.297205E1,2.2086992E2,5.4303296E2,2.4113284E3,2.36588E2,2.1082892E2,7.128126E2,8.8355133E2,6.2997797E2,4.9651985E1,1.8779423E1,2.2316544E0,4.4022202E2,1.8881053E2,2.3350458E2,1.4351658E3,1.372921E0,1.3261634E0,8.682934E0,1.9087646E1,9.245823E0,1.9872481E2,2.4722342E0,4.1876545E1,9.582439E0,5.906516E1,3.800531E2,1.6030328E2,4.8013115E0,3.1990622E1,1.9936478E0,1.2006406E1,6.458219E1,1.9040343E2,1.0432731E2,4.5065784E1,8.614325E0,3.5419636E1,1.3746257E0,2.9969982E1,1.3988718E1,2.036975E1,6.810239E2,6.8103076E2,6.069581E1,4.5334857E2,2.6062992E1,6.909056E0,2.1604597E2,4.8239393E0,3.0780795E2,2.3522502E2,7.240775E1,2.3389207E3,8.723344E1,1.4935455E2,1.5299588E1,1.9552933E2,2.7919193E2,4.336207E2,8.672127E2,1.6338621E1,3.362955E2,2.936825E2,8.860669E0,4.0791317E1,1.9288255E0,1.6850597E1,4.23136E2,1.7086014E1,9.450889E1,9.430164E1],"tree_param":{"num_deleted":"0","num_feature":"10","num_nodes":"119","size_leaf_vector":"1"}},{"base_weights":[5.34911E-1,1.4377873E0,2.5032482E-1,1.6300807E0,5.938393E-1,5.8316845E-1,-3.9675683E-1,1.6863433E0,1.1809118E0,7.971601E-1,-6.8437046E-1,-5.058561E-1,1.1073028E0,-2.6045612E-1,-9.0543246E-1,1.7567201E0,1.4272795E0,3.6455145E-1,1.4514878E0,1.1053972E0,-7.2524525E-2,7.63788E-1,-8.0301154E-1,-7.470637E-1,1.2545334E0,1.6608665E0,8.947472E-1,-4.795315E-1,2.4743792E-1,-9.833281E-1,1.3174055E0,1.7587479E0,3.5091467E-2,5.371353E-1,1.5565755E0,9.964707E-1,-3.5954955E-1,-5.7794485E-2,1.5293187E0,1.2494336E0,3.6364216E-1,1.2396013E0,-2.1270028E-1,-9.40892E-2,1.9033182E-1,5.3970766E-1,-9.493612E-1,1.6926767E0,-7.8573674E-1,-9.802326E-1,1.5694909E0,-7.599188E-1,1.7333751E0,-4.3853903E-1,1.0932164E0,2.2304212E-1,-5.0497556E-1,1.5103526E0,1.5022056E-1,-1.1180912E0,-6.5875226E-1,1.6124171E0,-8.999121E-2,1.5960234E-1,1.7842421E-1,1.499581E-1,-4.5925885E-2,1.598645E-1,-3.8071822E-2,1.6960742E-1,-5.204853E-2,2.625813E-2,-1.3683514E-1,-3.99036E-2,9.28037E-2,1.24689065E-1,1.7184252E-1,6.541709E-2,1.5345834E-1,1.16677895E-1,-5.782902E-2,1.7700736E-1,-8.932449E-2,-9.2381544E-2,2.0031665E-2,-5.9022587E-2,1.2378235E-1,-1.2473749E-1,-6.359679E-2,7.9532795E-2,1.8793258E-1,-1.191188E-1,-5.0390285E-2,-1.1674509E-1,1.1512698E-1,2.3910025E-2,1.7355023E-1,-1.4781024E-1,-1.7288165E-2,1.744548E-1,-1.19925976E-1,-8.9440994E-2,1.057924E-1,7.063815E-2,1.4173734E-1,-2.514798E-2,-7.333098E-2,-9.824613E-2,1.8898085E-1,5.3794872E-2,-2.6991291E-2,-1.1666498E-1,-1.1868086E-2,-1.2797302E-1,-4.612613E-2,4.5618084E-3,1.8085583E-1],"categories":[],"categories_nodes":[],"categories_segments":[],"categories_sizes":[],"default_left":[0,0,0,0,0,0,0,0,0,0,0,0,0,0,0,0,0,0,0,0,0,0,0,0,0,0,0,0,0,0,0,0,0,0,0,0,0,0,0,0,0,0,0,0,0,0,0,0,0,0,0,0,0,0,0,0,0,0,0,0,0,0,0,0,0,0,0,0,0,0,0,0,0,0,0,0,0,0,0,0,0,0,0,0,0,0,0,0,0,0,0,0,0,0,0,0,0,0,0,0,0,0,0,0,0,0,0,0,0,0,0,0,0,0,0,0,0],"id":4,"left_children":[1,3,5,7,9,11,13,15,17,19,21,23,25,27,29,31,33,35,37,39,41,43,45,47,49,51,53,55,57,59,61,63,-1,65,67,69,71,73,75,77,79,81,83,-1,-1,85,87,89,91,93,95,97,99,101,103,-1,105,107,109,111,113,115,-1,-1,-1,-1,-1,-1,-1,-1,-1,-1,-1,-1,-1,-1,-1,-1,-1,-1,-1,-1,-1,-1,-1,-1,-1,-1,-1,-1,-1,-1,-1,-1,-1,-1,-1,-1,-1,-1,-1,-1,-1,-1,-1,-1,-1,-1,-1,-1,-1,-1,-1,-1,-1,-1,-1],"loss_changes":[2.9417717E3,4.4434082E2,1.8756069E3,5.4470215E1,1.3328738E2,3.2827666E3,2.0486276E2,3.3649414E1,5.514322E1,1.18334564E2,1.2749096E1,7.945532E2,4.553086E2,2.5986453E2,1.0946826E2,3.8164062E0,4.8536987E1,2.9678068E1,2.2285645E1,3.4349792E1,2.1668098E1,1.3176178E1,1.3437252E1,1.5648291E2,1.6033023E2,1.9017358E2,7.433357E2,1.13607025E2,8.622695E1,2.568988E1,1.5566631E1,3.59375E0,0E0,5.4329502E1,3.1094055E1,3.747684E1,1.9561083E1,3.8118222E0,7.456665E0,4.522943E1,4.1814453E1,1.4455296E1,3.1316067E1,0E0,0E0,6.33277E0,4.779747E0,2.8560562E0,1.8445148E2,1.2710516E1,4.3341553E1,1.3229317E1,3.63313E1,2.4957474E2,3.0544482E2,0E0,9.34061E1,4.9360245E1,1.0683207E2,2.0509766E1,2.1445824E1,5.8804054E0,0E0,0E0,0E0,0E0,0E0,0E0,0E0,0E0,0E0,0E0,0E0,0E0,0E0,0E0,0E0,0E0,0E0,0E0,0E0,0E0,0E0,0E0,0E0,0E0,0E0,0E0,0E0,0E0,0E0,0E0,0E0,0E0,0E0,0E0,0E0,0E0,0E0,0E0,0E0,0E0,0E0,0E0,0E0,0E0,0E0,0E0,0E0,0E0,0E0,0E0,0E0,0E0,0E0,0E0,0E0],"parents":[2147483647,0,0,1,1,2,2,3,3,4,4,5,5,6,6,7,7,8,8,9,9,10,10,11,11,12,12,13,13,14,14,15,15,16,16,17,17,18,18,19,19,20,20,21,21,22,22,23,23,24,24,25,25,26,26,27,27,28,28,29,29,30,30,31,31,33,33,34,34,35,35,36,36,37,37,38,38,39,39,40,40,41,41,42,42,45,45,46,46,47,47,48,48,49,49,50,50,51,51,52,52,53,53,54,54,56,56,57,57,58,58,59,59,60,60,61,61],"right_children":[2,4,6,8,10,12,14,16,18,20,22,24,26,28,30,32,34,36,38,40,42,44,46,48,50,52,54,56,58,60,62,64,-1,66,68,70,72,74,76,78,80,82,84,-1,-1,86,88,90,92,94,96,98,100,102,104,-1,106,108,110,112,114,116,-1,-1,-1,-1,-1,-1,-1,-1,-1,-1,-1,-1,-1,-1,-1,-1,-1,-1,-1,-1,-1,-1,-1,-1,-1,-1,-1,-1,-1,-1,-1,-1,-1,-1,-1,-1,-1,-1,-1,-1,-1,-1,-1,-1,-1,-1,-1,-1,-1,-1,-1,-1,-1,-1,-1],"split_conditions":[9.909091E0,3.0381E4,3.9E1,1.078E5,2.093056E6,1.0859E4,2.470128E6,7.714286E0,4.7085E4,7.4761906E0,7.250336E6,5.650522E0,1.4708E4,7.83483E5,1.5690239E2,6.47E2,9.464E3,2.68E2,7.001181E1,6.555895E0,4.791455E0,2.955739E6,1.10519E5,7E0,8.9E1,3.4328E4,1.7525E4,2.3E1,1.2310857E1,3.1145403E1,2.8059E4,2.1545E4,3.5091467E-2,5.45E2,5.7E1,1.862E4,7.051187E2,4.428E3,6.287E3,2.52317E5,6.0252E4,1.235E3,1.10519E5,-9.40892E-2,1.9033182E-1,8.0975E4,5.7533236E0,4.76E2,6.6E1,8.277994E2,1.6237833E1,4.1E1,2.5E1,1.03E3,5.3481417E0,2.2304212E-1,1.8884615E1,1.914E4,5.448371E0,5.9617248E0,2.8059E4,1.253355E6,-8.999121E-2,1.5960234E-1,1.7842421E-1,1.499581E-1,-4.5925885E-2,1.598645E-1,-3.8071822E-2,1.6960742E-1,-5.204853E-2,2.625813E-2,-1.3683514E-1,-3.99036E-2,9.28037E-2,1.24689065E-1,1.7184252E-1,6.541709E-2,1.5345834E-1,1.16677895E-1,-5.782902E-2,1.7700736E-1,-8.932449E-2,-9.2381544E-2,2.0031665E-2,-5.9022587E-2,1.2378235E-1,-1.2473749E-1,-6.359679E-2,7.9532795E-2,1.8793258E-1,-1.191188E-1,-5.0390285E-2,-1.1674509E-1,1.1512698E-1,2.3910025E-2,1.7355023E-1,-1.4781024E-1,-1.7288165E-2,1.744548E-1,-1.19925976E-1,-8.9440994E-2,1.057924E-1,7.063815E-2,1.4173734E-1,-2.514798E-2,-7.333098E-2,-9.824613E-2,1.8898085E-1,5.3794872E-2,-2.6991291E-2,-1.1666498E-1,-1.1868086E-2,-1.2797302E-1,-4.612613E-2,4.5618084E-3,1.8085583E-1],"split_indices":[7,3,4,0,9,9,9,7,9,7,0,5,3,3,7,6,0,4,2,5,5,0,3,6,6,0,9,6,7,7,6,0,0,3,4,3,2,3,6,9,3,6,3,0,0,6,7,0,6,2,7,6,4,6,5,0,7,6,5,5,6,3,0,0,0,0,0,0,0,0,0,0,0,0,0,0,0,0,0,0,0,0,0,0,0,0,0,0,0,0,0,0,0,0,0,0,0,0,0,0,0,0,0,0,0,0,0,0,0,0,0,0,0,0,0,0,0],"split_type":[0,0,0,0,0,0,0,0,0,0,0,0,0,0,0,0,0,0,0,0,0,0,0,0,0,0,0,0,0,0,0,0,0,0,0,0,0,0,0,0,0,0,0,0,0,0,0,0,0,0,0,0,0,0,0,0,0,0,0,0,0,0,0,0,0,0,0,0,0,0,0,0,0,0,0,0,0,0,0,0,0,0,0,0,0,0,0,0,0,0,0,0,0,0,0,0,0,0,0,0,0,0,0,0,0,0,0,0,0,0,0,0,0,0,0,0,0],"sum_hessian":[1.1449387E4,2.7429785E3,8.706408E3,2.2332102E3,5.0976837E2,5.7492354E3,2.9571733E3,1.9821708E3,2.5103935E2,4.40134E2,6.963438E1,1.8680055E3,3.8812297E3,2.3334363E3,6.2373706E2,1.5541835E3,4.2798737E2,6.3076694E1,1.8796266E2,3.2476016E2,1.1537384E2,4.8610864E0,6.4773285E1,1.643403E3,2.2460254E2,1.0749352E3,2.8062947E3,1.6302842E3,7.031521E2,6.03158E2,2.057905E1,1.5516941E3,2.4894016E0,5.4935555E1,3.7305182E2,3.3481453E1,2.9595242E1,9.2301855E0,1.7873247E2,2.7137854E2,5.338161E1,1.0378829E1,1.0499501E2,2.0174294E0,2.843657E0,6.1019278E0,5.867136E1,2.497621E1,1.6184268E3,2.7483368E1,1.9711917E2,3.0984913E1,1.0439502E3,3.6345435E2,2.4428403E3,1.4358463E1,1.6159257E3,4.9219822E1,6.5393225E2,4.244731E2,1.7868492E2,1.8403316E1,2.175733E0,2.1879166E2,1.3329023E3,2.768694E1,2.7248615E1,3.6529407E2,7.7577558E0,2.283303E1,1.064842E1,1.8763468E1,1.0831773E1,7.2989225E0,1.931263E0,7.472507E1,1.040074E2,8.896155E1,1.8241699E2,2.8684834E1,2.469678E1,8.447814E0,1.9310155E0,3.812178E1,6.687323E1,2.389291E0,3.7126365E0,2.854601E1,3.0125349E1,5.206436E0,1.9769773E1,6.623424E2,9.5608435E2,2.5680073E1,1.8032953E0,2.2139185E1,1.7498E2,1.3253107E1,1.7731806E1,1.0403916E3,3.5586412E0,2.7889597E2,8.455838E1,1.1151945E3,1.3276458E3,7.667662E2,8.491595E2,6.292494E0,4.2927326E1,3.3993573E2,3.1399655E2,4.0464514E2,1.9827953E1,4.179318E1,1.3689174E2,2.1846504E0,1.6218666E1],"tree_param":{"num_deleted":"0","num_feature":"10","num_nodes":"117","size_leaf_vector":"1"}},{"base_weights":[4.8931944E-1,1.252679E0,2.0480335E-1,1.4626851E0,4.5642927E-1,5.211706E-1,-3.5752326E-1,1.5521939E0,1.1817636E0,1.1406376E0,1.6915087E-1,-3.8493845E-1,1.1060858E0,-2.3298925E-1,-8.618577E-1,1.6131203E0,1.1265101E0,3.3568797E-1,1.4444977E0,1.4875103E0,5.1868725E-1,-3.9695287E-1,5.4213667E-1,-6.157723E-1,1.1946155E0,1.4741704E0,8.7479806E-1,-3.8071057E-1,2.748863E-1,1.234939E0,-9.389696E-1,1.4056534E0,1.6306964E0,3.4717336E-1,1.3341014E0,1.5837548E0,-2.3536856E-1,1.5939611E0,5.2688897E-1,-4.0690383E-1,1.549679E0,-8.7357163E-1,1.1606963E0,1.5869117E0,-5.1482874E-1,8.8153607E-1,-8.1654173E-1,-1.0744135E0,-3.4793365E-1,-7.5622404E-1,1.4689653E0,-3.8572946E-1,1.5442655E0,-7.513979E-2,1.096563E0,-7.47901E-2,-5.9645754E-1,1.5780373E-1,1.4613456E0,1.4972103E0,-8.4790416E-2,-1.0920311E0,-5.998349E-1,1.5980528E-1,-5.257082E-2,1.6334288E-1,5.9638556E-2,1.2145785E-1,-3.5354085E-2,-4.7419514E-3,1.4071342E-1,2.9562737E-3,1.6564605E-1,-6.2604755E-2,6.194803E-2,1.7014825E-1,1.2511146E-1,9.4406165E-2,-4.3178014E-2,-1.0935819E-1,7.096048E-2,1.6288994E-1,3.6435843E-2,-3.8520798E-2,-1.5694895E-1,1.515398E-1,-5.9271276E-2,-4.2075843E-2,1.9717884E-1,2.6138274E-2,-6.8410754E-2,-1.2602511E-1,1.0243913E-1,-1.20725535E-1,-4.2850595E-2,1.7457746E-1,-1.1219894E-1,4.040644E-2,-5.9074074E-2,-1.11872986E-1,1.6619785E-2,-1.0052196E-1,1.5157863E-1,1.15980886E-1,-8.185501E-2,1.5879864E-1,7.26891E-2,-1.0188748E-1,1.0821896E-1,-1.0069334E-2,1.2413656E-1,4.6886913E-2,-1.6996725E-2,-8.556417E-2,-3.809641E-2,6.28269E-2,-2.5255188E-2,-9.4577834E-2,1.7616935E-1,-1.2519431E-2,1.6723342E-1,-1.1408029E-1,-2.5620004E-3,-3.901204E-2,-1.0765555E-1],"categories":[],"categories_nodes":[],"categories_segments":[],"categories_sizes":[],"default_left":[0,0,0,0,0,0,0,0,0,0,0,0,0,0,0,0,0,0,0,0,0,0,0,0,0,0,0,0,0,0,0,0,0,0,0,0,0,0,0,0,0,0,0,0,0,0,0,0,0,0,0,0,0,0,0,0,0,0,0,0,0,0,0,0,0,0,0,0,0,0,0,0,0,0,0,0,0,0,0,0,0,0,0,0,0,0,0,0,0,0,0,0,0,0,0,0,0,0,0,0,0,0,0,0,0,0,0,0,0,0,0,0,0,0,0,0,0,0,0,0,0,0,0,0,0],"id":5,"left_children":[1,3,5,7,9,11,13,15,17,19,21,23,25,27,29,31,33,35,37,39,41,43,45,47,49,51,53,55,57,59,61,63,65,67,69,71,73,75,77,79,81,83,85,87,89,91,93,95,97,99,101,103,105,107,109,111,113,115,117,119,-1,121,123,-1,-1,-1,-1,-1,-1,-1,-1,-1,-1,-1,-1,-1,-1,-1,-1,-1,-1,-1,-1,-1,-1,-1,-1,-1,-1,-1,-1,-1,-1,-1,-1,-1,-1,-1,-1,-1,-1,-1,-1,-1,-1,-1,-1,-1,-1,-1,-1,-1,-1,-1,-1,-1,-1,-1,-1,-1,-1,-1,-1,-1,-1],"loss_changes":[2.4454556E3,5.105664E2,1.4597808E3,5.898584E1,1.2550896E2,2.7834058E3,1.8536575E2,4.567383E1,1.3036865E2,3.9989243E1,9.556527E1,7.5207367E2,2.7039722E2,1.7797502E2,9.5701324E1,3.5405273E0,3.71651E1,1.0071266E2,6.0722046E1,1.4852325E1,6.285125E1,4.2894554E1,1.2644528E2,2.205639E2,1.4191565E2,1.6095166E2,4.1346436E2,1.21203766E2,7.4058716E1,1.2835537E1,2.8649658E1,4.995468E1,3.1760254E0,3.0985916E1,1.8562042E1,4.9596252E0,3.29369E1,1.2082031E1,2.6149632E1,4.324926E0,1.0404877E1,7.009672E0,3.0612732E1,8.816748E0,2.259468E1,6.818437E1,7.8232803E0,9.086328E1,2.0783347E2,1.1252768E1,2.8281982E1,3.136779E1,4.121216E1,4.077695E2,2.7594226E2,3.9451572E1,5.9836E1,9.4346794E1,3.6306023E1,5.654972E0,0E0,2.0138763E1,1.7353512E1,0E0,0E0,0E0,0E0,0E0,0E0,0E0,0E0,0E0,0E0,0E0,0E0,0E0,0E0,0E0,0E0,0E0,0E0,0E0,0E0,0E0,0E0,0E0,0E0,0E0,0E0,0E0,0E0,0E0,0E0,0E0,0E0,0E0,0E0,0E0,0E0,0E0,0E0,0E0,0E0,0E0,0E0,0E0,0E0,0E0,0E0,0E0,0E0,0E0,0E0,0E0,0E0,0E0,0E0,0E0,0E0,0E0,0E0,0E0,0E0,0E0,0E0],"parents":[2147483647,0,0,1,1,2,2,3,3,4,4,5,5,6,6,7,7,8,8,9,9,10,10,11,11,12,12,13,13,14,14,15,15,16,16,17,17,18,18,19,19,20,20,21,21,22,22,23,23,24,24,25,25,26,26,27,27,28,28,29,29,30,30,31,31,32,32,33,33,34,34,35,35,36,36,37,37,38,38,39,39,40,40,41,41,42,42,43,43,44,44,45,45,46,46,47,47,48,48,49,49,50,50,51,51,52,52,53,53,54,54,55,55,56,56,57,57,58,58,59,59,61,61,62,62],"right_children":[2,4,6,8,10,12,14,16,18,20,22,24,26,28,30,32,34,36,38,40,42,44,46,48,50,52,54,56,58,60,62,64,66,68,70,72,74,76,78,80,82,84,86,88,90,92,94,96,98,100,102,104,106,108,110,112,114,116,118,120,-1,122,124,-1,-1,-1,-1,-1,-1,-1,-1,-1,-1,-1,-1,-1,-1,-1,-1,-1,-1,-1,-1,-1,-1,-1,-1,-1,-1,-1,-1,-1,-1,-1,-1,-1,-1,-1,-1,-1,-1,-1,-1,-1,-1,-1,-1,-1,-1,-1,-1,-1,-1,-1,-1,-1,-1,-1,-1,-1,-1,-1,-1,-1,-1],"split_conditions":[1.1139211E1,3.0381E4,3.1E1,8.015385E0,5.2760296E0,1.4438E4,2.470128E6,1.078E5,3.5324E4,1.311E3,6.65E3,5.650522E0,1.963E4,6.8457414E4,1.342E3,7.016E3,4.7085E4,9E0,1.5E1,3.1625E4,2.99889E5,7E0,2.802688E6,3.5479538E2,8.7E1,4.5196E4,2.2642E4,1.793987E1,5.927439E0,9.811E3,3.1145403E1,3.8E2,6.28E2,2.4E2,7.001181E1,8.428572E0,1E0,1.3977E4,1.4398846E3,5.02581E0,2.68E2,1.96E2,7.261745E0,2.3945332E3,6.728477E0,5.707934E0,5.7533236E0,5E0,1.4171974E1,1.0043E4,1.4536E4,9.245E3,1.8E1,9.47E2,5.02581E0,4.4E1,1.82634E5,5.6632E4,6.155296E6,4.951224E6,-8.4790416E-2,5.9617248E0,3.5119816E7,1.5980528E-1,-5.257082E-2,1.6334288E-1,5.9638556E-2,1.2145785E-1,-3.5354085E-2,-4.7419514E-3,1.4071342E-1,2.9562737E-3,1.6564605E-1,-6.2604755E-2,6.194803E-2,1.7014825E-1,1.2511146E-1,9.4406165E-2,-4.3178014E-2,-1.0935819E-1,7.096048E-2,1.6288994E-1,3.6435843E-2,-3.8520798E-2,-1.5694895E-1,1.515398E-1,-5.9271276E-2,-4.2075843E-2,1.9717884E-1,2.6138274E-2,-6.8410754E-2,-1.2602511E-1,1.0243913E-1,-1.20725535E-1,-4.2850595E-2,1.7457746E-1,-1.1219894E-1,4.040644E-2,-5.9074074E-2,-1.11872986E-1,1.6619785E-2,-1.0052196E-1,1.5157863E-1,1.15980886E-1,-8.185501E-2,1.5879864E-1,7.26891E-2,-1.0188748E-1,1.0821896E-1,-1.0069334E-2,1.2413656E-1,4.6886913E-2,-1.6996725E-2,-8.556417E-2,-3.809641E-2,6.28269E-2,-2.5255188E-2,-9.4577834E-2,1.7616935E-1,-1.2519431E-2,1.6723342E-1,-1.1408029E-1,-2.5620004E-3,-3.901204E-2,-1.0765555E-1],"split_indices":[7,3,4,7,5,9,9,0,0,6,6,5,3,2,4,0,9,6,4,9,9,4,9,2,6,0,9,7,5,6,7,3,6,4,2,7,4,3,2,5,4,4,7,2,7,5,7,6,7,9,0,3,4,6,5,4,9,8,0,0,0,5,0,0,0,0,0,0,0,0,0,0,0,0,0,0,0,0,0,0,0,0,0,0,0,0,0,0,0,0,0,0,0,0,0,0,0,0,0,0,0,0,0,0,0,0,0,0,0,0,0,0,0,0,0,0,0,0,0,0,0,0,0,0,0],"split_type":[0,0,0,0,0,0,0,0,0,0,0,0,0,0,0,0,0,0,0,0,0,0,0,0,0,0,0,0,0,0,0,0,0,0,0,0,0,0,0,0,0,0,0,0,0,0,0,0,0,0,0,0,0,0,0,0,0,0,0,0,0,0,0,0,0,0,0,0,0,0,0,0,0,0,0,0,0,0,0,0,0,0,0,0,0,0,0,0,0,0,0,0,0,0,0,0,0,0,0,0,0,0,0,0,0,0,0,0,0,0,0,0,0,0,0,0,0,0,0,0,0,0,0,0,0],"sum_hessian":[1.1259804E4,3.0563047E3,8.203499E3,2.41779E3,6.385147E2,5.2499365E3,2.9535623E3,1.8301362E3,5.8765375E2,1.8793683E2,4.5057788E2,2.0596362E3,3.1903003E3,2.3698447E3,5.837177E2,1.5985522E3,2.3158406E2,1.397851E2,4.4786862E2,1.1975541E2,6.818141E1,1.7893416E2,2.7164374E2,1.7975542E3,2.6208197E2,1.2290094E3,1.9612908E3,1.8360571E3,5.337875E2,2.0172771E1,5.63545E2,1.3117317E2,1.467379E3,4.92737E1,1.8231036E2,4.3324436E1,9.6460655E1,3.8450244E2,6.3366184E1,3.628928E0,1.1612649E2,2.1404022E1,4.6777386E1,9.336542E0,1.6959761E2,2.1763055E2,5.4013176E1,6.616122E2,1.135942E3,3.2096268E1,2.2998572E2,4.447253E1,1.1845369E3,3.7133325E2,1.5899575E3,7.598986E2,1.0761586E3,4.8687454E2,4.6912926E1,1.8166428E1,2.006344E0,3.8676596E2,1.7677899E2,1.19446655E2,1.1726516E1,1.462935E3,4.4439344E0,2.169026E1,2.7583439E1,9.171367E0,1.7313899E2,1.9990176E0,4.1325417E1,6.6387985E1,3.0072672E1,2.896891E2,9.481337E1,4.416337E1,1.9202814E1,2.2596972E0,1.3692307E0,1.08500656E2,7.6258287E0,1.3490515E1,7.913508E0,3.9019722E1,7.757662E0,1.4869246E0,7.8496175E0,3.0267017E1,1.393306E2,1.3119015E1,2.0451154E2,2.5861752E1,2.8151423E1,1.0383889E1,6.512283E2,2.77093E2,8.5884906E2,2.2888443E1,9.207827E0,3.8912103E0,2.260945E2,9.362123E0,3.511041E1,1.1234988E3,6.1038113E1,2.046074E2,1.6672585E2,1.7158257E2,1.418375E3,1.12628654E2,6.4726996E2,4.8720444E2,5.8895416E2,2.2657703E2,2.6029752E2,4.9658036E0,4.194712E1,1.7976382E0,1.6368788E1,3.6978433E2,1.6981625E1,1.2403362E2,5.2745373E1],"tree_param":{"num_deleted":"0","num_feature":"10","num_nodes":"125","size_leaf_vector":"1"}},{"base_weights":[4.502415E-1,1.159721E0,1.8753098E-1,1.3595183E0,4.1547626E-1,4.777684E-1,-3.3004412E-1,1.4470912E0,1.0881165E0,1.0397693E0,1.5319403E-1,-3.596474E-1,1.0054307E0,-2.1727054E-1,-8.410444E-1,1.5079339E0,1.031007E0,3.084687E-1,1.3314036E0,1.3548162E0,4.7224578E-1,-3.4065014E-1,5.0776345E-1,-5.751893E-1,1.108476E0,1.3495113E0,7.9155874E-1,-3.985383E-1,1.0465806E-1,1.2214293E0,-9.187776E-1,1.3602943E0,1.5335715E0,6.7755026E-1,1.4754863E0,1.457903E0,-2.1590644E-1,1.411629E0,-2.1543752E-1,-3.8004377E-1,1.4115756E0,-1.0438746E0,9.8444295E-1,1.4332703E0,-4.4266275E-1,8.3989286E-1,-7.351604E-1,-1.0530651E0,-3.2106662E-1,-7.17903E-1,1.3604867E0,8.1494674E-2,1.4371719E0,-6.865928E-2,9.9110425E-1,-1.8522327E-1,-7.371834E-1,-2.0589799E-2,8.275326E-1,1.4429995E0,-7.68448E-2,-1.0065317E0,-2.2860144E-1,1.4100449E-1,-4.4281393E-2,1.536518E-1,5.474026E-2,-1.6033381E-2,9.0642475E-2,1.5090854E-1,-1.3165976E-2,7.798385E-2,1.6551372E-1,-5.8081944E-2,5.5429596E-2,1.5577342E-1,9.901165E-2,-6.5504245E-2,1.262966E-1,-1.0425647E-1,6.631424E-2,-7.087022E-3,1.4626852E-1,-1.3181104E-1,-3.1839155E-2,1.360734E-1,-5.4226547E-2,-3.9554186E-2,1.7827392E-1,-2.4676155E-2,-1.12735964E-1,-1.3393748E-1,9.56565E-2,2.3936318E-2,-9.452999E-2,-1.1367454E-1,1.2831691E-1,1.3963667E-2,-7.923235E-2,-1.0509676E-1,2.502369E-2,-1.2568642E-1,1.3997622E-1,1.1420679E-1,-9.418264E-2,1.4811715E-1,6.5490134E-2,-8.748721E-2,1.06036924E-1,-9.08588E-3,1.12227835E-1,2.0659433E-1,-2.1579385E-2,-9.8499E-2,-5.3707916E-2,5.440078E-2,-3.0487556E-2,9.6427254E-2,-1.0536849E-1,6.507044E-3,1.558328E-1,4.6424564E-2,-1.0340097E-1,1.0055322E-2,-9.3028165E-2],"categories":[],"categories_nodes":[],"categories_segments":[],"categories_sizes":[],"default_left":[0,0,0,0,0,0,0,0,0,0,0,0,0,0,0,0,0,0,0,0,0,0,0,0,0,0,0,0,0,0,0,0,0,0,0,0,0,0,0,0,0,0,0,0,0,0,0,0,0,0,0,0,0,0,0,0,0,0,0,0,0,0,0,0,0,0,0,0,0,0,0,0,0,0,0,0,0,0,0,0,0,0,0,0,0,0,0,0,0,0,0,0,0,0,0,0,0,0,0,0,0,0,0,0,0,0,0,0,0,0,0,0,0,0,0,0,0,0,0,0,0,0,0,0,0],"id":6,"left_children":[1,3,5,7,9,11,13,15,17,19,21,23,25,27,29,31,33,35,37,39,41,43,45,47,49,51,53,55,57,59,61,63,65,67,69,71,73,75,77,79,81,83,85,87,89,91,93,95,97,99,101,103,105,107,109,111,113,115,117,119,-1,121,123,-1,-1,-1,-1,-1,-1,-1,-1,-1,-1,-1,-1,-1,-1,-1,-1,-1,-1,-1,-1,-1,-1,-1,-1,-1,-1,-1,-1,-1,-1,-1,-1,-1,-1,-1,-1,-1,-1,-1,-1,-1,-1,-1,-1,-1,-1,-1,-1,-1,-1,-1,-1,-1,-1,-1,-1,-1,-1,-1,-1,-1,-1],"loss_changes":[2.0535386E3,4.4216113E2,1.2082815E3,5.4202637E1,1.0325404E2,2.2774458E3,1.6636737E2,4.3285645E1,1.0894568E2,3.273584E1,7.825068E1,6.312105E2,2.3158838E2,1.3828299E2,8.4836945E1,3.7548828E0,3.4996536E1,8.3745636E1,5.4796448E1,1.2303482E1,5.3964584E1,3.446508E1,1.0792775E2,2.1075336E2,1.18549835E2,1.344314E2,3.3515198E2,1.0936128E2,7.735216E1,9.659851E0,3.0281097E1,2.1899506E1,2.9562988E0,2.4975567E1,5.6333313E0,4.526001E0,2.7282831E1,2.4175415E1,1.5462645E1,3.8523803E0,8.887024E0,3.1017303E0,3.0306435E1,7.353304E0,2.3536621E1,5.3557312E1,1.15608635E1,1.1934656E2,2.4679773E2,1.0461563E1,2.4869965E1,8.717366E1,3.799756E1,3.363519E2,2.2499756E2,6.453888E1,2.8502686E1,1.1717607E2,3.3470406E1,2.727085E0,0E0,1.8530853E1,1.3517338E1,0E0,0E0,0E0,0E0,0E0,0E0,0E0,0E0,0E0,0E0,0E0,0E0,0E0,0E0,0E0,0E0,0E0,0E0,0E0,0E0,0E0,0E0,0E0,0E0,0E0,0E0,0E0,0E0,0E0,0E0,0E0,0E0,0E0,0E0,0E0,0E0,0E0,0E0,0E0,0E0,0E0,0E0,0E0,0E0,0E0,0E0,0E0,0E0,0E0,0E0,0E0,0E0,0E0,0E0,0E0,0E0,0E0,0E0,0E0,0E0,0E0,0E0],"parents":[2147483647,0,0,1,1,2,2,3,3,4,4,5,5,6,6,7,7,8,8,9,9,10,10,11,11,12,12,13,13,14,14,15,15,16,16,17,17,18,18,19,19,20,20,21,21,22,22,23,23,24,24,25,25,26,26,27,27,28,28,29,29,30,30,31,31,32,32,33,33,34,34,35,35,36,36,37,37,38,38,39,39,40,40,41,41,42,42,43,43,44,44,45,45,46,46,47,47,48,48,49,49,50,50,51,51,52,52,53,53,54,54,55,55,56,56,57,57,58,58,59,59,61,61,62,62],"right_children":[2,4,6,8,10,12,14,16,18,20,22,24,26,28,30,32,34,36,38,40,42,44,46,48,50,52,54,56,58,60,62,64,66,68,70,72,74,76,78,80,82,84,86,88,90,92,94,96,98,100,102,104,106,108,110,112,114,116,118,120,-1,122,124,-1,-1,-1,-1,-1,-1,-1,-1,-1,-1,-1,-1,-1,-1,-1,-1,-1,-1,-1,-1,-1,-1,-1,-1,-1,-1,-1,-1,-1,-1,-1,-1,-1,-1,-1,-1,-1,-1,-1,-1,-1,-1,-1,-1,-1,-1,-1,-1,-1,-1,-1,-1,-1,-1,-1,-1,-1,-1,-1,-1,-1,-1],"split_conditions":[1.1139211E1,3.0381E4,3.1E1,8.015385E0,5.2760296E0,1.4438E4,2.639346E6,1.078E5,3.5324E4,1.311E3,8.803E3,5.650522E0,1.963E4,2.308E4,1.342E3,2.1545E4,6.287E3,9E0,3.7E1,3.1625E4,2.34692E5,7E0,1.6251288E7,6.6E1,8.7E1,4.9936E4,2.2642E4,2.2379667E1,5.779966E0,9.811E3,4.4955574E1,2.6557443E2,6.28E2,5.612512E0,4.285802E6,7.6E2,1E0,1.4708E4,6.0551457E0,5.02581E0,2.3951328E0,8.826087E0,7.261745E0,2.3945332E3,2.94713E5,5.6774116E0,1.49276E5,3.8599632E1,1.7125E1,1.8686893E1,4.269E3,1.0659E4,1.8E1,1.007E3,5.02581E0,2.2E1,1.46E2,5.3481417E0,6.111678E0,4.951224E6,-7.68448E-2,5.0172195E0,5.505443E0,1.4100449E-1,-4.4281393E-2,1.536518E-1,5.474026E-2,-1.6033381E-2,9.0642475E-2,1.5090854E-1,-1.3165976E-2,7.798385E-2,1.6551372E-1,-5.8081944E-2,5.5429596E-2,1.5577342E-1,9.901165E-2,-6.5504245E-2,1.262966E-1,-1.0425647E-1,6.631424E-2,-7.087022E-3,1.4626852E-1,-1.3181104E-1,-3.1839155E-2,1.360734E-1,-5.4226547E-2,-3.9554186E-2,1.7827392E-1,-2.4676155E-2,-1.12735964E-1,-1.3393748E-1,9.56565E-2,2.3936318E-2,-9.452999E-2,-1.1367454E-1,1.2831691E-1,1.3963667E-2,-7.923235E-2,-1.0509676E-1,2.502369E-2,-1.2568642E-1,1.3997622E-1,1.1420679E-1,-9.418264E-2,1.4811715E-1,6.5490134E-2,-8.748721E-2,1.06036924E-1,-9.08588E-3,1.12227835E-1,2.0659433E-1,-2.1579385E-2,-9.8499E-2,-5.3707916E-2,5.440078E-2,-3.0487556E-2,9.6427254E-2,-1.0536849E-1,6.507044E-3,1.558328E-1,4.6424564E-2,-1.0340097E-1,1.0055322E-2,-9.3028165E-2],"split_indices":[7,3,4,7,5,9,9,0,0,6,6,5,3,8,4,0,6,6,4,9,9,4,0,6,6,0,9,7,5,6,7,2,6,7,0,0,4,3,5,5,5,7,7,2,3,5,3,7,7,7,3,3,4,6,5,6,4,5,5,0,0,5,5,0,0,0,0,0,0,0,0,0,0,0,0,0,0,0,0,0,0,0,0,0,0,0,0,0,0,0,0,0,0,0,0,0,0,0,0,0,0,0,0,0,0,0,0,0,0,0,0,0,0,0,0,0,0,0,0,0,0,0,0,0,0],"split_type":[0,0,0,0,0,0,0,0,0,0,0,0,0,0,0,0,0,0,0,0,0,0,0,0,0,0,0,0,0,0,0,0,0,0,0,0,0,0,0,0,0,0,0,0,0,0,0,0,0,0,0,0,0,0,0,0,0,0,0,0,0,0,0,0,0,0,0,0,0,0,0,0,0,0,0,0,0,0,0,0,0,0,0,0,0,0,0,0,0,0,0,0,0,0,0,0,0,0,0,0,0,0,0,0,0,0,0,0,0,0,0,0,0,0,0,0,0,0,0,0,0,0,0,0,0],"sum_hessian":[1.101773E4,2.9763486E3,8.0413813E3,2.345782E3,6.3056665E2,5.1522583E3,2.8891233E3,1.770246E3,5.7553595E2,1.8566832E2,4.4489832E2,1.9916958E3,3.1605625E3,2.3679592E3,5.21164E2,1.5421227E3,2.2812332E2,1.3742052E2,4.3811542E2,1.1849915E2,6.7169174E1,1.8594853E2,2.589498E2,1.7372504E3,2.5444543E2,1.2094575E3,1.951105E3,1.5147908E3,8.531685E2,1.8394499E1,5.027695E2,2.3616696E2,1.3059557E3,1.2847911E2,9.96442E1,4.2493713E1,9.492681E1,4.165965E2,2.1518919E1,3.573667E0,1.1492548E2,1.6699644E1,5.046953E1,9.402165E0,1.7654636E2,2.0460127E2,5.4348515E1,6.020174E2,1.1352329E3,3.0628078E1,2.2381735E2,7.8330574E1,1.131127E3,3.6750192E2,1.583603E3,9.303214E2,5.8446936E2,7.2800354E2,1.25165E2,1.6798805E1,1.5956936E0,4.456481E2,5.7121407E1,2.3003787E2,6.129093E0,1.301509E3,4.446693E0,2.762962E1,1.00849495E2,9.766346E1,1.9807484E0,1.069153E1,3.1802183E1,6.4576904E1,3.0349903E1,3.073625E2,1.0923401E2,1.7016092E1,4.502828E0,2.1859682E0,1.3876989E0,3.817298E0,1.11108185E2,1.1525922E1,5.1737227E0,4.0577114E1,9.892412E0,1.4872692E0,7.914896E0,1.3832895E2,3.821742E1,9.864614E0,1.9473666E2,9.615852E0,4.4732662E1,5.8169543E2,2.0321997E1,5.744E2,5.608329E2,2.2724667E1,7.903411E0,2.8505757E0,2.2096678E2,3.8408176E1,3.9922398E1,1.0700477E3,6.1079163E1,2.1453362E2,1.529683E2,1.71265E2,1.412338E3,1.1572369E1,9.187491E2,2.5935947E2,3.2510992E2,2.434979E2,4.845056E2,1.1713802E2,8.02698E0,1.4182274E0,1.5380577E1,7.881657E0,4.3776645E2,3.9465183E1,1.7656223E1],"tree_param":{"num_deleted":"0","num_feature":"10","num_nodes":"125","size_leaf_vector":"1"}},{"base_weights":[4.1590238E-1,1.1423666E0,1.9196005E-1,1.3596033E0,5.891478E-1,4.7756925E-1,-2.6945385E-1,1.4285178E0,1.1148908E0,7.0311975E-1,-5.919202E-1,-4.3318796E-1,9.2430645E-1,-1.6354942E-1,-7.8931874E-1,1.2614698E0,1.4553086E0,-2.8946418E-1,1.172765E0,8.8395685E-1,-5.948468E-2,6.5430766E-1,-7.0453984E-1,-6.344953E-1,1.0097563E0,1.3315262E0,7.507999E-1,-8.7876517E-1,-7.4347384E-2,-8.6002433E-1,1.0871247E0,1.299087E0,-4.022616E-1,1.4583508E0,5.0568724E-1,1.4005701E-1,-1.2719679E0,1.2162421E0,-3.0988285E-1,4.7241464E-1,1.0404264E0,1.1360992E0,-2.1103121E-1,-8.637188E-2,1.5787095E-1,4.1834977E-1,-8.452377E-1,-1.4900997E-1,-8.2284963E-1,-4.5892912E-1,1.3453339E0,-6.169161E-1,1.3896072E0,-1.3935018E-1,9.8019624E-1,1.8750446E-1,-9.700996E-1,-2.0913959E-1,2.5221297E-1,-1.083392E0,-6.264298E-1,1.3370708E0,-8.195034E-2,1.5225168E-1,1.1083462E-1,-1.5459375E-1,1.063804E-1,1.4595558E-1,2.707513E-2,-2.376249E-2,1.1957387E-1,-1.4766221E-1,-5.6179155E-2,1.3205765E-1,8.635735E-2,-1.4316702E-1,9.804663E-2,1.645488E-1,1.9679507E-2,1.1638981E-1,4.1148454E-2,-9.3137E-3,1.5240201E-1,-7.8086846E-2,1.13047175E-2,-6.325063E-2,1.08091235E-1,-1.1694234E-1,-5.410881E-2,-7.952478E-2,2.7707933E-2,-8.552761E-2,1.1117556E-1,-1.012164E-1,7.172265E-2,-1.14333E-1,1.4338495E-1,-1.3258743E-1,-7.876704E-3,1.4289688E-1,7.573303E-2,2.4932442E-2,-1.1443257E-1,1.18266635E-1,3.8486637E-2,-1.0722955E-1,6.1266135E-2,6.3557974E-3,-4.8403468E-2,7.4388504E-2,4.3980097E-3,-1.1181015E-1,1.2648278E-1,-3.3205327E-2,-8.871748E-2,9.270051E-4,1.5137273E-1],"categories":[],"categories_nodes":[],"categories_segments":[],"categories_sizes":[],"default_left":[0,0,0,0,0,0,0,0,0,0,0,0,0,0,0,0,0,0,0,0,0,0,0,0,0,0,0,0,0,0,0,0,0,0,0,0,0,0,0,0,0,0,0,0,0,0,0,0,0,0,0,0,0,0,0,0,0,0,0,0,0,0,0,0,0,0,0,0,0,0,0,0,0,0,0,0,0,0,0,0,0,0,0,0,0,0,0,0,0,0,0,0,0,0,0,0,0,0,0,0,0,0,0,0,0,0,0,0,0,0,0,0,0,0,0,0,0],"id":7,"left_children":[1,3,5,7,9,11,13,15,17,19,21,23,25,27,29,31,33,35,37,39,41,43,45,47,49,51,53,55,57,59,61,63,65,67,69,-1,71,73,75,77,79,81,83,-1,-1,85,87,89,91,93,95,97,99,101,103,-1,105,107,109,111,113,115,-1,-1,-1,-1,-1,-1,-1,-1,-1,-1,-1,-1,-1,-1,-1,-1,-1,-1,-1,-1,-1,-1,-1,-1,-1,-1,-1,-1,-1,-1,-1,-1,-1,-1,-1,-1,-1,-1,-1,-1,-1,-1,-1,-1,-1,-1,-1,-1,-1,-1,-1,-1,-1,-1,-1],"loss_changes":[1.7480305E3,3.0348047E2,1.0827693E3,2.9053467E1,9.674931E1,2.0651326E3,1.7283368E2,4.4941406E0,3.316391E1,9.012366E1,9.3767185E0,4.8593954E2,2.3957983E2,1.6652351E2,7.144052E1,1.3226654E1,2.7653809E0,2.9655312E1,2.5392822E1,3.3508514E1,2.3092346E1,9.479168E0,9.634102E0,1.3400409E2,1.0161986E2,1.1583887E2,4.8815698E2,7.462326E1,1.0229302E2,2.6071503E1,1.0502266E1,6.7822266E0,1.0450162E1,1.333252E0,3.0551896E0,0E0,7.894707E-1,1.2739807E1,1.8560474E1,4.7294895E1,2.9164185E1,6.982521E0,2.0915936E1,0E0,0E0,5.703486E0,4.5469513E0,1.134517E2,6.7230835E1,2.6012608E1,3.8442627E1,1.1380483E1,2.3479858E1,1.9190941E2,2.2860864E2,0E0,4.6081207E1,1.2331765E2,6.94922E1,2.2663025E1,1.9122864E1,4.168474E0,0E0,0E0,0E0,0E0,0E0,0E0,0E0,0E0,0E0,0E0,0E0,0E0,0E0,0E0,0E0,0E0,0E0,0E0,0E0,0E0,0E0,0E0,0E0,0E0,0E0,0E0,0E0,0E0,0E0,0E0,0E0,0E0,0E0,0E0,0E0,0E0,0E0,0E0,0E0,0E0,0E0,0E0,0E0,0E0,0E0,0E0,0E0,0E0,0E0,0E0,0E0,0E0,0E0,0E0,0E0],"parents":[2147483647,0,0,1,1,2,2,3,3,4,4,5,5,6,6,7,7,8,8,9,9,10,10,11,11,12,12,13,13,14,14,15,15,16,16,17,17,18,18,19,19,20,20,21,21,22,22,23,23,24,24,25,25,26,26,27,27,28,28,29,29,30,30,31,31,32,32,33,33,34,34,36,36,37,37,38,38,39,39,40,40,41,41,42,42,45,45,46,46,47,47,48,48,49,49,50,50,51,51,52,52,53,53,54,54,56,56,57,57,58,58,59,59,60,60,61,61],"right_children":[2,4,6,8,10,12,14,16,18,20,22,24,26,28,30,32,34,36,38,40,42,44,46,48,50,52,54,56,58,60,62,64,66,68,70,-1,72,74,76,78,80,82,84,-1,-1,86,88,90,92,94,96,98,100,102,104,-1,106,108,110,112,114,116,-1,-1,-1,-1,-1,-1,-1,-1,-1,-1,-1,-1,-1,-1,-1,-1,-1,-1,-1,-1,-1,-1,-1,-1,-1,-1,-1,-1,-1,-1,-1,-1,-1,-1,-1,-1,-1,-1,-1,-1,-1,-1,-1,-1,-1,-1,-1,-1,-1,-1,-1,-1,-1,-1,-1],"split_conditions":[9.909091E0,1.15876E5,2.4E1,7.714286E0,2.093056E6,1.0859E4,2.470128E6,2.1545E4,1.016E3,7.4761906E0,7.250336E6,5.650522E0,1.4708E4,5.1087966E0,1.5690239E2,2.6557443E2,6.47E2,1.7736233E1,5.4E1,1.38802E5,2.2E1,2.955739E6,1.10519E5,1.4122982E1,1.6916666E1,3.4328E4,6.16E2,1.8E1,7.83483E5,4.7659E4,2.8059E4,6.3540893E0,6.214E3,2.87E2,6.0551457E0,1.4005701E-1,1.2E1,1.3337E4,6.0551457E0,3.6E1,1.3939E4,1.93E2,1.25E3,-8.637188E-2,1.5787095E-1,8.0975E4,5.7533236E0,6.4E1,5.7625E1,8.775E3,1.6056E4,4.1E1,4.4955574E1,2.3552E4,2.163223E1,1.8750446E-1,7.280402E1,1.793987E1,5.3481417E0,5.991588E0,5.5090322E0,1.253355E6,-8.195034E-2,1.5225168E-1,1.1083462E-1,-1.5459375E-1,1.063804E-1,1.4595558E-1,2.707513E-2,-2.376249E-2,1.1957387E-1,-1.4766221E-1,-5.6179155E-2,1.3205765E-1,8.635735E-2,-1.4316702E-1,9.804663E-2,1.645488E-1,1.9679507E-2,1.1638981E-1,4.1148454E-2,-9.3137E-3,1.5240201E-1,-7.8086846E-2,1.13047175E-2,-6.325063E-2,1.08091235E-1,-1.1694234E-1,-5.410881E-2,-7.952478E-2,2.7707933E-2,-8.552761E-2,1.1117556E-1,-1.012164E-1,7.172265E-2,-1.14333E-1,1.4338495E-1,-1.3258743E-1,-7.876704E-3,1.4289688E-1,7.573303E-2,2.4932442E-2,-1.1443257E-1,1.18266635E-1,3.8486637E-2,-1.0722955E-1,6.1266135E-2,6.3557974E-3,-4.8403468E-2,7.4388504E-2,4.3980097E-3,-1.1181015E-1,1.2648278E-1,-3.3205327E-2,-8.871748E-2,9.270051E-4,1.5137273E-1],"split_indices":[7,0,4,7,9,9,9,0,0,7,0,5,3,5,7,2,6,2,4,9,4,0,3,7,7,0,8,6,3,6,6,2,9,4,5,0,6,3,5,4,4,6,6,0,0,6,7,6,7,9,0,6,7,3,7,0,7,7,5,5,5,3,0,0,0,0,0,0,0,0,0,0,0,0,0,0,0,0,0,0,0,0,0,0,0,0,0,0,0,0,0,0,0,0,0,0,0,0,0,0,0,0,0,0,0,0,0,0,0,0,0,0,0,0,0,0,0],"split_type":[0,0,0,0,0,0,0,0,0,0,0,0,0,0,0,0,0,0,0,0,0,0,0,0,0,0,0,0,0,0,0,0,0,0,0,0,0,0,0,0,0,0,0,0,0,0,0,0,0,0,0,0,0,0,0,0,0,0,0,0,0,0,0,0,0,0,0,0,0,0,0,0,0,0,0,0,0,0,0,0,0,0,0,0,0,0,0,0,0,0,0,0,0,0,0,0,0,0,0,0,0,0,0,0,0,0,0,0,0,0,0,0,0,0,0,0,0],"sum_hessian":[1.0745154E4,2.530892E3,8.214263E3,1.8162385E3,7.1465356E2,5.0736836E3,3.140579E3,1.4133743E3,4.0286423E2,6.521285E2,6.25251E1,1.669706E3,3.4039773E3,2.6101633E3,5.304156E2,2.0199057E2,1.2113837E3,1.5786764E1,3.8707745E2,5.270011E2,1.2512739E2,4.783369E0,5.7741734E1,1.465774E3,2.0393211E2,1.0150297E3,2.3889475E3,2.8845996E2,2.3217034E3,5.1167694E2,1.8738634E1,1.9773885E2,4.251725E0,1.2069812E3,4.4024663E0,5.647249E0,1.0139516E1,3.7622476E2,1.0852712E1,1.4627954E2,3.8072156E2,1.3345456E1,1.1178194E2,1.8352385E0,2.9481306E0,6.209688E0,5.1532043E1,4.1021954E2,1.0555544E3,3.786128E1,1.6607083E2,2.9102642E1,9.8592706E2,4.8957846E2,1.8993691E3,8.633172E0,2.798268E2,1.6436317E3,6.780717E2,2.5970447E2,2.5197247E2,1.6830936E1,1.9076979E0,8.78505E1,1.09888336E2,2.3578722E0,1.8938531E0,1.205529E3,1.452112E0,2.4350796E0,1.9673865E0,7.0334315E0,3.1060843E0,2.882141E2,8.8010635E1,5.746966E0,5.105746E0,2.6884672E1,1.1939487E2,3.1753384E2,6.3187717E1,3.3835704E0,9.961886E0,4.00142E1,7.176774E1,2.4187686E0,3.7909195E0,2.3567312E1,2.7964731E1,1.6265652E2,2.4756302E2,1.0387024E3,1.685205E1,2.584422E1,1.2017059E1,5.2945604E0,1.6077628E2,1.1926668E1,1.7175974E1,9.2696027E2,5.896681E1,3.535823E2,1.3599615E2,1.4166005E3,4.8276862E2,2.631577E2,1.6669092E1,8.254998E2,8.1813196E2,2.009718E2,4.7709988E2,2.5643787E2,3.2665946E0,1.1942135E2,1.3255113E2,2.099907E0,1.47310295E1],"tree_param":{"num_deleted":"0","num_feature":"10","num_nodes":"117","size_leaf_vector":"1"}},{"base_weights":[3.845818E-1,1.0707641E0,1.764304E-1,1.2758397E0,5.1418537E-1,4.1631955E-1,-2.9483593E-1,1.35217E0,1.0128086E0,6.226351E-1,-5.582124E-1,-4.0696013E-1,7.72352E-1,-1.9412383E-1,-7.706086E-1,1.3575269E0,2.4354853E-1,3.2248434E-1,1.1115516E0,8.1236845E-1,-1.148874E-2,6.090204E-1,-6.66624E-1,-5.9557456E-1,9.41844E-1,5.2191424E-1,1.085401E0,-6.4381814E-1,-3.5318457E-2,-9.066358E-1,2.7043733E-1,1.1409507E0,1.3798515E0,1.1295455E0,-1.0913558E-1,1.1538458E0,-5.076631E-1,1.1967536E0,1.5648256E-1,-4.6741655E-1,8.9516884E-1,-1.6754472E-1,1.5926081E0,-8.3260976E-2,1.4607184E-1,3.8143378E-1,-8.0466664E-1,-1.9447453E-1,-8.1027883E-1,-4.223432E-1,1.2710372E0,7.0907336E-1,-2.885661E-1,-4.352713E-1,1.1811324E0,-2.0060991E-1,-8.506867E-1,-7.181207E-1,3.4281276E-2,6.151885E-1,-9.3860894E-1,1.0964E0,-3.6949804E-1,1.3312833E-1,5.5812285E-3,1.3816659E-1,3.045152E-2,1.3985191E-1,2.552155E-2,2.7743656E-2,1.547469E-1,1.1174259E-1,-1.0901004E-1,1.2499584E-1,-2.3005307E-2,1.2011647E-1,-7.640579E-2,2.242121E-2,-1.16230324E-1,1.0006352E-1,1.6870378E-2,9.9685356E-2,-3.037769E-2,1.7159088E-1,4.0239222E-2,-5.9278097E-2,9.859466E-2,-1.14304475E-1,-5.025524E-2,-8.136244E-2,2.0216295E-2,-8.4550224E-2,9.947052E-2,-8.904007E-2,7.226129E-2,-1.104513E-1,1.3547754E-1,8.30664E-2,-2.2375679E-2,1.4305435E-1,-6.066078E-2,-1.0399093E-1,1.2778883E-1,1.2933944E-1,8.145545E-2,-4.1236218E-2,4.2999044E-1,-9.4631985E-2,-5.292949E-2,1.7007427E-1,-8.6424604E-2,4.497645E-2,-1.4013051E-2,-6.023248E-2,1.7444715E-1,1.4751485E-1,-9.5133446E-2,-8.982425E-2,1.330739E-1,1.1154691E-3,-9.80234E-2],"categories":[],"categories_nodes":[],"categories_segments":[],"categories_sizes":[],"default_left":[0,0,0,0,0,0,0,0,0,0,0,0,0,0,0,0,0,0,0,0,0,0,0,0,0,0,0,0,0,0,0,0,0,0,0,0,0,0,0,0,0,0,0,0,0,0,0,0,0,0,0,0,0,0,0,0,0,0,0,0,0,0,0,0,0,0,0,0,0,0,0,0,0,0,0,0,0,0,0,0,0,0,0,0,0,0,0,0,0,0,0,0,0,0,0,0,0,0,0,0,0,0,0,0,0,0,0,0,0,0,0,0,0,0,0,0,0,0,0,0,0],"id":8,"left_children":[1,3,5,7,9,11,13,15,17,19,21,23,25,27,29,31,33,35,37,39,41,43,45,47,49,51,53,55,57,59,61,63,65,67,-1,69,71,73,75,77,79,81,83,-1,-1,85,87,89,91,93,95,97,99,101,103,105,107,109,111,113,115,117,119,-1,-1,-1,-1,-1,-1,-1,-1,-1,-1,-1,-1,-1,-1,-1,-1,-1,-1,-1,-1,-1,-1,-1,-1,-1,-1,-1,-1,-1,-1,-1,-1,-1,-1,-1,-1,-1,-1,-1,-1,-1,-1,-1,-1,-1,-1,-1,-1,-1,-1,-1,-1,-1,-1,-1,-1,-1,-1],"loss_changes":[1.495792E3,2.7756714E2,9.0875665E2,3.4378906E1,7.687193E1,1.5616079E3,1.2978741E2,7.8479004E0,2.7212341E1,7.19606E1,8.1195755E0,4.0983005E2,2.9098706E2,1.598982E2,6.728497E1,5.0507812E0,1.0506158E1,3.649028E1,2.8574219E1,4.9196564E1,3.499019E1,8.218605E0,8.445551E0,1.21439606E2,8.934326E1,3.138894E2,2.4098853E2,5.340738E1,7.8721924E1,2.0961456E1,2.9729408E1,2.7564667E1,1.9936523E0,8.669572E-1,0E0,8.643021E0,2.6514107E1,2.4909943E1,2.9863316E1,1.4019817E1,3.2982635E1,2.0499016E1,1.1283131E0,0E0,0E0,4.839695E0,4.5399094E0,1.21385315E2,5.9292603E1,2.1647411E1,3.323636E1,1.9076984E2,2.1336824E2,1.03424805E2,6.2911133E1,1.802368E2,1.1734985E1,5.5630135E1,1.0903311E2,1.3733746E1,1.4018799E1,1.2633829E1,7.452062E0,0E0,0E0,0E0,0E0,0E0,0E0,0E0,0E0,0E0,0E0,0E0,0E0,0E0,0E0,0E0,0E0,0E0,0E0,0E0,0E0,0E0,0E0,0E0,0E0,0E0,0E0,0E0,0E0,0E0,0E0,0E0,0E0,0E0,0E0,0E0,0E0,0E0,0E0,0E0,0E0,0E0,0E0,0E0,0E0,0E0,0E0,0E0,0E0,0E0,0E0,0E0,0E0,0E0,0E0,0E0,0E0,0E0,0E0],"parents":[2147483647,0,0,1,1,2,2,3,3,4,4,5,5,6,6,7,7,8,8,9,9,10,10,11,11,12,12,13,13,14,14,15,15,16,16,17,17,18,18,19,19,20,20,21,21,22,22,23,23,24,24,25,25,26,26,27,27,28,28,29,29,30,30,31,31,32,32,33,33,35,35,36,36,37,37,38,38,39,39,40,40,41,41,42,42,45,45,46,46,47,47,48,48,49,49,50,50,51,51,52,52,53,53,54,54,55,55,56,56,57,57,58,58,59,59,60,60,61,61,62,62],"right_children":[2,4,6,8,10,12,14,16,18,20,22,24,26,28,30,32,34,36,38,40,42,44,46,48,50,52,54,56,58,60,62,64,66,68,-1,70,72,74,76,78,80,82,84,-1,-1,86,88,90,92,94,96,98,100,102,104,106,108,110,112,114,116,118,120,-1,-1,-1,-1,-1,-1,-1,-1,-1,-1,-1,-1,-1,-1,-1,-1,-1,-1,-1,-1,-1,-1,-1,-1,-1,-1,-1,-1,-1,-1,-1,-1,-1,-1,-1,-1,-1,-1,-1,-1,-1,-1,-1,-1,-1,-1,-1,-1,-1,-1,-1,-1,-1,-1,-1,-1,-1,-1],"split_conditions":[9.909091E0,1.50049E5,3.9E1,7.714286E0,2.093056E6,1.0859E4,2.639346E6,2.68E2,9.464E3,7.093633E0,7.250336E6,5.650522E0,5.4094768E0,1.47112E5,4.8387142E1,1.2472E4,7.252696E1,5.45E2,2.2495E4,4.5733E4,1.5418E4,2.955739E6,1.10519E5,1.4637335E1,1.6916666E1,2.5656717E1,7.2E1,5.3356E4,5.1087966E0,5.0172195E0,3.42719E6,3.8E2,1.007E3,5.9078994E0,-1.0913558E-1,7.6E2,9E0,5.4E1,1E1,1.2987E4,1.3939E4,4.791455E0,6.154E4,-8.3260976E-2,1.4607184E-1,8.0975E4,5.7533236E0,6.6E1,5.7625E1,9.124E3,1.6056E4,2.1E1,7.6E1,1.8185968E1,1.8E1,4.496529E3,5.57638E0,1.8E1,5.353357E0,5.388339E6,3.62E2,5.1955104E0,3.5119816E7,1.3312833E-1,5.5812285E-3,1.3816659E-1,3.045152E-2,1.3985191E-1,2.552155E-2,2.7743656E-2,1.547469E-1,1.1174259E-1,-1.0901004E-1,1.2499584E-1,-2.3005307E-2,1.2011647E-1,-7.640579E-2,2.242121E-2,-1.16230324E-1,1.0006352E-1,1.6870378E-2,9.9685356E-2,-3.037769E-2,1.7159088E-1,4.0239222E-2,-5.9278097E-2,9.859466E-2,-1.14304475E-1,-5.025524E-2,-8.136244E-2,2.0216295E-2,-8.4550224E-2,9.947052E-2,-8.904007E-2,7.226129E-2,-1.104513E-1,1.3547754E-1,8.30664E-2,-2.2375679E-2,1.4305435E-1,-6.066078E-2,-1.0399093E-1,1.2778883E-1,1.2933944E-1,8.145545E-2,-4.1236218E-2,4.2999044E-1,-9.4631985E-2,-5.292949E-2,1.7007427E-1,-8.6424604E-2,4.497645E-2,-1.4013051E-2,-6.023248E-2,1.7444715E-1,1.4751485E-1,-9.5133446E-2,-8.982425E-2,1.330739E-1,1.1154691E-3,-9.80234E-2],"split_indices":[7,0,4,7,9,9,9,4,0,7,0,5,5,9,7,0,2,3,3,9,4,0,3,7,7,7,6,3,5,5,3,3,6,7,0,0,6,4,4,3,4,5,6,0,0,6,7,6,7,9,0,4,6,7,4,2,5,6,5,3,4,5,0,0,0,0,0,0,0,0,0,0,0,0,0,0,0,0,0,0,0,0,0,0,0,0,0,0,0,0,0,0,0,0,0,0,0,0,0,0,0,0,0,0,0,0,0,0,0,0,0,0,0,0,0,0,0,0,0,0,0],"split_type":[0,0,0,0,0,0,0,0,0,0,0,0,0,0,0,0,0,0,0,0,0,0,0,0,0,0,0,0,0,0,0,0,0,0,0,0,0,0,0,0,0,0,0,0,0,0,0,0,0,0,0,0,0,0,0,0,0,0,0,0,0,0,0,0,0,0,0,0,0,0,0,0,0,0,0,0,0,0,0,0,0,0,0,0,0,0,0,0,0,0,0,0,0,0,0,0,0,0,0,0,0,0,0,0,0,0,0,0,0,0,0,0,0,0,0,0,0,0,0,0,0],"sum_hessian":[1.0472873E4,2.436541E3,8.0363325E3,1.7795571E3,6.569838E2,5.3255693E3,2.710763E3,1.376084E3,4.034731E2,5.970269E2,5.995692E1,1.6077375E3,3.7178318E3,2.2383538E3,4.7240927E2,1.3692432E3,6.840752E0,5.102403E1,3.524491E2,4.59316E2,1.3771092E2,4.70305E0,5.5253872E1,1.4109862E3,1.967514E2,2.0669497E3,1.6508822E3,5.8336523E2,1.6549884E3,4.1793E2,5.4479294E1,1.3282086E2,1.2364224E3,4.204198E0,2.6365542E0,2.5298553E1,2.5725477E1,3.2334988E2,2.9099192E1,2.7629034E1,4.3168698E2,1.26317566E2,1.1393364E1,1.7549458E0,2.9481041E0,6.225441E0,4.9028427E1,4.9261426E2,9.1837195E2,3.819348E1,1.5855792E2,1.6792875E3,3.8766214E2,9.7563286E1,1.5533188E3,1.8626631E2,3.9709894E2,1.522301E2,1.5027583E3,8.224563E0,4.097054E2,2.3471457E1,3.1007837E1,1.12807655E2,2.001321E1,1.2340552E3,2.3671808E0,2.7566314E0,1.4475664E0,8.369203E0,1.692935E1,6.5451045E0,1.9180372E1,3.118453E2,1.1504587E1,1.3487714E1,1.5611478E1,1.4186445E1,1.344259E1,3.7663123E2,5.5055763E1,1.2569209E1,1.1374835E2,9.923643E0,1.4697199E0,2.3912237E0,3.8342175E0,2.181331E1,2.7215118E1,1.9194203E2,3.006722E2,9.0131476E2,1.7057152E1,2.7268469E1,1.0925011E1,4.9837904E0,1.5357413E2,1.4857372E3,1.9355028E2,5.9976017E1,3.2768613E2,7.240267E1,2.5160616E1,1.187214E3,3.6610483E2,1.7876373E2,7.502581E0,3.0453674E2,9.256218E1,8.066332E0,1.4416377E2,4.438475E2,1.0589109E3,4.1822195E0,4.042343E0,1.545986E0,4.0815942E2,2.1697671E0,2.1301691E1,1.9706884E1,1.1300954E1],"tree_param":{"num_deleted":"0","num_feature":"10","num_nodes":"121","size_leaf_vector":"1"}},{"base_weights":[3.5648414E-1,9.5426774E-1,1.439962E-1,1.1473576E0,3.1773332E-1,3.6087534E-1,-2.8903347E-1,1.2356869E0,9.2914355E-1,8.149629E-1,1.1209109E-1,-2.51715E-1,7.875448E-1,-1.8981075E-1,-7.177571E-1,1.2968475E0,7.811718E-1,2.6127604E-1,1.0642401E0,1.1021488E0,2.8401664E-1,-3.8753852E-1,4.3795013E-1,-4.218701E-1,9.253089E-1,1.0394207E0,4.5572472E-1,-7.017435E-1,-2.9868852E-2,1.0041935E0,-7.8502077E-1,1.300056E0,-5.5190813E-2,1.4056958E-1,1.1363238E0,1.2917712E0,-4.5224574E-1,1.1212382E0,-1.1903817E-1,-5.2850556E-1,1.1743513E0,-1.0720917E0,7.773448E-1,1.0059849E0,-5.042404E-1,-8.458959E-1,6.422316E-1,-9.6401125E-1,-1.9418153E-1,-5.74608E-1,1.1467917E0,-8.07815E-1,1.084552E0,-7.775911E-1,6.849248E-1,-8.0317986E-1,-1.5784226E-1,-8.864725E-2,7.2659856E-1,1.2313238E0,-7.580548E-2,-9.670657E-1,-4.2363805E-1,1.11755826E-1,1.3299319E-1,-1.0332898E-1,5.576251E-2,1.1637002E-1,-5.490886E-2,-9.159087E-3,1.3987999E-1,1.04097895E-1,-7.379781E-2,1.2620468E-1,8.1812456E-2,-1.0612782E-1,8.2763515E-2,-1.0560044E-1,6.317459E-2,1.2451291E-1,1.3720828E-2,-1.4794317E-1,-4.9847018E-2,1.10884845E-1,-5.0281473E-2,1.514354E-1,-1.0979072E-2,-9.521222E-2,-2.6476983E-2,8.97124E-2,-9.886968E-2,-1.157551E-1,7.7013806E-2,1.4057617E-1,-1.01120725E-1,-3.980933E-3,-9.24611E-2,-9.822882E-2,6.175917E-2,1.18532754E-1,-1.0450768E-1,7.75856E-2,-1.20166115E-1,1.1676319E-1,5.138386E-2,3.503658E-2,-1.2847397E-1,9.157964E-2,-4.5540994E-3,-5.336177E-2,-9.8677E-2,2.8940627E-1,-6.55871E-2,1.6946329E-2,-2.5147626E-2,1.5344042E-1,-1.0066137E-2,-2.084192E-3,1.370349E-1,-1.02995455E-1,1.8933272E-2,-1.15232304E-1,-2.652218E-2],"categories":[],"categories_nodes":[],"categories_segments":[],"categories_sizes":[],"default_left":[0,0,0,0,0,0,0,0,0,0,0,0,0,0,0,0,0,0,0,0,0,0,0,0,0,0,0,0,0,0,0,0,0,0,0,0,0,0,0,0,0,0,0,0,0,0,0,0,0,0,0,0,0,0,0,0,0,0,0,0,0,0,0,0,0,0,0,0,0,0,0,0,0,0,0,0,0,0,0,0,0,0,0,0,0,0,0,0,0,0,0,0,0,0,0,0,0,0,0,0,0,0,0,0,0,0,0,0,0,0,0,0,0,0,0,0,0,0,0,0,0,0,0],"id":9,"left_children":[1,3,5,7,9,11,13,15,17,19,21,23,25,27,29,31,33,35,37,39,41,43,45,47,49,51,53,55,57,59,61,63,-1,65,67,69,71,73,75,77,79,81,83,85,87,89,91,93,95,97,99,101,103,105,107,109,111,113,115,117,-1,119,121,-1,-1,-1,-1,-1,-1,-1,-1,-1,-1,-1,-1,-1,-1,-1,-1,-1,-1,-1,-1,-1,-1,-1,-1,-1,-1,-1,-1,-1,-1,-1,-1,-1,-1,-1,-1,-1,-1,-1,-1,-1,-1,-1,-1,-1,-1,-1,-1,-1,-1,-1,-1,-1,-1,-1,-1,-1,-1,-1,-1],"loss_changes":[1.293822E3,3.279558E2,7.060304E2,3.834912E1,6.3621853E1,1.3093477E3,1.0659064E2,3.945215E1,5.3360718E1,2.7460411E1,7.212452E1,4.1237903E2,2.4629968E2,1.6691034E2,5.5361115E1,8.319336E0,3.969156E1,7.510243E1,3.3460815E1,1.4497192E1,4.4509254E1,2.8965717E1,7.082172E1,2.2175223E2,8.707713E1,1.4074597E2,3.6119824E2,2.6647064E1,6.918177E1,8.198843E0,2.9459045E1,5.4904785E0,0E0,3.1720097E1,5.8319244E0,6.3055725E0,2.663414E1,1.9092834E1,2.194088E1,4.147748E0,8.13681E0,3.429779E0,2.1118635E1,8.025931E0,1.7137737E1,1.0150335E1,5.4241203E1,6.0868896E1,1.4287735E2,1.7198093E1,2.0412231E1,2.6246538E1,7.707251E1,1.1509999E2,1.8158252E2,1.9702667E1,1.1972868E2,6.070042E1,7.512288E1,2.8940353E0,0E0,2.209552E1,1.7456676E1,0E0,0E0,0E0,0E0,0E0,0E0,0E0,0E0,0E0,0E0,0E0,0E0,0E0,0E0,0E0,0E0,0E0,0E0,0E0,0E0,0E0,0E0,0E0,0E0,0E0,0E0,0E0,0E0,0E0,0E0,0E0,0E0,0E0,0E0,0E0,0E0,0E0,0E0,0E0,0E0,0E0,0E0,0E0,0E0,0E0,0E0,0E0,0E0,0E0,0E0,0E0,0E0,0E0,0E0,0E0,0E0,0E0,0E0,0E0,0E0],"parents":[2147483647,0,0,1,1,2,2,3,3,4,4,5,5,6,6,7,7,8,8,9,9,10,10,11,11,12,12,13,13,14,14,15,15,16,16,17,17,18,18,19,19,20,20,21,21,22,22,23,23,24,24,25,25,26,26,27,27,28,28,29,29,30,30,31,31,33,33,34,34,35,35,36,36,37,37,38,38,39,39,40,40,41,41,42,42,43,43,44,44,45,45,46,46,47,47,48,48,49,49,50,50,51,51,52,52,53,53,54,54,55,55,56,56,57,57,58,58,59,59,61,61,62,62],"right_children":[2,4,6,8,10,12,14,16,18,20,22,24,26,28,30,32,34,36,38,40,42,44,46,48,50,52,54,56,58,60,62,64,-1,66,68,70,72,74,76,78,80,82,84,86,88,90,92,94,96,98,100,102,104,106,108,110,112,114,116,118,-1,120,122,-1,-1,-1,-1,-1,-1,-1,-1,-1,-1,-1,-1,-1,-1,-1,-1,-1,-1,-1,-1,-1,-1,-1,-1,-1,-1,-1,-1,-1,-1,-1,-1,-1,-1,-1,-1,-1,-1,-1,-1,-1,-1,-1,-1,-1,-1,-1,-1,-1,-1,-1,-1,-1,-1,-1,-1,-1,-1,-1,-1],"split_conditions":[1.1139211E1,2.8928E4,4.4E1,7.714286E0,5.2866535E0,1.6472E4,2.470128E6,2.68E2,1.6384E4,1.311E3,6.65E3,5.650522E0,2.9724E4,1.47112E5,1.342E3,1.055E3,4.109E3,9E0,5E1,8.0608E4,2.34692E5,1E1,5.7533236E0,3.5479538E2,8.7E1,4.9936E4,1.13268E5,4.576E3,6.323E3,9.811E3,3.1145403E1,2.1545E4,-5.5190813E-2,5.612512E0,4.285802E6,8.428572E0,5.45E2,1.2987E4,6.0551457E0,4.9880795E0,2.68E2,7.1714287E0,7.261745E0,9.252955E0,7.58E2,8.9627325E2,5.707934E0,5E0,1.9112E4,1.9653847E1,3.2242813E1,5.9562036E2,1.8E1,2.046978E3,2.25298E1,1.7074486E1,5.3356E4,5.353357E0,4.1872E4,4.951224E6,-7.580548E-2,5.9617248E0,1.7423E4,1.11755826E-1,1.3299319E-1,-1.0332898E-1,5.576251E-2,1.1637002E-1,-5.490886E-2,-9.159087E-3,1.3987999E-1,1.04097895E-1,-7.379781E-2,1.2620468E-1,8.1812456E-2,-1.0612782E-1,8.2763515E-2,-1.0560044E-1,6.317459E-2,1.2451291E-1,1.3720828E-2,-1.4794317E-1,-4.9847018E-2,1.10884845E-1,-5.0281473E-2,1.514354E-1,-1.0979072E-2,-9.521222E-2,-2.6476983E-2,8.97124E-2,-9.886968E-2,-1.157551E-1,7.7013806E-2,1.4057617E-1,-1.01120725E-1,-3.980933E-3,-9.24611E-2,-9.822882E-2,6.175917E-2,1.18532754E-1,-1.0450768E-1,7.75856E-2,-1.20166115E-1,1.1676319E-1,5.138386E-2,3.503658E-2,-1.2847397E-1,9.157964E-2,-4.5540994E-3,-5.336177E-2,-9.8677E-2,2.8940627E-1,-6.55871E-2,1.6946329E-2,-2.5147626E-2,1.5344042E-1,-1.0066137E-2,-2.084192E-3,1.370349E-1,-1.02995455E-1,1.8933272E-2,-1.15232304E-1,-2.652218E-2],"split_indices":[7,3,4,7,5,9,9,4,0,6,6,5,3,9,4,6,6,6,4,0,9,4,7,2,6,0,0,8,4,6,7,0,0,7,0,7,3,3,5,5,4,7,7,7,6,2,5,6,3,7,7,2,4,2,7,7,3,5,6,0,0,5,6,0,0,0,0,0,0,0,0,0,0,0,0,0,0,0,0,0,0,0,0,0,0,0,0,0,0,0,0,0,0,0,0,0,0,0,0,0,0,0,0,0,0,0,0,0,0,0,0,0,0,0,0,0,0,0,0,0,0,0,0],"split_type":[0,0,0,0,0,0,0,0,0,0,0,0,0,0,0,0,0,0,0,0,0,0,0,0,0,0,0,0,0,0,0,0,0,0,0,0,0,0,0,0,0,0,0,0,0,0,0,0,0,0,0,0,0,0,0,0,0,0,0,0,0,0,0,0,0,0,0,0,0,0,0,0,0,0,0,0,0,0,0,0,0,0,0,0,0,0,0,0,0,0,0,0,0,0,0,0,0,0,0,0,0,0,0,0,0,0,0,0,0,0,0,0,0,0,0,0,0,0,0,0,0,0,0],"sum_hessian":[1.0185906E4,2.670266E3,7.51564E3,2.0481628E3,6.221034E2,5.007729E3,2.5079111E3,1.4546732E3,5.934896E2,1.8114458E2,4.4095883E2,2.056098E3,2.951631E3,2.0377438E3,4.7016745E2,1.2805114E3,1.741619E2,1.0034664E2,4.9314297E2,1.1685991E2,6.4284676E1,1.739924E2,2.6696643E2,1.7969635E3,2.591344E2,1.6767339E3,1.2748972E3,4.8428503E2,1.5534587E3,1.715179E1,4.5301566E2,1.2785891E3,1.9222243E0,6.261553E1,1.1154637E2,4.072281E1,5.9623833E1,4.705301E2,2.2612871E1,4.6869993E0,1.12172905E2,1.6834684E1,4.7449993E1,1.2856333E1,1.6113606E2,3.6216434E1,2.3075E2,5.305222E2,1.2664413E3,3.3136223E1,2.2599818E2,3.95857E1,1.6371482E3,1.994222E2,1.075475E3,4.077617E2,7.6523346E1,1.4422751E3,1.1118363E2,1.5460425E1,1.691365E0,3.0014362E2,1.5287202E2,1.8526912E2,1.09332E3,1.6027205E1,4.658832E1,1.1006807E2,1.478303E0,2.9347663E0,3.778804E1,9.15211E0,5.047172E1,3.1912158E2,1.5140852E2,1.12723E1,1.1340571E1,3.2838655E0,1.403134E0,1.0481919E2,7.3537154E0,8.920765E0,7.913919E0,3.779628E1,9.653714E0,8.5868E0,4.2695336E0,5.5102303E1,1.0603376E2,2.3424375E0,3.3873997E1,1.4776642E1,2.1597336E2,9.79737E0,5.2072485E2,1.0463546E3,2.200867E2,2.482368E1,8.312543E0,2.2254478E2,3.453401E0,7.6907883E0,3.1894913E1,1.4281973E3,2.0895096E2,6.1949192E1,1.37473E2,8.169997E2,2.584753E2,1.6678331E2,2.4097836E2,1.0060693E1,6.6462654E1,5.578892E2,8.843859E2,5.582077E1,5.5362858E1,1.62995E0,1.3830476E1,2.8476642E2,1.5377212E1,2.6179092E1,1.2669293E2],"tree_param":{"num_deleted":"0","num_feature":"10","num_nodes":"123","size_leaf_vector":"1"}},{"base_weights":[3.3034799E-1,9.5447195E-1,1.4920212E-1,1.1702968E0,4.5678407E-1,3.815313E-1,-2.1683289E-1,1.2447764E0,9.199075E-1,5.481857E-1,-5.3345984E-1,-3.7852567E-1,7.2895336E-1,-1.3257371E-1,-6.88414E-1,1.0547181E0,1.2768154E0,-2.8657234E-1,9.707377E-1,6.916763E-1,-4.588789E-2,5.4705024E-1,-6.356327E-1,-5.4657E-1,8.522085E-1,1.1960378E0,5.83087E-1,-7.958866E-1,-5.576978E-2,-8.133729E-1,1.8759565E-1,1.0953858E0,-5.695672E-1,1.2805464E0,3.0712968E-1,1.2655258E-1,-1.2093914E0,1.0138693E0,-1.4856791E-1,3.2063666E-1,8.3703655E-1,9.449882E-1,-1.7623821E-1,-7.8970954E-2,1.3194112E-1,2.9124534E-1,-7.654509E-1,-9.2039263E-1,-3.2441676E-1,-4.913322E-1,1.168665E0,-8.9952284E-1,1.2589084E0,-2.3485652E-1,8.117035E-1,1.587011E-1,-8.8002706E-1,-1.5548854E-1,2.674541E-1,-1.0315478E0,-5.781861E-1,8.425465E-1,-3.564435E-1,1.3451196E-1,8.911594E-2,-1.5957871E-1,9.043478E-2,1.2844568E-1,6.0983766E-2,-3.6980893E-2,1.0105113E-1,-1.423747E-1,-4.7798406E-2,1.1207453E-1,6.740489E-2,-1.3100143E-1,9.6605115E-2,1.407688E-1,8.822634E-3,9.5155895E-2,2.8669024E-2,-1.2259163E-3,1.331877E-1,-6.711442E-2,1.658551E-2,-6.1647423E-2,8.513474E-2,-1.1037897E-1,-4.9784362E-2,1.290732E-1,-1.0341563E-1,2.6966033E-3,-7.7897236E-2,-9.310736E-2,4.7482632E-2,-6.636285E-2,1.2796427E-1,-1.21409334E-1,5.367775E-2,1.308675E-1,6.081455E-3,-7.2685584E-2,1.0017651E-1,5.223731E-2,1.07563175E-1,-9.876277E-2,6.2849514E-2,8.789841E-3,-3.93529E-2,1.1940363E-2,9.153827E-2,-1.0743532E-1,1.1642001E-1,9.9285565E-2,-6.3941106E-2,-9.7083144E-2,1.1259725E-1,6.9816706E-5,-9.676429E-2],"categories":[],"categories_nodes":[],"categories_segments":[],"categories_sizes":[],"default_left":[0,0,0,0,0,0,0,0,0,0,0,0,0,0,0,0,0,0,0,0,0,0,0,0,0,0,0,0,0,0,0,0,0,0,0,0,0,0,0,0,0,0,0,0,0,0,0,0,0,0,0,0,0,0,0,0,0,0,0,0,0,0,0,0,0,0,0,0,0,0,0,0,0,0,0,0,0,0,0,0,0,0,0,0,0,0,0,0,0,0,0,0,0,0,0,0,0,0,0,0,0,0,0,0,0,0,0,0,0,0,0,0,0,0,0,0,0,0,0],"id":10,"left_children":[1,3,5,7,9,11,13,15,17,19,21,23,25,27,29,31,33,35,37,39,41,43,45,47,49,51,53,55,57,59,61,63,65,67,69,-1,71,73,75,77,79,81,83,-1,-1,85,87,89,91,93,95,97,99,101,103,-1,105,107,109,111,113,115,117,-1,-1,-1,-1,-1,-1,-1,-1,-1,-1,-1,-1,-1,-1,-1,-1,-1,-1,-1,-1,-1,-1,-1,-1,-1,-1,-1,-1,-1,-1,-1,-1,-1,-1,-1,-1,-1,-1,-1,-1,-1,-1,-1,-1,-1,-1,-1,-1,-1,-1,-1,-1,-1,-1,-1,-1],"loss_changes":[1.1203873E3,2.3892554E2,6.534344E2,2.7842041E1,6.147473E1,1.2413982E3,1.18465164E2,5.9311523E0,2.236673E1,5.282721E1,6.7098045E0,3.0554657E2,2.1909778E2,1.2898012E2,4.9636703E1,1.2392487E1,3.289917E0,2.3492813E1,1.6847412E1,2.6640366E1,1.5850483E1,6.7369986E0,6.613693E0,1.07537506E2,7.608743E1,1.0215222E2,4.6024902E2,5.407582E1,7.323541E1,1.9713196E1,2.069817E1,7.6834106E0,9.020499E0,1.8756104E0,2.8579755E0,0E0,9.072685E-1,1.1344025E1,1.9007378E1,3.5766033E1,2.2281784E1,5.302745E0,1.8422419E1,0E0,0E0,4.2105255E0,3.6935368E0,1.2295291E2,1.3035956E2,1.5126229E1,3.0139618E1,1.1006157E1,4.4331665E1,3.2818423E2,1.4628748E2,0E0,4.191832E1,1.006171E2,5.1286148E1,2.042981E1,1.9175133E1,1.4596132E1,6.9800014E0,0E0,0E0,0E0,0E0,0E0,0E0,0E0,0E0,0E0,0E0,0E0,0E0,0E0,0E0,0E0,0E0,0E0,0E0,0E0,0E0,0E0,0E0,0E0,0E0,0E0,0E0,0E0,0E0,0E0,0E0,0E0,0E0,0E0,0E0,0E0,0E0,0E0,0E0,0E0,0E0,0E0,0E0,0E0,0E0,0E0,0E0,0E0,0E0,0E0,0E0,0E0,0E0,0E0,0E0,0E0,0E0],"parents":[2147483647,0,0,1,1,2,2,3,3,4,4,5,5,6,6,7,7,8,8,9,9,10,10,11,11,12,12,13,13,14,14,15,15,16,16,17,17,18,18,19,19,20,20,21,21,22,22,23,23,24,24,25,25,26,26,27,27,28,28,29,29,30,30,31,31,32,32,33,33,34,34,36,36,37,37,38,38,39,39,40,40,41,41,42,42,45,45,46,46,47,47,48,48,49,49,50,50,51,51,52,52,53,53,54,54,56,56,57,57,58,58,59,59,60,60,61,61,62,62],"right_children":[2,4,6,8,10,12,14,16,18,20,22,24,26,28,30,32,34,36,38,40,42,44,46,48,50,52,54,56,58,60,62,64,66,68,70,-1,72,74,76,78,80,82,84,-1,-1,86,88,90,92,94,96,98,100,102,104,-1,106,108,110,112,114,116,118,-1,-1,-1,-1,-1,-1,-1,-1,-1,-1,-1,-1,-1,-1,-1,-1,-1,-1,-1,-1,-1,-1,-1,-1,-1,-1,-1,-1,-1,-1,-1,-1,-1,-1,-1,-1,-1,-1,-1,-1,-1,-1,-1,-1,-1,-1,-1,-1,-1,-1,-1,-1,-1,-1,-1,-1],"split_conditions":[9.909091E0,1.15876E5,2.4E1,7.714286E0,2.093056E6,1.0477E4,2.470128E6,2.1545E4,1.016E3,7.4761906E0,7.250336E6,5.650522E0,1.3337E4,5.1087966E0,4.8387142E1,2.6557443E2,6.47E2,1.7736233E1,5E1,1.38802E5,2.7E1,2.955739E6,1.10519E5,6.6E1,1.6916666E1,3.4328E4,1.9706E4,1.8E1,6.8457414E4,4.7659E4,3.42719E6,6.3540893E0,6.214E3,1.078E5,6.0551457E0,1.2655258E-1,1.2E1,1.3337E4,6.0551457E0,3.6E1,1.3939E4,6.68E2,7.5990337E3,-7.8970954E-2,1.3194112E-1,4.174714E3,5.7533236E0,7E0,1.7125E1,8.775E3,1E0,2.2210985E1,4.3158283E1,9.78E2,5.3481417E0,1.587011E-1,7.280402E1,1.793987E1,5.779966E0,5.991588E0,5.0172195E0,5.1955104E0,5.505443E0,1.3451196E-1,8.911594E-2,-1.5957871E-1,9.043478E-2,1.2844568E-1,6.0983766E-2,-3.6980893E-2,1.0105113E-1,-1.423747E-1,-4.7798406E-2,1.1207453E-1,6.740489E-2,-1.3100143E-1,9.6605115E-2,1.407688E-1,8.822634E-3,9.5155895E-2,2.8669024E-2,-1.2259163E-3,1.331877E-1,-6.711442E-2,1.658551E-2,-6.1647423E-2,8.513474E-2,-1.1037897E-1,-4.9784362E-2,1.290732E-1,-1.0341563E-1,2.6966033E-3,-7.7897236E-2,-9.310736E-2,4.7482632E-2,-6.636285E-2,1.2796427E-1,-1.21409334E-1,5.367775E-2,1.308675E-1,6.081455E-3,-7.2685584E-2,1.0017651E-1,5.223731E-2,1.07563175E-1,-9.876277E-2,6.2849514E-2,8.789841E-3,-3.93529E-2,1.1940363E-2,9.153827E-2,-1.0743532E-1,1.1642001E-1,9.9285565E-2,-6.3941106E-2,-9.7083144E-2,1.1259725E-1,6.9816706E-5,-9.676429E-2],"split_indices":[7,0,4,7,9,9,9,0,0,7,0,5,3,5,7,2,6,2,4,9,4,0,3,6,7,0,9,6,2,6,3,2,9,0,5,0,6,3,5,4,4,6,2,0,0,2,7,6,7,9,4,7,7,6,5,0,7,7,5,5,5,5,5,0,0,0,0,0,0,0,0,0,0,0,0,0,0,0,0,0,0,0,0,0,0,0,0,0,0,0,0,0,0,0,0,0,0,0,0,0,0,0,0,0,0,0,0,0,0,0,0,0,0,0,0,0,0,0,0],"split_type":[0,0,0,0,0,0,0,0,0,0,0,0,0,0,0,0,0,0,0,0,0,0,0,0,0,0,0,0,0,0,0,0,0,0,0,0,0,0,0,0,0,0,0,0,0,0,0,0,0,0,0,0,0,0,0,0,0,0,0,0,0,0,0,0,0,0,0,0,0,0,0,0,0,0,0,0,0,0,0,0,0,0,0,0,0,0,0,0,0,0,0,0,0,0,0,0,0,0,0,0,0,0,0,0,0,0,0,0,0,0,0,0,0,0,0,0,0,0,0],"sum_hessian":[9.910151E3,2.2283333E3,7.681818E3,1.5533596E3,6.7497363E2,4.6991426E3,2.982675E3,1.1941749E3,3.5918472E2,6.1834546E2,5.6628178E1,1.4741179E3,3.225025E3,2.5316218E3,4.5105338E2,1.7716115E2,1.0170138E3,1.4333524E1,3.448512E2,4.979161E2,1.2042936E2,4.515992E0,5.2112186E1,1.2975117E3,1.7660622E2,7.657589E2,2.4592659E3,2.6174167E2,2.2698801E3,3.9480734E2,5.6246048E1,1.7315152E2,4.0096188E0,1.0127963E3,4.217472E0,5.2060494E0,9.127474E0,3.321464E2,1.2704808E1,1.4105966E2,3.5685645E2,1.3274185E1,1.07155174E2,1.645533E0,2.8704593E0,6.2493677E0,4.586282E1,4.8248297E2,8.1502875E2,3.3562298E1,1.4304393E2,2.1917334E1,7.4384155E2,5.3720996E2,1.9220559E3,8.317747E0,2.5342392E2,1.7350986E3,5.347815E2,2.0305449E2,1.9175284E2,2.5272558E1,3.097349E1,7.5383736E1,9.776779E1,2.3150613E0,1.6945574E0,1.00601587E3,6.780419E0,2.390797E0,1.8266753E0,6.3267045E0,2.8007696E0,2.5092924E2,8.1217155E1,6.1358633E0,6.568945E0,2.395556E1,1.171041E2,2.9478513E2,6.207132E1,4.0994816E0,9.174704E0,4.3402687E1,6.3752487E1,2.3462741E0,3.9030938E0,1.8874687E1,2.698813E1,2.3103075E1,4.5937988E2,4.602132E2,3.5481558E2,2.3089544E1,1.0472755E1,7.8846574E0,1.3515927E2,1.8106464E1,3.8108695E0,7.140874E2,2.9754156E1,3.846044E2,1.5260556E2,9.183248E2,1.00373114E3,2.3687338E2,1.655053E1,8.582266E2,8.7687195E2,4.3627722E2,9.8504234E1,1.9967265E2,3.3818455E0,6.621723E0,1.8513112E2,3.0882692E0,2.218429E1,2.0180368E1,1.0793121E1],"tree_param":{"num_deleted":"0","num_feature":"10","num_nodes":"119","size_leaf_vector":"1"}},{"base_weights":[3.0705053E-1,9.032569E-1,1.3773528E-1,1.1207923E0,4.2048115E-1,3.610756E-1,-1.9117904E-1,1.1994501E0,8.630771E-1,4.945166E-1,-6.2128425E-1,-3.5601443E-1,6.940322E-1,-1.1734634E-1,-6.743819E-1,9.468586E-1,1.2275492E0,2.6010084E-1,9.7572553E-1,6.542256E-1,2.0944068E-2,1.6509996E-1,-8.3786523E-1,-5.1330763E-1,8.112262E-1,1.17997E0,5.6732625E-1,-7.644887E-1,-4.5041468E-2,-8.265421E-1,1.3557884E-1,1.1657796E0,-1.3116272E-1,1.2311511E0,2.9211357E-1,9.957694E-1,-3.071299E-1,1.1393216E0,5.5927867E-1,2.9503313E-1,7.9172355E-1,-1.0321117E-1,1.4718462E0,-5.985222E-2,4.6740654E-1,-1.0749735E0,-4.1426986E-1,-8.9419794E-1,-2.9842252E-1,-4.5711425E-1,1.1189866E0,-8.370097E-1,1.2176299E0,-1.04868494E-1,8.1098634E-1,1.4885093E-1,-8.411738E-1,3.285948E-2,-3.7298867E-1,-1.0248723E0,-6.076413E-1,6.686392E-1,-4.4277197E-1,1.298884E-1,7.61414E-2,-8.3126284E-2,8.9531004E-2,1.23504035E-1,5.6578677E-2,-3.5386108E-2,9.745317E-2,1.6255187E-2,1.3785179E-1,9.101059E-2,-6.071059E-2,1.17469944E-1,-4.7335133E-2,-1.0700983E-1,9.319811E-2,4.806237E-2,-1.2149322E-1,9.364186E-2,7.908837E-3,1.055974E-1,-2.8685002E-2,1.5726142E-1,4.0311165E-2,1.1672851E-1,5.066634E-3,-1.16168275E-1,-1.457794E-2,-9.886895E-2,2.163927E-2,1.20172516E-1,-1.0070876E-1,-1.629124E-3,-8.03106E-2,-1.05471544E-1,2.2468459E-2,-6.124307E-2,1.2288844E-1,9.1412395E-2,-1.11948505E-1,1.2720017E-1,-6.6872537E-3,-5.440543E-2,9.615158E-2,9.6736185E-2,2.898099E-2,-1.0270146E-1,1.0568298E-2,-8.960759E-2,7.0740804E-3,2.1363507E-1,-4.4622086E-2,1.3875157E-1,-1.05472766E-1,7.1635574E-2,-6.680302E-2,-9.4273604E-2,8.525236E-2,-1.6292637E-2,-9.2454165E-2],"categories":[],"categories_nodes":[],"categories_segments":[],"categories_sizes":[],"default_left":[0,0,0,0,0,0,0,0,0,0,0,0,0,0,0,0,0,0,0,0,0,0,0,0,0,0,0,0,0,0,0,0,0,0,0,0,0,0,0,0,0,0,0,0,0,0,0,0,0,0,0,0,0,0,0,0,0,0,0,0,0,0,0,0,0,0,0,0,0,0,0,0,0,0,0,0,0,0,0,0,0,0,0,0,0,0,0,0,0,0,0,0,0,0,0,0,0,0,0,0,0,0,0,0,0,0,0,0,0,0,0,0,0,0,0,0,0,0,0,0,0,0,0],"id":11,"left_children":[1,3,5,7,9,11,13,15,17,19,21,23,25,27,29,31,33,35,37,39,41,43,45,47,49,51,53,55,57,59,61,63,65,67,69,71,73,75,77,79,81,83,85,-1,87,89,91,93,95,97,99,101,103,105,107,-1,109,111,113,115,117,119,121,-1,-1,-1,-1,-1,-1,-1,-1,-1,-1,-1,-1,-1,-1,-1,-1,-1,-1,-1,-1,-1,-1,-1,-1,-1,-1,-1,-1,-1,-1,-1,-1,-1,-1,-1,-1,-1,-1,-1,-1,-1,-1,-1,-1,-1,-1,-1,-1,-1,-1,-1,-1,-1,-1,-1,-1,-1,-1,-1,-1],"loss_changes":[9.7090063E2,2.2294507E2,5.504902E2,2.8681152E1,5.139756E1,1.0658213E3,1.0805055E2,6.7911377E0,2.3272705E1,4.6804962E1,7.6995964E0,2.603573E2,1.8700842E2,1.2304361E2,4.959659E1,2.7659065E1,3.0266113E0,2.3626461E1,1.9220856E1,2.2626862E1,2.845952E1,2.6856954E0,3.0673199E0,1.0190256E2,6.629237E1,4.8834595E1,3.963938E2,4.6913696E1,6.048446E1,1.4058289E1,2.013779E1,4.2306824E0,1.552824E1,1.8912354E0,2.6222138E0,7.6103325E0,1.2353678E1,1.244043E1,5.2113197E1,3.6938953E1,3.4380966E1,3.1316614E1,7.0713425E-1,0E0,2.2823272E0,1.5867023E0,5.350131E0,1.076207E2,1.1383303E2,1.3933737E1,2.6612152E1,7.023776E0,4.3271484E1,3.0242856E2,1.4446484E2,0E0,4.519568E1,6.740272E1,8.446107E1,1.4136459E1,1.3527115E1,1.0845371E1,4.0921855E0,0E0,0E0,0E0,0E0,0E0,0E0,0E0,0E0,0E0,0E0,0E0,0E0,0E0,0E0,0E0,0E0,0E0,0E0,0E0,0E0,0E0,0E0,0E0,0E0,0E0,0E0,0E0,0E0,0E0,0E0,0E0,0E0,0E0,0E0,0E0,0E0,0E0,0E0,0E0,0E0,0E0,0E0,0E0,0E0,0E0,0E0,0E0,0E0,0E0,0E0,0E0,0E0,0E0,0E0,0E0,0E0,0E0,0E0,0E0,0E0],"parents":[2147483647,0,0,1,1,2,2,3,3,4,4,5,5,6,6,7,7,8,8,9,9,10,10,11,11,12,12,13,13,14,14,15,15,16,16,17,17,18,18,19,19,20,20,21,21,22,22,23,23,24,24,25,25,26,26,27,27,28,28,29,29,30,30,31,31,32,32,33,33,34,34,35,35,36,36,37,37,38,38,39,39,40,40,41,41,42,42,44,44,45,45,46,46,47,47,48,48,49,49,50,50,51,51,52,52,53,53,54,54,56,56,57,57,58,58,59,59,60,60,61,61,62,62],"right_children":[2,4,6,8,10,12,14,16,18,20,22,24,26,28,30,32,34,36,38,40,42,44,46,48,50,52,54,56,58,60,62,64,66,68,70,72,74,76,78,80,82,84,86,-1,88,90,92,94,96,98,100,102,104,106,108,-1,110,112,114,116,118,120,122,-1,-1,-1,-1,-1,-1,-1,-1,-1,-1,-1,-1,-1,-1,-1,-1,-1,-1,-1,-1,-1,-1,-1,-1,-1,-1,-1,-1,-1,-1,-1,-1,-1,-1,-1,-1,-1,-1,-1,-1,-1,-1,-1,-1,-1,-1,-1,-1,-1,-1,-1,-1,-1,-1,-1,-1,-1,-1,-1,-1],"split_conditions":[9.909091E0,1.15876E5,2.2E1,7.714286E0,1.6251288E7,1.0477E4,2.639346E6,1.2472E4,1.5132E4,7.093633E0,1.49276E5,5.650522E0,1.2511E4,5.1087966E0,4.4955574E1,3.8E2,6.47E2,5.45E2,1.3337E4,1.38802E5,1.5418E4,8.0975E4,8.97536E6,6.6E1,1.6916666E1,3.4328E4,2.0619E4,1.8E1,3.064655E1,4.7659E4,3.130824E5,6.3540893E0,2.535E3,1.078E5,9.0256E4,7.6E2,9E0,6E1,1.8479E4,5.8223E4,1.3939E4,2.7E1,6.468195E0,-5.985222E-2,2.802688E6,2.5060381E5,5.7533236E0,7E0,1.8185968E1,1.4E2,1E0,4.791455E0,4.3158283E1,9.16E2,4.2146E4,1.4885093E-1,4.6509846E1,3.43E2,5.118055E0,3.62E2,5.0172195E0,5.1955104E0,5.505443E0,1.298884E-1,7.61414E-2,-8.3126284E-2,8.9531004E-2,1.23504035E-1,5.6578677E-2,-3.5386108E-2,9.745317E-2,1.6255187E-2,1.3785179E-1,9.101059E-2,-6.071059E-2,1.17469944E-1,-4.7335133E-2,-1.0700983E-1,9.319811E-2,4.806237E-2,-1.2149322E-1,9.364186E-2,7.908837E-3,1.055974E-1,-2.8685002E-2,1.5726142E-1,4.0311165E-2,1.1672851E-1,5.066634E-3,-1.16168275E-1,-1.457794E-2,-9.886895E-2,2.163927E-2,1.20172516E-1,-1.0070876E-1,-1.629124E-3,-8.03106E-2,-1.05471544E-1,2.2468459E-2,-6.124307E-2,1.2288844E-1,9.1412395E-2,-1.11948505E-1,1.2720017E-1,-6.6872537E-3,-5.440543E-2,9.615158E-2,9.6736185E-2,2.898099E-2,-1.0270146E-1,1.0568298E-2,-8.960759E-2,7.0740804E-3,2.1363507E-1,-4.4622086E-2,1.3875157E-1,-1.05472766E-1,7.1635574E-2,-6.680302E-2,-9.4273604E-2,8.525236E-2,-1.6292637E-2,-9.2454165E-2],"split_indices":[7,0,4,7,0,9,9,0,0,7,3,5,3,5,7,3,6,3,3,9,4,6,9,6,7,0,9,6,7,6,2,2,9,0,0,0,6,4,9,3,4,4,5,0,9,2,7,6,7,6,4,5,7,6,3,0,7,6,5,4,5,5,5,0,0,0,0,0,0,0,0,0,0,0,0,0,0,0,0,0,0,0,0,0,0,0,0,0,0,0,0,0,0,0,0,0,0,0,0,0,0,0,0,0,0,0,0,0,0,0,0,0,0,0,0,0,0,0,0,0,0,0,0],"split_type":[0,0,0,0,0,0,0,0,0,0,0,0,0,0,0,0,0,0,0,0,0,0,0,0,0,0,0,0,0,0,0,0,0,0,0,0,0,0,0,0,0,0,0,0,0,0,0,0,0,0,0,0,0,0,0,0,0,0,0,0,0,0,0,0,0,0,0,0,0,0,0,0,0,0,0,0,0,0,0,0,0,0,0,0,0,0,0,0,0,0,0,0,0,0,0,0,0,0,0,0,0,0,0,0,0,0,0,0,0,0,0,0,0,0,0,0,0,0,0,0,0,0,0],"sum_hessian":[9.618172E3,2.126353E3,7.4918184E3,1.4649398E3,6.6141327E2,4.461953E3,3.0298657E3,1.119577E3,3.4536285E2,6.180177E2,4.3395546E1,1.4148074E3,3.0471455E3,2.6293481E3,4.0051767E2,1.15550766E2,1.00402625E3,5.4885395E1,2.9047745E2,4.618729E2,1.561448E2,9.422192E0,3.3973354E1,1.2472875E3,1.675198E2,6.2848645E2,2.4186592E3,2.6328894E2,2.366059E3,3.3715826E2,6.3359398E1,9.597839E1,1.9572376E1,9.998601E2,4.166146E0,2.3566013E1,3.131938E1,2.073046E2,8.317286E1,1.2873033E2,3.3314258E2,1.446922E2,1.1452601E1,2.3943205E0,7.027871E0,2.0795374E1,1.3177982E1,4.4873325E2,7.9855426E2,3.2616318E1,1.3490349E2,1.1130602E1,6.1735583E2,6.436276E2,1.7750315E3,8.06055E0,2.5522838E2,1.9126305E3,4.534286E2,1.7495879E2,1.6219946E2,3.2889423E1,3.0469975E1,7.054503E1,2.5433363E1,1.17491255E1,7.8232512E0,9.931984E2,6.6616726E0,2.387555E0,1.7785909E0,7.866302E0,1.5699712E1,5.790182E0,2.5529198E1,2.0312025E2,4.1843433E0,1.5134932E1,6.8037926E1,1.1524697E2,1.3483364E1,2.7665576E2,5.6486813E1,1.9137856E1,1.25554344E2,1.0034961E1,1.4176404E0,1.9507567E0,5.0771146E0,1.8791597E1,2.0037754E0,6.599412E0,6.578571E0,2.2441238E1,4.2629202E2,5.128756E2,2.8567865E2,1.7089926E1,1.5526393E1,7.778709E0,1.2712479E2,1.2354742E0,9.895127E0,5.9229425E2,2.5061577E1,4.562237E2,1.8740395E2,1.3647048E3,4.103267E2,2.132825E2,4.1945873E1,7.405208E1,1.8385785E3,1.2058692E1,4.413699E2,1.5828879E0,1.733759E2,6.601544E0,1.5559793E2,2.9460924E0,2.994333E1,2.0120665E1,1.034931E1],"tree_param":{"num_deleted":"0","num_feature":"10","num_nodes":"123","size_leaf_vector":"1"}},{"base_weights":[2.8526667E-1,8.575265E-1,1.2695234E-1,1.0784647E0,3.8723356E-1,3.203066E-1,-2.0035776E-1,1.1598918E0,8.172381E-1,4.6462393E-1,-4.8296487E-1,-1.7351389E-1,6.8917274E-1,-1.2822081E-1,-6.431534E-1,9.019784E-1,1.1891229E0,1.7933828E-1,9.1590774E-1,6.0957456E-1,3.0785512E-2,4.6288434E-1,-5.7652116E-1,-3.408237E-1,6.942539E-1,1.0516634E0,5.0726783E-1,-2.4818109E-1,1.7963824E-1,-7.9404265E-1,1.2075727E-1,1.1214007E0,-1.175689E-1,1.1928363E0,2.7841678E-1,9.1728675E-1,-5.3408617E-1,1.0771979E0,5.0510705E-1,6.516813E-1,-4.7808746E-1,-7.706112E-2,1.3181907E0,-7.814771E-2,1.2062456E-1,-1.0145693E0,-3.0086276E-1,-8.18435E-1,-1.5146679E-1,-7.026817E-1,9.5271766E-1,-4.9257696E-1,1.1056916E0,2.2455554E-1,9.127303E-1,-1.3031004E-1,-6.4065635E-1,1.4622612E0,3.2829759E-3,-1.0024226E0,-5.722957E-1,5.991441E-1,-4.136116E-1,1.2595041E-1,7.154906E-2,-7.494162E-2,8.296038E-2,1.1969846E-1,5.250884E-2,-3.3802565E-2,9.410333E-2,1.4866123E-2,1.311308E-1,8.624951E-2,-1.008234E-1,1.1108953E-1,-4.3620385E-2,-1.05237655E-1,8.353413E-2,3.1547975E-2,8.3814345E-2,8.7298326E-2,-1.1655859E-1,1.1763763E-1,-2.1672403E-2,1.4257677E-1,3.2861765E-2,9.709488E-3,-1.08799174E-1,-1.1046342E-1,-3.424379E-5,1.1131177E-1,-9.126889E-2,2.9032886E-2,-3.951201E-2,-9.6174166E-2,4.9165666E-2,1.0488687E-1,-2.4548184E-2,6.296564E-2,-8.946954E-2,1.1431705E-1,5.1567342E-2,-7.028144E-2,6.2425524E-2,-3.6259435E-2,1.0532297E-1,-5.86158E-2,-5.632517E-3,-3.665721E-2,-9.907069E-2,1.9941317E-1,8.556881E-2,-2.1824202E-2,8.205379E-2,1.2656686E-1,-1.0335968E-1,-8.832864E-2,-3.253905E-2,-9.1170214E-2,7.631492E-2,-3.3783857E-3,-7.5475566E-2],"categories":[],"categories_nodes":[],"categories_segments":[],"categories_sizes":[],"default_left":[0,0,0,0,0,0,0,0,0,0,0,0,0,0,0,0,0,0,0,0,0,0,0,0,0,0,0,0,0,0,0,0,0,0,0,0,0,0,0,0,0,0,0,0,0,0,0,0,0,0,0,0,0,0,0,0,0,0,0,0,0,0,0,0,0,0,0,0,0,0,0,0,0,0,0,0,0,0,0,0,0,0,0,0,0,0,0,0,0,0,0,0,0,0,0,0,0,0,0,0,0,0,0,0,0,0,0,0,0,0,0,0,0,0,0,0,0,0,0,0,0,0,0],"id":12,"left_children":[1,3,5,7,9,11,13,15,17,19,21,23,25,27,29,31,33,35,37,39,41,43,45,47,49,51,53,55,57,59,61,63,65,67,69,71,73,75,77,79,81,83,85,-1,-1,87,89,91,93,95,97,99,101,103,105,107,109,111,113,115,117,119,121,-1,-1,-1,-1,-1,-1,-1,-1,-1,-1,-1,-1,-1,-1,-1,-1,-1,-1,-1,-1,-1,-1,-1,-1,-1,-1,-1,-1,-1,-1,-1,-1,-1,-1,-1,-1,-1,-1,-1,-1,-1,-1,-1,-1,-1,-1,-1,-1,-1,-1,-1,-1,-1,-1,-1,-1,-1,-1,-1,-1],"loss_changes":[8.4630804E2,2.0992566E2,4.6327927E2,2.8337158E1,4.390499E1,8.383149E2,8.675855E1,6.82251E0,2.0641235E1,3.7469986E1,4.9977922E0,2.8601172E2,1.7316577E2,8.642952E1,4.396794E1,2.4906975E1,2.8381348E0,2.44569E1,1.8407684E1,2.077388E1,2.0976627E1,5.907014E0,5.6231728E0,1.4917686E2,1.1566292E2,7.390491E1,2.0108041E2,7.780403E1,1.4848515E2,1.4118866E1,1.6518393E1,4.212837E0,1.2901266E1,1.9569092E0,2.4059188E0,6.6935883E0,1.6615437E1,1.091391E1,4.3323822E1,2.672731E1,1.7020853E1,2.4706114E1,7.7450943E-1,0E0,0E0,1.6189766E0,7.621708E0,8.630194E1,1.27500275E2,1.6036768E1,3.1270157E1,1.4288781E1,1.8203735E1,3.844218E2,1.295816E2,4.3676872E1,3.692064E1,2.3892838E1,1.0484219E2,1.2804565E1,1.1719799E1,9.118362E0,3.9468236E0,0E0,0E0,0E0,0E0,0E0,0E0,0E0,0E0,0E0,0E0,0E0,0E0,0E0,0E0,0E0,0E0,0E0,0E0,0E0,0E0,0E0,0E0,0E0,0E0,0E0,0E0,0E0,0E0,0E0,0E0,0E0,0E0,0E0,0E0,0E0,0E0,0E0,0E0,0E0,0E0,0E0,0E0,0E0,0E0,0E0,0E0,0E0,0E0,0E0,0E0,0E0,0E0,0E0,0E0,0E0,0E0,0E0,0E0,0E0,0E0],"parents":[2147483647,0,0,1,1,2,2,3,3,4,4,5,5,6,6,7,7,8,8,9,9,10,10,11,11,12,12,13,13,14,14,15,15,16,16,17,17,18,18,19,19,20,20,21,21,22,22,23,23,24,24,25,25,26,26,27,27,28,28,29,29,30,30,31,31,32,32,33,33,34,34,35,35,36,36,37,37,38,38,39,39,40,40,41,41,42,42,45,45,46,46,47,47,48,48,49,49,50,50,51,51,52,52,53,53,54,54,55,55,56,56,57,57,58,58,59,59,60,60,61,61,62,62],"right_children":[2,4,6,8,10,12,14,16,18,20,22,24,26,28,30,32,34,36,38,40,42,44,46,48,50,52,54,56,58,60,62,64,66,68,70,72,74,76,78,80,82,84,86,-1,-1,88,90,92,94,96,98,100,102,104,106,108,110,112,114,116,118,120,122,-1,-1,-1,-1,-1,-1,-1,-1,-1,-1,-1,-1,-1,-1,-1,-1,-1,-1,-1,-1,-1,-1,-1,-1,-1,-1,-1,-1,-1,-1,-1,-1,-1,-1,-1,-1,-1,-1,-1,-1,-1,-1,-1,-1,-1,-1,-1,-1,-1,-1,-1,-1,-1,-1,-1,-1,-1,-1,-1,-1],"split_conditions":[9.909091E0,1.15876E5,3E1,7.714286E0,2.093056E6,1.6472E4,2.639346E6,1.2472E4,9.464E3,7.093633E0,7.250336E6,5.5813556E0,1.9369E4,4.951224E6,4.4955574E1,3.8E2,6.47E2,5.45E2,1.3337E4,9.798236E6,1.5418E4,2.955739E6,5.7533236E0,3.5479538E2,8.9E1,4.9936E4,9.78E2,2.8115595E1,4.0696E4,4.7659E4,3.130824E5,6.3540893E0,2.535E3,1.078E5,6.0551457E0,7.6E2,9E0,6E1,1.7525E4,1.7272E5,6.6991E4,1.2E1,6.154E4,-7.814771E-2,1.2062456E-1,3.5599893E3,6.1713715E0,7E0,1.4785714E1,1.9653847E1,1.002141E3,5.9562036E2,1.8E1,3.0528E4,4.997543E0,5.177306E0,5.3000145E0,5.0034E6,5.7464824E0,3.62E2,9.994E3,5.1955104E0,3.5119816E7,1.2595041E-1,7.154906E-2,-7.494162E-2,8.296038E-2,1.1969846E-1,5.250884E-2,-3.3802565E-2,9.410333E-2,1.4866123E-2,1.311308E-1,8.624951E-2,-1.008234E-1,1.1108953E-1,-4.3620385E-2,-1.05237655E-1,8.353413E-2,3.1547975E-2,8.3814345E-2,8.7298326E-2,-1.1655859E-1,1.1763763E-1,-2.1672403E-2,1.4257677E-1,3.2861765E-2,9.709488E-3,-1.08799174E-1,-1.1046342E-1,-3.424379E-5,1.1131177E-1,-9.126889E-2,2.9032886E-2,-3.951201E-2,-9.6174166E-2,4.9165666E-2,1.0488687E-1,-2.4548184E-2,6.296564E-2,-8.946954E-2,1.1431705E-1,5.1567342E-2,-7.028144E-2,6.2425524E-2,-3.6259435E-2,1.0532297E-1,-5.86158E-2,-5.632517E-3,-3.665721E-2,-9.907069E-2,1.9941317E-1,8.556881E-2,-2.1824202E-2,8.205379E-2,1.2656686E-1,-1.0335968E-1,-8.832864E-2,-3.253905E-2,-9.1170214E-2,7.631492E-2,-3.3783857E-3,-7.5475566E-2],"split_indices":[7,0,4,7,9,9,9,0,0,7,0,5,3,0,7,3,6,3,3,0,4,0,7,2,6,0,6,7,8,6,2,2,9,0,5,0,6,4,9,9,3,4,6,0,0,2,5,6,7,7,2,2,4,9,5,5,5,0,5,4,4,5,0,0,0,0,0,0,0,0,0,0,0,0,0,0,0,0,0,0,0,0,0,0,0,0,0,0,0,0,0,0,0,0,0,0,0,0,0,0,0,0,0,0,0,0,0,0,0,0,0,0,0,0,0,0,0,0,0,0,0,0,0],"split_type":[0,0,0,0,0,0,0,0,0,0,0,0,0,0,0,0,0,0,0,0,0,0,0,0,0,0,0,0,0,0,0,0,0,0,0,0,0,0,0,0,0,0,0,0,0,0,0,0,0,0,0,0,0,0,0,0,0,0,0,0,0,0,0,0,0,0,0,0,0,0,0,0,0,0,0,0,0,0,0,0,0,0,0,0,0,0,0,0,0,0,0,0,0,0,0,0,0,0,0,0,0,0,0,0,0,0,0,0,0,0,0,0,0,0,0,0,0,0,0,0,0,0,0],"sum_hessian":[9.341668E3,2.0233685E3,7.3183E3,1.3757594E3,6.4760925E2,4.6005845E3,2.7177153E3,1.0462057E3,3.2955368E2,5.951464E2,5.2462795E1,1.9673367E3,2.6332478E3,2.3380994E3,3.7961606E2,1.0974596E2,9.364597E2,4.45239E1,2.850298E2,4.457957E2,1.4935077E2,4.366819E0,4.8095974E1,1.6498457E3,3.17491E2,8.782784E2,1.7549694E3,1.6826372E3,6.5546216E2,3.1696835E2,6.264769E1,9.022767E1,1.9518286E1,9.323483E2,4.111395E0,2.1745323E1,2.2778574E1,2.0350618E2,8.152361E1,4.2956668E2,1.6229008E1,1.386741E2,1.0676662E1,1.6139114E0,2.7529078E0,1.754103E1,3.0554943E1,4.6745947E2,1.1823862E3,4.930271E1,2.6818826E2,2.9415075E1,8.4886334E2,1.0349176E3,7.2005176E2,1.2950349E3,3.8760233E2,7.834818E1,5.7711395E2,1.6159438E2,1.5537398E2,3.299137E1,2.965632E1,6.575339E1,2.4474283E1,1.1833254E1,7.685033E0,9.258043E2,6.5439887E0,2.3836815E0,1.7277135E0,7.8362603E0,1.3909063E1,5.5657797E0,1.7212793E1,1.9933379E2,4.172393E0,1.3879057E1,6.7644554E1,1.5420978E2,2.753569E2,5.3821726E0,1.0846835E1,1.315836E1,1.2551574E2,9.232231E0,1.4444313E0,1.0667845E0,1.6474247E1,7.587006E0,2.2967937E1,2.1246351E1,4.462131E2,4.2022916E2,7.621571E2,4.0674824E1,8.62789E0,2.4838123E2,1.980704E1,7.6103196E0,2.1804754E1,7.972811E2,5.158221E1,3.1147815E2,7.2343945E2,7.1297516E1,6.487542E2,1.7986961E2,1.1151653E3,2.1853773E2,1.6906458E2,4.0525803E1,3.782238E1,4.5461816E2,1.2249577E2,1.6540399E0,1.5994034E2,6.762241E1,8.7751564E1,2.7841594E0,3.0207212E1,1.45525875E1,1.5103732E1],"tree_param":{"num_deleted":"0","num_feature":"10","num_nodes":"123","size_leaf_vector":"1"}},{"base_weights":[2.6519892E-1,7.6498854E-1,1.0231199E-1,9.6129227E-1,2.0435177E-1,-8.375601E-1,1.6590531E-1,1.0510503E0,7.5589067E-1,6.5063035E-1,3.3223163E-2,1.1165389E0,-8.7908524E-1,4.381632E-1,-1.6488147E-1,1.1251403E0,5.8503056E-1,3.5759956E-1,9.551936E-1,9.4649774E-1,1.6291632E-1,-3.93195E-1,3.2283476E-1,3.5759483E-2,1.200845E-1,-1.0351189E0,-5.127413E-1,4.4201806E-2,7.1943426E-1,-9.9549085E-2,-5.9335303E-1,1.1291292E0,-6.048122E-2,-4.21099E-1,7.838617E-1,1.0174208E0,2.8187819E-2,1.094773E0,2.4735796E-1,-1.4958099E-1,9.969966E-1,-6.378202E-1,8.3359545E-1,-1.1273291E-1,-9.2076796E-1,-8.1613195E-1,4.857238E-1,-3.6020175E-2,-1.0468252E0,-1.11543E0,-1.600584E-1,2.488675E-1,-4.790763E-1,4.730799E-1,9.667037E-1,-7.059512E-1,-3.376084E-2,-8.448694E-1,-1.8503499E-1,9.074334E-2,1.16804205E-1,8.4698595E-2,-1.0295885E-1,-1.602776E-1,8.491859E-2,9.5571065E-3,1.340596E-1,-2.062164E-2,1.053366E-1,1.399493E-3,1.1301517E-1,-3.252901E-2,6.55412E-2,1.3475992E-1,7.304061E-2,-1.02688126E-1,9.745506E-2,1.065519E-1,-9.475306E-2,-8.14232E-2,2.3123872E-2,6.569358E-2,-1.0416248E-1,7.919993E-2,-9.676402E-2,-1.2397577E-1,5.9026636E-2,-8.572703E-2,1.2247493E-1,-7.303074E-2,-1.0755179E-1,2.503629E-2,-1.1532946E-1,1.661557E-1,-3.430366E-2,-4.8609935E-3,7.285414E-2,-7.093043E-2,8.447493E-2,6.357574E-2,-4.026169E-2,-8.239415E-2,1.03217624E-1,1.1983042E-1,-7.836758E-2,1.7320523E-2,-1.4928559E-2,-9.208389E-2,3.00272E-2,3.7721607E-3,-8.598956E-2],"categories":[],"categories_nodes":[],"categories_segments":[],"categories_sizes":[],"default_left":[0,0,0,0,0,0,0,0,0,0,0,0,0,0,0,0,0,0,0,0,0,0,0,0,0,0,0,0,0,0,0,0,0,0,0,0,0,0,0,0,0,0,0,0,0,0,0,0,0,0,0,0,0,0,0,0,0,0,0,0,0,0,0,0,0,0,0,0,0,0,0,0,0,0,0,0,0,0,0,0,0,0,0,0,0,0,0,0,0,0,0,0,0,0,0,0,0,0,0,0,0,0,0,0,0,0,0,0,0,0,0],"id":13,"left_children":[1,3,5,7,9,11,13,15,17,19,21,23,25,27,29,31,33,35,37,39,41,43,45,-1,-1,47,49,51,53,55,57,59,-1,61,63,65,67,69,71,-1,73,75,77,79,81,83,85,87,89,91,93,95,97,99,101,103,105,107,109,-1,-1,-1,-1,-1,-1,-1,-1,-1,-1,-1,-1,-1,-1,-1,-1,-1,-1,-1,-1,-1,-1,-1,-1,-1,-1,-1,-1,-1,-1,-1,-1,-1,-1,-1,-1,-1,-1,-1,-1,-1,-1,-1,-1,-1,-1,-1,-1,-1,-1,-1,-1],"loss_changes":[7.384504E2,2.4519458E2,4.091481E2,2.9647583E1,4.4236877E1,3.6184967E1,5.7737585E2,3.8927612E1,3.9800262E1,2.301632E1,5.1988445E1,1.7637062E-1,2.378424E1,3.8962897E2,8.097475E1,7.501709E0,3.2209187E1,3.697561E1,3.2969055E1,1.3792076E1,3.3740852E1,